[[{"Layer":0,"Node":0,"InputSum":[0,0,0,0],"RefInputSum":[0,1,0,1],"OutputSum":[0,0.347392747497937,0,0.347392747497937],"Weights":[0.6574547992162519,0.347392747497937],"TrainRel":false,"LocalDeriv":0,"WeightsChange":[-0.000032451978961163766,-0.0000027856383842648303]},{"Layer":0,"Node":1,"InputSum":[0,0,0,0],"RefInputSum":[0,0,1,1],"OutputSum":[-0,-0,-0.3261091335267188,-0.3261091335267188],"Weights":[-0.01092394989102019,-0.3261091335267188],"TrainRel":false,"LocalDeriv":0,"WeightsChange":[-0.000008230726284558887,0.0000030446536356337275]}],[{"Layer":1,"Node":0,"InputSum":[0,0.6574547992162519,-0.01092394989102019,0.6465308493252317],"RefInputSum":[0.5,0.6586884128592944,0.4972690396849256,0.6562282722281474],"OutputSum":[0.3369265338930924,0.44385920772044857,0.3350862679067772,0.44220143440896476],"Weights":[0.6215394838778164,0.6738530677861848],"TrainRel":false,"LocalDeriv":0,"WeightsChange":[-0.00028125916841737684,0.00008788834955173632]},{"Layer":1,"Node":1,"InputSum":[0,0.347392747497937,-0.3261091335267188,0.02128361397121825],"RefInputSum":[0.5,0.5859851845195602,0.41918763096968276,0.5053207026412442],"OutputSum":[-0.19703433111656127,-0.23091839775205253,-0.16518870896089474,-0.1991310532885366],"Weights":[-0.12289396362467625,-0.39406866223312254],"TrainRel":false,"LocalDeriv":0,"WeightsChange":[-0.0002495166162512328,0.00007883905463096914]}],[{"Layer":2,"Node":0,"InputSum":[0.2493227601265701,0.33738681421391786,0.25755671280188364,0.34577091757752504],"RefInputSum":[0.5620098020577077,0.5835556095419966,0.5640355831233558,0.5855916631694449],"OutputSum":[0.048501095306329345,0.05036048505081644,0.048675918948506085,0.05053619520866797],"Weights":[-0.056715991343105676,0.08629937614744522],"TrainRel":true,"LocalDeriv":-0.007454950206167414,"WeightsChange":[0.004948578620604825,-0.008840162812983334]},{"Layer":2,"Node":1,"InputSum":[0.13989220277653114,0.21294080996839604,0.16989755894588246,0.24307038112042814],"RefInputSum":[0.5349161273727822,0.553034953301702,0.5423725145469518,0.5604701571329742],"OutputSum":[0.04444634471657328,0.04595184350766719,0.04506589820865265,0.04656963686930276],"Weights":[0.20946155738205896,0.08309030601651443],"TrainRel":true,"LocalDeriv":-0.02426630137559552,"WeightsChange":[0.004690838369479214,-0.008390775553438357]}],[{"Layer":3,"Node":0,"InputSum":[0.08016942204003728,0.08274262770628413,0.08161635432860014,0.08418454028032699],"RefInputSum":[0.5200316278256822,0.5206738632432888,0.5203927697624341,0.521033714311461],"OutputSum":[-0.023709111171280415,-0.02373839175749751,-0.023725576235843624,-0.023754797969204423],"Weights":[0.2933917642386866,-0.04559167154969246],"TrainRel":true,"LocalDeriv":-0.0011629489140551471,"WeightsChange":[0.07258970669034936,0.07886089400988582]},{"Layer":3,"Node":1,"InputSum":[0.09294744002290262,0.09631232855848362,0.09374181715715874,0.09710583207797073],"RefInputSum":[0.5232201454040986,0.5240594869013145,0.5234183077136162,0.5242573996658099],"OutputSum":[-0.002701128096162274,-0.0027054612032116096,-0.0027021511106362773,-0.002706482929407482],"Weights":[-0.43161936130286194,-0.00516250782751515],"TrainRel":true,"LocalDeriv":-0.0006633479935655679,"WeightsChange":[0.07305653186223739,0.07934477244627688]}],[{"Layer":4,"Node":0,"InputSum":[-0.0732589482324146,-0.07343279769112976,-0.07323852285191867,-0.07341264333238073],"RefInputSum":[0.48169344962131255,0.4816500456570119,0.4816985491231898,0.4816550774621676],"OutputSum":[0.41100001514827766,0.4109629811591315,0.41100436624616044,0.41096727449547815],"Weights":[-0.10914221299050464,0.8532397844965275],"TrainRel":true,"LocalDeriv":-0.000013702978021063182,"WeightsChange":[0.28323551216234627,0.3514722999199612]},{"Layer":4,"Node":1,"InputSum":[-0.026410239267442688,-0.02644385296070912,-0.026427727346479902,-0.026461280898611904],"RefInputSum":[0.4933978239305684,0.4933894219742953,0.49339345267359713,0.49338506575191804],"OutputSum":[0.21691959980103634,0.2169159059278494,0.21691767800230347,0.21691399073899187],"Weights":[0.48521375520032206,0.4396444193308026],"TrainRel":true,"LocalDeriv":0.000014108861133863662,"WeightsChange":[0.2901141673634505,0.3600325478202737]}],[{"Layer":5,"Node":0,"InputSum":[0.1868303218823182,0.18683098234228024,0.1868276443173882,0.18682831946091205],"RefInputSum":[0.5465721901484831,0.5465723538309515,0.546571526564723,0.546571693886275],"OutputSum":[0,0,0,0],"Weights":null,"TrainRel":true,"LocalDeriv":0.0000020672548865107657,"WeightsChange":null},{"Layer":5,"Node":1,"InputSum":[0.627919614949314,0.6278788870869809,0.6279220442484639,0.6278812652344701],"RefInputSum":[0.6520175916742124,0.6520083508457685,0.6520181428592764,0.6520088904316885],"OutputSum":[0,0,0,0],"Weights":null,"TrainRel":true,"LocalDeriv":-0.000001245427281143274,"WeightsChange":null}]]end