[[{"Layer":0,"Node":0,"InputSum":0,"RefInputSum":0.5,"OutputSum":0.3407886216572258,"Weights":[-0.8176687673665859,0.05313838507715935,-0.10002772539512397,0.28291146588348265,-0.853783442156877,0.6815775477296437],"TrainRel":false,"LocalDeriv":0},{"Layer":0,"Node":1,"InputSum":0,"RefInputSum":0.5,"OutputSum":0.22332280366361368,"Weights":[-0.009776933351868864,0.021400652890268216,-0.005977863183751032,0.4701075960703643,-0.0742403037563937,0.44664591174241947],"TrainRel":false,"LocalDeriv":0},{"Layer":0,"Node":2,"InputSum":0,"RefInputSum":0.5,"OutputSum":0.36705954430564597,"Weights":[-0.36779275576727405,-0.590760628980654,-0.14185017224780813,-0.10593926810346073,-0.2638392486863146,0.7341193930264841],"TrainRel":false,"LocalDeriv":0},{"Layer":0,"Node":3,"InputSum":0,"RefInputSum":0.5,"OutputSum":0.18792633718859908,"Weights":[0.33435312879561996,-0.42271368930131936,-0.13963743755312588,-0.048740319000739774,-0.025977645236424412,0.37585297879239027],"TrainRel":false,"LocalDeriv":0},{"Layer":0,"Node":4,"InputSum":0,"RefInputSum":0.5,"OutputSum":-0.27942418187982176,"Weights":[-0.2904121999029913,0.06671795795540858,-0.8508772442575305,0.11970002934716222,0.6389098382951359,-0.5588480593444514],"TrainRel":false,"LocalDeriv":0},{"Layer":0,"Node":5,"InputSum":0,"RefInputSum":0.5,"OutputSum":0.13993094776175416,"Weights":[0.10354947803640854,-0.11921951974905252,-0.7496936906945106,0.0852941625383324,0.30818283890538767,0.2798618955235083],"TrainRel":false,"LocalDeriv":0}],[{"Layer":1,"Node":0,"InputSum":-0.523874423709189,"RefInputSum":0.3719467110566897,"OutputSum":-0.20228633284254474,"Weights":[-0.7257171078491292,0.9329094271063681,0.352131544081173,-0.7822557526378655,-0.5116027986404124,-0.5438587712437386],"TrainRel":false,"LocalDeriv":0},{"Layer":1,"Node":1,"InputSum":-0.49571859816911534,"RefInputSum":0.3785473403796049,"OutputSum":0.07667721028616345,"Weights":[-0.5910483698487574,0.49678666762736984,-0.5157547233005396,0.9065672789209801,-0.40467216538275674,0.20255605677891045],"TrainRel":false,"LocalDeriv":0},{"Layer":1,"Node":2,"InputSum":-0.9940314521322848,"RefInputSum":0.2701165261849294,"OutputSum":-0.034579194494333,"Weights":[0.12607387788689728,-0.2123374757729748,-0.4614595085464893,-0.18203242466661052,0.23762741096958714,-0.12801613159139066],"TrainRel":false,"LocalDeriv":0},{"Layer":1,"Node":3,"InputSum":0.4016654777579468,"RefInputSum":0.5990877431896167,"OutputSum":-0.2007941143412326,"Weights":[-0.0931241080523411,0.04863492195457039,0.7332114706567172,0.36225083182429924,-0.02414901995448953,-0.33516709633874125],"TrainRel":false,"LocalDeriv":0},{"Layer":1,"Node":4,"InputSum":-0.13537417375974856,"RefInputSum":0.4662080472184138,"OutputSum":-0.10276332701707012,"Weights":[0.5486831666348126,0.10618707121153907,-0.009928944653970113,0.25105460115582423,-0.3736770994217218,-0.22042425217617836],"TrainRel":false,"LocalDeriv":0},{"Layer":1,"Node":5,"InputSum":0.9796040726970169,"RefInputSum":0.7270296486463602,"OutputSum":-0.3529666042763586,"Weights":[0.3766503085344456,0.5191766014457713,0.5800874441794468,0.2640649163451026,-0.03958866650402411,-0.4854921280427313],"TrainRel":true,"LocalDeriv":0.09922876931775512}],[{"Layer":2,"Node":0,"InputSum":0.014234606726627408,"RefInputSum":0.503558591593846,"OutputSum":-0.08323948362186448,"Weights":[-0.7815301539272179,0.2559884713992633,0.1248934918236336,-0.3892135347524897,0.47495521573752586,-0.1652968823418332],"TrainRel":true,"LocalDeriv":0.009343163349415201},{"Layer":2,"Node":1,"InputSum":0.933792101837795,"RefInputSum":0.7178439870502716,"OutputSum":0.1738457932389371,"Weights":[-0.07235386222731872,0.6266081427136496,0.15772187452764383,-0.7591776185304201,-0.5804947996348273,0.2421856611639759],"TrainRel":true,"LocalDeriv":0.010434510802502114},{"Layer":2,"Node":2,"InputSum":0.6674534509311394,"RefInputSum":0.6609327099601232,"OutputSum":0.6342278520260058,"Weights":[0.36398019712987945,0.33032841350347053,-0.3220077146507212,0.6560643079278526,0.5388521488099622,0.95960254001987],"TrainRel":true,"LocalDeriv":0.012899539644629282},{"Layer":2,"Node":3,"InputSum":0.5290949335157022,"RefInputSum":0.629271994852448,"OutputSum":0.04019801159025729,"Weights":[-0.06079062787309295,0.7755021978214749,0.24269366441933268,0.5703013860725363,-0.13160857577821508,0.06388717936446785],"TrainRel":true,"LocalDeriv":0.006112827048238402},{"Layer":2,"Node":4,"InputSum":-0.49674985720556564,"RefInputSum":0.37830476786670686,"OutputSum":-0.13290925541341997,"Weights":[0.5267899664519891,0.47200175208913997,-0.008467682262864455,-0.30106927931753114,-0.2506282854567484,-0.35132431847422235],"TrainRel":true,"LocalDeriv":-0.0009239060902944587},{"Layer":2,"Node":5,"InputSum":-0.8167123626853756,"RefInputSum":0.30646197934570074,"OutputSum":-0.03335723029780456,"Weights":[-0.2606793127540039,-0.8245199050709249,-0.05423507421993972,0.5782065830367141,0.035154143849200244,-0.10884282119796643],"TrainRel":true,"LocalDeriv":-0.010239215286360372}],[{"Layer":3,"Node":0,"InputSum":-0.12378288845558319,"RefInputSum":0.4690937304913631,"OutputSum":-0.23614636141886156,"Weights":[0.01606248870048649,0.1536046820614849,0.44118227678071614,0.2654985417540874,0.7935372023246566,-0.5034026662213777],"TrainRel":true,"LocalDeriv":-0.00038624844395997204},{"Layer":3,"Node":1,"InputSum":1.2109055592496896,"RefInputSum":0.7704591381014152,"OutputSum":0.29768640998046153,"Weights":[0.6787439817505196,0.3601463816702492,0.3431124412230247,0.7320768866758728,-0.3812777026343562,0.3863869861942215],"TrainRel":true,"LocalDeriv":0.004587190185037502},{"Layer":3,"Node":2,"InputSum":0.09616110774320849,"RefInputSum":0.5240217690958554,"OutputSum":0.26317943433933655,"Weights":[0.37291576503823026,0.09954661465096137,0.18582896733677803,0.38161058836552014,1.0500044699848128,0.502237886568609],"TrainRel":true,"LocalDeriv":0.00017599083102401376},{"Layer":3,"Node":3,"InputSum":0.11482128944938681,"RefInputSum":0.5286738264758213,"OutputSum":0.061676914270102697,"Weights":[0.08723633289350148,-0.6383371336131921,0.918669653612157,0.6263377097591619,-0.3610984740766878,0.11667144599588812],"TrainRel":true,"LocalDeriv":-0.001308500801746191},{"Layer":3,"Node":4,"InputSum":0.011741895470103172,"RefInputSum":0.5029354401413263,"OutputSum":-0.047536532042598174,"Weights":[0.07042733355864182,-0.22636347504605941,0.25651423158409564,0.6591338090075766,0.2536914562833849,-0.09451055572189154],"TrainRel":true,"LocalDeriv":0.0010995759126847192},{"Layer":3,"Node":5,"InputSum":0.5987656875221111,"RefInputSum":0.6453738642399701,"OutputSum":0.7048670532947074,"Weights":[0.9349981083719348,-0.4717450476257252,0.8849172221584084,-0.21630747969224662,0.46963910676119586,1.0921938263481132],"TrainRel":true,"LocalDeriv":0.0034766439797246584}],[{"Layer":4,"Node":0,"InputSum":1.410823303312172,"RefInputSum":0.8038957677042567,"OutputSum":-0.9460789864216478,"Weights":[-0.5704730964426352,0.575012862652962,-1.125707557444165,-0.9570061992713624,-1.177860941179476,-1.1768860559662597],"TrainRel":true,"LocalDeriv":0.0010068779872748174},{"Layer":4,"Node":1,"InputSum":-0.35408731978048763,"RefInputSum":0.41239160884363446,"OutputSum":-0.04009474950728929,"Weights":[-0.5148015498313939,1.0936835419683473,-0.21136822849028383,0.41482938906504535,-0.3248875021818212,-0.09723434181639917],"TrainRel":true,"LocalDeriv":0.00013485880281766425},{"Layer":4,"Node":2,"InputSum":1.7544462929203033,"RefInputSum":0.8525127323001205,"OutputSum":-1.3398847772577809,"Weights":[0.8232823717879914,1.0710684122097727,-0.5862067499010422,-1.4719693596431227,-0.7587717856976273,-1.5717083105361196],"TrainRel":true,"LocalDeriv":0.0004517322591260853},{"Layer":4,"Node":3,"InputSum":1.4115492835475454,"RefInputSum":0.8040101913240671,"OutputSum":-0.5525210660322557,"Weights":[0.21492185467578848,1.1381920603836533,-1.1696679951517412,-1.1678246615734669,-0.4181801679895503,-0.6872248750435626],"TrainRel":true,"LocalDeriv":0.0003901575428018694},{"Layer":4,"Node":4,"InputSum":0.8684497239029441,"RefInputSum":0.7044230154305432,"OutputSum":-0.605835288577241,"Weights":[-0.5175352638590569,0.6805695084338959,-0.45060450737436003,-1.063886757104199,-1.2689081570781626,-0.8600607700791132],"TrainRel":true,"LocalDeriv":0.00010691937048491211},{"Layer":4,"Node":5,"InputSum":1.0437269184231486,"RefInputSum":0.7395684771119461,"OutputSum":-0.21387431435784882,"Weights":[0.21683275879207287,0.632432130360096,-1.2798880672519553,-0.2624382998950921,-1.071441405675765,-0.2892048410593737],"TrainRel":true,"LocalDeriv":0.001077797882773625}],[{"Layer":5,"Node":0,"InputSum":-0.0004473749871767574,"RefInputSum":0.4998881562550712,"OutputSum":0,"Weights":null,"TrainRel":true,"LocalDeriv":-0.000002424597801639871},{"Layer":5,"Node":1,"InputSum":3.6885543956980675,"RefInputSum":0.9756020200196284,"OutputSum":0,"Weights":null,"TrainRel":true,"LocalDeriv":0.000057335300373776734},{"Layer":5,"Node":2,"InputSum":-3.6961987902008464,"RefInputSum":0.0242166826332358,"OutputSum":0,"Weights":null,"TrainRel":true,"LocalDeriv":-0.00007823397311611595},{"Layer":5,"Node":3,"InputSum":-3.7355254447438218,"RefInputSum":0.023304568634293164,"OutputSum":0,"Weights":null,"TrainRel":true,"LocalDeriv":-0.000055192509005841595},{"Layer":5,"Node":4,"InputSum":-3.7501277451255133,"RefInputSum":0.022974502282028117,"OutputSum":0,"Weights":null,"TrainRel":true,"LocalDeriv":-0.00006792727736202345},{"Layer":5,"Node":5,"InputSum":-3.6982891821540633,"RefInputSum":0.02416733527786322,"OutputSum":0,"Weights":null,"TrainRel":true,"LocalDeriv":-0.000060841840891562716}]]end