[[{"Layer":0,"Node":0,"InputSum":[0,0,0,0,0,0,0,0,0,0,0,0,0,0,0,0,0,0,0,0],"RefInputSum":[0.038461538461538464,0.038461538461538464,0.038461538461538464,0.038461538461538464,0.038461538461538464,0.038461538461538464,0.038461538461538464,0.038461538461538464,0.038461538461538464,0.038461538461538464,0.038461538461538464,0.038461538461538464,0.038461538461538464,0.038461538461538464,0.038461538461538464,0.038461538461538464,0.038461538461538464,0.038461538461538464,0.038461538461538464,0.038461538461538464],"OutputSum":[-0.033254061455905363,-0.033254061455905363,-0.033254061455905363,-0.033254061455905363,-0.033254061455905363,-0.033254061455905363,-0.033254061455905363,-0.033254061455905363,-0.033254061455905363,-0.033254061455905363,-0.033254061455905363,-0.033254061455905363,-0.033254061455905363,-0.033254061455905363,-0.033254061455905363,-0.033254061455905363,-0.033254061455905363,-0.033254061455905363,-0.033254061455905363,-0.033254061455905363],"Weights":[0.10218025776156625,0.11064404020373521,-0.0022341560473525465,-0.13764768613956646,-0.7241351013433492,0.449337720132309,0.2959507080162257,0.09440379189343079,0.22821069016338838,0.4719135900552376,0.5576227061252177,-0.8646055978535394],"TrainRel":false,"LocalDeriv":0,"WeightsChange":[0,0,0,0,0,0,0,0,0,0,0,0]},{"Layer":0,"Node":1,"InputSum":[0,0,0,0,0,0,0,0,0,0,0,0,0,0,0,0,0,0,0,0],"RefInputSum":[0.15384615384615385,0.038461538461538464,0.038461538461538464,0.07692307692307693,0.07692307692307693,0.07692307692307693,0.07692307692307693,0.07692307692307693,0.07692307692307693,0.07692307692307693,0.07692307692307693,0.07692307692307693,0.07692307692307693,0.07692307692307693,0.07692307692307693,0.07692307692307693,0.07692307692307693,0.07692307692307693,0.07692307692307693,0.07692307692307693],"OutputSum":[0.010533027803980272,0.002633256950995068,0.002633256950995068,0.005266513901990136,0.005266513901990136,0.005266513901990136,0.005266513901990136,0.005266513901990136,0.005266513901990136,0.005266513901990136,0.005266513901990136,0.005266513901990136,0.005266513901990136,0.005266513901990136,0.005266513901990136,0.005266513901990136,0.005266513901990136,0.005266513901990136,0.005266513901990136,0.005266513901990136],"Weights":[-0.5874011564830135,0.183840985222265,-0.346021679614286,0.7776391472637572,-0.4636735730813366,0.7429232055531807,0.7868297326069671,0.15714526450405852,-0.581278911871108,0.18353440362832607,-0.7717357380505091,0.06846468072587177],"TrainRel":false,"LocalDeriv":0,"WeightsChange":[0,0,0,0,0,0,0,0,0,0,0,0]},{"Layer":0,"Node":2,"InputSum":[0,0,0,0,0,0,0,0,0,0,0,0,0,0,0,0,0,0,0,0],"RefInputSum":[0.7307692307692308,0.6923076923076923,0.6923076923076923,0.038461538461538464,0.038461538461538464,0.038461538461538464,0.038461538461538464,0.038461538461538464,0.038461538461538464,0.038461538461538464,0.038461538461538464,0.038461538461538464,0.038461538461538464,0.038461538461538464,0.038461538461538464,0.038461538461538464,0.038461538461538464,0.038461538461538464,0.038461538461538464,0.038461538461538464],"OutputSum":[-0.2058098133162294,-0.1949777178785331,-0.1949777178785331,-0.010832095437696285,-0.010832095437696285,-0.010832095437696285,-0.010832095437696285,-0.010832095437696285,-0.010832095437696285,-0.010832095437696285,-0.010832095437696285,-0.010832095437696285,-0.010832095437696285,-0.010832095437696285,-0.010832095437696285,-0.010832095437696285,-0.010832095437696285,-0.010832095437696285,-0.010832095437696285,-0.010832095437696285],"Weights":[0.17000951543422643,0.28735042785302595,0.5811451497737844,0.002885347130139382,-0.4504815230108434,-0.6242932342389372,0.389218093024835,-0.5685099156780475,0.1378615060339177,-0.668249255216605,0.08245884855949738,-0.2816344813801034],"TrainRel":false,"LocalDeriv":0,"WeightsChange":[0,0,0,0,0,0,0,0,0,0,0,0]},{"Layer":0,"Node":3,"InputSum":[0,0,0,0,0,0,0,0,0,0,0,0,0,0,0,0,0,0,0,0],"RefInputSum":[0.23076923076923078,0.15384615384615385,0.576923076923077,0.11538461538461539,0.11538461538461539,0.23076923076923078,0.46153846153846156,0.5384615384615385,0.5384615384615385,0.5384615384615385,0.5384615384615385,0.7307692307692308,0.7307692307692308,0.7307692307692308,0.7307692307692308,0.7307692307692308,0.7692307692307693,0.7692307692307693,0.7692307692307693,0.7692307692307693],"OutputSum":[0.11518074950944174,0.07678716633962783,0.28795187377360437,0.05759037475472087,0.05759037475472087,0.11518074950944174,0.23036149901888348,0.2687550821886974,0.2687550821886974,0.2687550821886974,0.2687550821886974,0.3647390401132322,0.3647390401132322,0.3647390401132322,0.3647390401132322,0.3647390401132322,0.3839358316981391,0.3839358316981391,0.3839358316981391,0.3839358316981391],"Weights":[0.4998676737527168,0.2168185212094161,0.3251936815528013,-0.14038011764448666,0.724929137698265,-0.59278213647733,-0.5165273928474291,-0.17160694058146114,-0.04986205854220019,0.9426781044417513,0.02629308872190994,0.49911658120758085],"TrainRel":false,"LocalDeriv":0,"WeightsChange":[0,0,0,0,0,0,0,0,0,0,0,0]},{"Layer":0,"Node":4,"InputSum":[0,0,0,0,0,0,0,0,0,0,0,0,0,0,0,0,0,0,0,0],"RefInputSum":[-3.307692307692308,0.8846153846153847,0.5384615384615385,0.42307692307692313,0.8076923076923077,0.7692307692307693,0.576923076923077,0.15384615384615385,0.15384615384615385,0.15384615384615385,0.15384615384615385,0.19230769230769232,0.19230769230769232,0.19230769230769232,0.3076923076923077,0.3076923076923077,0.19230769230769232,0.19230769230769232,0.19230769230769232,0.19230769230769232],"OutputSum":[1.77505352447772,-0.4747236170114832,-0.2889622016591637,-0.2270417298750572,-0.4334433024887455,-0.4128031452273767,-0.30960235892053256,-0.08256062904547534,-0.08256062904547534,-0.08256062904547534,-0.08256062904547534,-0.10320078630684418,-0.10320078630684418,-0.10320078630684418,-0.16512125809095068,-0.16512125809095068,-0.10320078630684418,-0.10320078630684418,-0.10320078630684418,-0.10320078630684418],"Weights":[-0.19875584625200315,-0.21225069732282062,0.5311181311262599,0.18551266692600177,-0.3964960977577159,-0.0006357415562163737,-0.936827561027528,0.09035771780926805,0.3825935060408834,0.36682909922929413,0.26570528981024577,-0.5366440887955897],"TrainRel":false,"LocalDeriv":0,"WeightsChange":[0,0,0,0,0,0,0,0,0,0,0,0]},{"Layer":0,"Node":5,"InputSum":[0,0,0,0,0,0,0,0,0,0,0,0,0,0,0,0,0,0,0,0],"RefInputSum":[-999,0.576923076923077,-999,-999,0.7307692307692308,-999,0.5384615384615385,0.576923076923077,0.576923076923077,0.576923076923077,0.576923076923077,-999,0.15384615384615385,0.5,-999,0.19230769230769232,-999,0.15384615384615385,0.5,0.7307692307692308],"OutputSum":[498.59801903486976,-0.2879406439332812,498.59801903486976,498.59801903486976,-0.3647248156488229,498.59801903486976,-0.26874460100439584,-0.2879406439332812,-0.2879406439332812,-0.2879406439332812,-0.2879406439332812,498.59801903486976,-0.07678417171554167,-0.24954855807551038,498.59801903486976,-0.09598021464442708,498.59801903486976,-0.07678417171554167,-0.24954855807551038,-0.3647248156488229],"Weights":[0.050239046311918556,0.28250335040857233,-0.0844318748712845,-0.08445429127838529,0.1963756370476566,-0.15193358587882794,-0.1835226254243182,-0.03344699360502418,-0.44122574755777133,0.2167916868363695,0.0002341755011250335,-0.49909711615102076],"TrainRel":false,"LocalDeriv":0,"WeightsChange":[0,0,0,0,0,0,0,0,0,0,0,0]},{"Layer":0,"Node":6,"InputSum":[0,0,0,0,0,0,0,0,0,0,0,0,0,0,0,0,0,0,0,0],"RefInputSum":[-999,0.46153846153846156,-999,-999,-999,-999,0.19230769230769232,0.5384615384615385,0.5384615384615385,0.5384615384615385,0.5384615384615385,-999,-999,0.19230769230769232,-999,0.15384615384615385,-999,-999,0.19230769230769232,-999],"OutputSum":[-574.0908436341824,0.26523023498922726,-574.0908436341824,-574.0908436341824,-574.0908436341824,-574.0908436341824,0.11051259791217803,0.3094352741540985,0.3094352741540985,0.3094352741540985,0.3094352741540985,-574.0908436341824,-574.0908436341824,0.11051259791217803,-574.0908436341824,0.08841007832974242,-574.0908436341824,-574.0908436341824,0.11051259791217803,-574.0908436341824],"Weights":[0.010013442577391285,0.014186324241073167,0.21939495654043967,-0.741974243618506,-0.08027686642914238,0.33928370066172214,-0.6814479427271504,-0.055891426460817295,-0.00022416894496851103,-0.03540549356100442,-0.6860548963536206,0.5746655091433257],"TrainRel":false,"LocalDeriv":0,"WeightsChange":[0,0,0,0,0,0,0,0,0,0,0,0]},{"Layer":0,"Node":7,"InputSum":[0,0,0,0,0,0,0,0,0,0,0,0,0,0,0,0,0,0,0,0],"RefInputSum":[-999,0.23076923076923078,-999,-999,-999,-999,-999,-999,0.19230769230769232,0.5,0.7307692307692308,-999,-999,0.5384615384615385,-999,-999,-999,-999,0.5384615384615385,-999],"OutputSum":[111.33741648011069,-0.025718968925874497,111.33741648011069,111.33741648011069,111.33741648011069,111.33741648011069,111.33741648011069,111.33741648011069,-0.021432474104895412,-0.05572443267272807,-0.08144340159860257,111.33741648011069,111.33741648011069,-0.060010927493707164,111.33741648011069,111.33741648011069,111.33741648011069,111.33741648011069,-0.060010927493707164,111.33741648011069],"Weights":[0.0254828127850677,-0.35051350675429227,0.15294976735933496,-0.007126739056861675,0.14730731778178008,0.40127705273291836,-0.535594678919624,-0.752005092894143,-0.33767880971015835,0.5320513854186177,-0.368168204925807,-0.11144886534545614],"TrainRel":false,"LocalDeriv":0,"WeightsChange":[0,0,0,0,0,0,0,0,0,0,0,0]},{"Layer":0,"Node":8,"InputSum":[0,0,0,0,0,0,0,0,0,0,0,0,0,0,0,0,0,0,0,0],"RefInputSum":[-999,-999,-999,-999,-999,-999,-999,-999,0.15384615384615385,0.19230769230769232,-999,-999,-999,0.7692307692307693,-999,-999,-999,-999,0.7692307692307693,-999],"OutputSum":[7.73296901822387,7.73296901822387,7.73296901822387,7.73296901822387,7.73296901822387,7.73296901822387,7.73296901822387,7.73296901822387,-0.0011908784196848958,-0.0014885980246061197,7.73296901822387,7.73296901822387,7.73296901822387,-0.005954392098424479,7.73296901822387,7.73296901822387,7.73296901822387,7.73296901822387,-0.005954392098424479,7.73296901822387],"Weights":[-0.5860101991574185,0.5410104716172165,-0.5404929434889669,0.08935258852654238,0.28978230921101455,-0.485223782678764,-0.459566624477051,-0.22499262544788146,0.2917585222121512,-0.17885252384978456,-0.5972898232576402,-0.007740709727951822],"TrainRel":false,"LocalDeriv":0,"WeightsChange":[0,0,0,0,0,0,0,0,0,0,0,0]},{"Layer":0,"Node":9,"InputSum":[0,0,0,0,0,0,0,0,0,0,0,0,0,0,0,0,0,0,0,0],"RefInputSum":[-999,-999,-999,-999,-999,-999,-999,-999,-999,0.5384615384615385,-999,-999,-999,-999,-999,-999,-999,-999,-999,-999],"OutputSum":[62.486828160222814,62.486828160222814,62.486828160222814,62.486828160222814,62.486828160222814,62.486828160222814,62.486828160222814,62.486828160222814,62.486828160222814,-0.03368043405879416,62.486828160222814,62.486828160222814,62.486828160222814,62.486828160222814,62.486828160222814,62.486828160222814,62.486828160222814,62.486828160222814,62.486828160222814,62.486828160222814],"Weights":[0.03185149813338145,-0.7987268221734961,0.6583136336725725,0.8055188455327109,-0.4437023884115686,-0.6617819010229697,0.5883298287114529,0.7935940753152351,0.2990207502047312,-0.12992542872866142,0.20963423910122814,-0.06254937753776058],"TrainRel":false,"LocalDeriv":0,"WeightsChange":[0,0,0,0,0,0,0,0,0,0,0,0]},{"Layer":0,"Node":10,"InputSum":[0,0,0,0,0,0,0,0,0,0,0,0,0,0,0,0,0,0,0,0],"RefInputSum":[-999,-999,-999,-999,-999,-999,-999,-999,-999,0.7692307692307693,-999,-999,-999,-999,-999,-999,-999,-999,-999,-999],"OutputSum":[-224.30970751258315,-224.30970751258315,-224.30970751258315,-224.30970751258315,-224.30970751258315,-224.30970751258315,-224.30970751258315,-224.30970751258315,-224.30970751258315,0.17271864750333654,-224.30970751258315,-224.30970751258315,-224.30970751258315,-224.30970751258315,-224.30970751258315,-224.30970751258315,-224.30970751258315,-224.30970751258315,-224.30970751258315,-224.30970751258315],"Weights":[-0.11738028476916368,-0.13135049320211387,0.04253698959376846,-0.6515480465585768,-0.15945773300066007,0.5289517335049652,0.11320863709870393,-0.026989217442122904,-0.6102793153578489,0.436737271506781,0.12496408529338396,0.22453424175433748],"TrainRel":false,"LocalDeriv":0,"WeightsChange":[0,0,0,0,0,0,0,0,0,0,0,0]},{"Layer":0,"Node":11,"InputSum":[0,0,0,0,0,0,0,0,0,0,0,0,0,0,0,0,0,0,0,0],"RefInputSum":[-999,-999,-999,-999,-999,-999,-999,-999,-999,-999,-999,-999,-999,-999,-999,-999,-999,-999,-999,-999],"OutputSum":[-524.3681200273088,-524.3681200273088,-524.3681200273088,-524.3681200273088,-524.3681200273088,-524.3681200273088,-524.3681200273088,-524.3681200273088,-524.3681200273088,-524.3681200273088,-524.3681200273088,-524.3681200273088,-524.3681200273088,-524.3681200273088,-524.3681200273088,-524.3681200273088,-524.3681200273088,-524.3681200273088,-524.3681200273088,-524.3681200273088],"Weights":[-0.39212304450767205,0.4635610024726706,-0.42102093048036987,0.2022264211621873,0.36428439523941913,-0.34466833894150484,0.02812394132401718,-0.39726656863141213,0.11253637214209186,-0.4044918563596518,-0.5573540305665406,0.5248930130403492],"TrainRel":false,"LocalDeriv":0,"WeightsChange":[0,0,0,0,0,0,0,0,0,0,0,0]}],[{"Layer":1,"Node":0,"InputSum":[977.7593774842252,1062.6379713664421,977.2292012685555,976.8876740583578,1027.0367499169415,976.8765509970112,1037.2513412103176,1037.3792800443862,477.327166184073,391.79606862652685,1062.8552320721656,977.2411516682638,1027.4376880179184,477.05651870619755,977.2182183013886,1037.4216565864963,977.2603773480234,1027.4569136976781,477.07574438595725,1027.485897762858],"RefInputSum":[1,1,1,1,1,1,1,1,1,1,1,1,1,1,1,1,1,1,1,1],"OutputSum":[-0.05790856374914762,-0.057937127451994155,-0.057937127451994155,-0.057937127451994155,-0.057937127451994155,-0.057937127451994155,-0.057937127451994155,-0.057937127451994155,-0.057937127451994155,-0.057937127451994155,-0.057937127451994155,-0.057937127451994155,-0.057937127451994155,-0.057937127451994155,-0.057937127451994155,-0.057937127451994155,-0.057937127451994155,-0.057937127451994155,-0.057937127451994155,-0.057937127451994155],"Weights":[0.44899223820256695,-0.19551608089961825,-0.2805128798894861,0.775148412596621,0.978994296718972,0.16570741252918575,-1.071521198439196,0.6320413002325287,-0.25538801171641295,0.11245468954391058,-0.6352076541761967,-0.05790856374914762],"TrainRel":false,"LocalDeriv":0,"WeightsChange":[0,0,0,0,0,0,0,0,0,0,0,0]},{"Layer":1,"Node":1,"InputSum":[-19.65503562120074,-74.27515976936292,-20.428588270291414,-20.684980056862116,261.6606757325732,-20.733433930410968,275.90524657610507,276.02749945957163,466.3497910131268,-463.4156140588598,-74.39163941488226,-20.50257234442762,261.76173562709295,466.568279638467,-20.52706280950332,275.9224299631522,-20.494233170534983,261.7700748009856,466.57661881235975,261.93305750248584],"RefInputSum":[2.910224461763901e-9,5.529781480319677e-33,1.3426933579692558e-9,1.0390281229189752e-9,1,9.89883425849011e-10,1,1,1,5.510055666558491e-202,4.921772126284724e-33,1.2469411736313085e-9,1,1,1.216773917275223e-9,1,1.2573831109520388e-9,1,1,1],"OutputSum":[3.814936563052546e-9,7.248651101510645e-33,1.7600543028460182e-9,1.3619981864566857e-9,1.3108386158310905,1.2975774197740557e-9,1.3108386158310905,1.3108386158310905,1.3108386158310905,7.222793743103789e-202,6.451648961455111e-33,1.63453864206566e-9,1.3108386158310905,1.3108386158310905,1.5949942375004272e-9,1.3108386158310905,1.6482263367297611e-9,1.3108386158310905,1.3108386158310905,1.3108386158310905],"Weights":[0.22174025430190175,0.9345397047687609,-3.374535232086612,0.5369881538291168,-1.1910594194303528,0.8502168993630392,2.8298895567444142,-0.4527214763787151,-0.4720208309498383,-2.223674681402962,3.0639404039796796,1.3108736501858331],"TrainRel":false,"LocalDeriv":0,"WeightsChange":[0,0,0,0,0,0,0,0,0,0,0,0]},{"Layer":1,"Node":2,"InputSum":[-28.53271642779731,261.3992339336429,-26.359813502656948,-26.964473802571604,-111.16934081050664,-26.743102870848702,108.05465033170003,107.92765843380448,-279.2817138625334,421.2815293913924,260.83624701007057,-26.8869203364913,-111.24735285166486,-279.5478655359878,-26.825637475207486,108.01999728440319,-26.874412887200833,-111.23484540237433,-279.5353580866973,-111.2835560994152],"RefInputSum":[4.0588098129810945e-13,1,3.5651552926495372e-12,1.9475015864190176e-12,5.2452806378408896e-49,2.4300655810565916e-12,1,1,5.122627457629023e-122,1,1,2.104548130900287e-12,4.851639577528941e-49,3.9255866666917474e-122,2.2375547512923605e-12,1,2.1310359622264442e-12,4.912702286857799e-49,3.974994079122728e-122,4.679135905442277e-49],"OutputSum":[-8.411837381267638e-13,-2.072467817880562,-7.388669609762722e-12,-4.036134363124754e-12,-1.087067531767727e-48,-5.036232712079014e-12,-2.072467817880562,-2.072467817880562,-1.0616480548927473e-121,-2.072467817880562,-2.072467817880562,-4.361608272471534e-12,-1.0054866888384377e-48,-8.135652033019675e-122,-4.637260212799162e-12,-2.072467817880562,-4.416503450460443e-12,-1.0181417388341029e-48,-8.238047305247634e-122,-9.697358579518543e-49],"Weights":[2.33310865177967,-0.5561778524786674,0.025658637157868418,0.5290606233377718,0.34251656319544627,0.17065043057064067,-2.3776511333991754,0.07976886800995855,0.6347295149136786,-1.1287142927569576,-0.28316221548486853,-2.072488677435554],"TrainRel":false,"LocalDeriv":0,"WeightsChange":[0,0,0,0,0,0,0,0,0,0,0,0]},{"Layer":1,"Node":3,"InputSum":[387.0878967654784,-445.3279537445376,387.66297533643535,387.7343834770894,303.37418091825054,387.782401694374,-438.0759383344083,-438.4253084134591,-356.2693087679087,-202.51868668573496,-445.5501287328823,387.60518509694055,303.2223551419446,-355.97331685949564,387.6265904046628,-438.1059070508263,387.59978586164664,303.2169559066507,-355.97871609478966,303.168232277067],"RefInputSum":[1,3.949362985078454e-194,1,1,1,1,5.572336400357882e-191,3.9292334202869426e-191,1.8802046854757043e-155,1.1149410100648255e-88,3.162552035915169e-194,1,1,2.527858633887176e-155,1,5.407818144433191e-191,1,1,2.5142469098503184e-155,1],"OutputSum":[0.5997201471355516,2.368341086168263e-194,0.5996767314415937,0.5996767314415937,0.5996767314415937,0.5996767314415937,3.3416004790596306e-191,2.3562698545487476e-191,1.1275150002272402e-155,6.686041806658635e-89,1.896508867911566e-194,0.5996767314415937,0.5996767314415937,1.515898003115874e-155,0.5996767314415937,3.24294270908424e-191,0.5996767314415937,0.5996767314415937,1.5077353689361662e-155,0.5996767314415937],"Weights":[-1.220826360423484,0.549736335730156,0.8666496204915141,-1.411243272365519,0.6519170672133014,-1.605951114952061,1.2237978149844015,-0.020578400783249025,-0.7358261647153087,1.8216497207774704,-0.8598720124193615,0.5997201471355516],"TrainRel":false,"LocalDeriv":0,"WeightsChange":[0,0,0,0,0,0,0,0,0,0,0,0]},{"Layer":1,"Node":4,"InputSum":[-312.9479641169655,-51.342215444435965,-314.1511850898205,-314.1633062067822,-117.99303802208377,-314.21690918627155,-197.9003938806259,-197.69711698870609,239.02833060116325,-363.83373635297283,-50.42945886940572,-313.6256968687161,-117.41622382163828,239.39449109815985,-313.67144641845744,-197.66336031211856,-313.59781497880465,-117.38834193172684,239.4223729880713,-117.27504829496857],"RefInputSum":[1.225818188745598e-136,5.039171554307794e-23,3.680220431914853e-137,3.6358813123049804e-137,5.7052500572991435e-52,3.446118598911689e-137,1.1296683757465715e-86,1.3843088762573727e-86,1,9.750254947022373e-159,1.2553484412309024e-22,6.224299285696625e-137,1.0157384867140674e-51,1,5.9459559828223545e-137,1.4318362126693228e-86,6.400286540903886e-137,1.044457707959737e-51,1,1.1697516340992839e-51],"OutputSum":[1.0960698450042828e-136,4.505763518454925e-23,3.2906605348291595e-137,3.2510148142130816e-137,5.101336061850453e-52,3.081338925635805e-137,1.0100903492836776e-86,1.2377765602327463e-86,0.8941476728656164,8.718167770726518e-159,1.1224668873620904e-22,5.565442721524756e-137,9.082202041354262e-52,0.8941476728656164,5.316562705001997e-137,1.2802730174829927e-86,5.722801316222335e-137,9.338994289787544e-52,0.8941476728656164,1.0459307014606266e-51],"Weights":[-0.01270329756314656,-0.0837536878162102,-0.5945072829253542,1.035235246196844,0.5483278144695392,-0.16415943052751578,0.13885439496215018,-0.14205553627601045,-0.8596583577806189,-0.48000016806363527,1.071307814861005,0.8941536804294861],"TrainRel":false,"LocalDeriv":0,"WeightsChange":[0,0,0,0,0,0,0,0,0,0,0,0]},{"Layer":1,"Node":5,"InputSum":[373.26169727186823,961.4430012738982,372.99234766547056,373.70277847508646,221.8098532764734,373.6341604718773,560.6436879934471,560.7099590936102,476.84969472897774,344.3077066359897,961.8789756969467,373.33813617761336,221.5331094868368,476.4702208979621,373.3380628228184,560.5238069860549,373.31533686467196,221.51031017389528,476.4474215850207,221.42265618204215],"RefInputSum":[1,1,1,1,1,1,1,1,1,1,1,1,1,1,1,1,1,1,1,1],"OutputSum":[0.005728757327892818,0.005700193625046286,0.005700193625046286,0.005700193625046286,0.005700193625046286,0.005700193625046286,0.005700193625046286,0.005700193625046286,0.005700193625046286,0.005700193625046286,0.005700193625046286,0.005700193625046286,0.005700193625046286,0.005700193625046286,0.005700193625046286,0.005700193625046286,0.005700193625046286,0.005700193625046286,0.005700193625046286,0.005700193625046286],"Weights":[-0.6933003548345974,0.500763282889529,0.3466555948301713,-0.19873797018552677,-0.48811889256706636,-0.24402581741851712,-0.17756982393809315,-0.24335326635214136,-0.7635498376184179,-0.3377439245995931,0.29931018227135475,0.005728757327892818],"TrainRel":false,"LocalDeriv":0,"WeightsChange":[0,0,0,0,0,0,0,0,0,0,0,0]},{"Layer":1,"Node":6,"InputSum":[1132.7353956917555,-270.9667722640012,1128.8476568483102,1128.9699235232497,945.1363897438432,1128.5860377452577,264.3115331226515,264.4252059794068,-729.9146376481985,-28.856307754309597,-271.02527437281566,1128.8682514878888,945.5009144389296,-730.2682071055748,1128.7601560000776,264.514427459144,1128.8483850497023,945.4810480007432,-730.2880735437612,945.375169562998],"RefInputSum":[1,2.0923099801549403e-118,1,1,1,1,1,1,0,2.936735101584483e-13,1.9734170838782885e-118,1,1,0,1,1,1,1,0,1],"OutputSum":[-0.2573854521417915,-5.385392783029231e-119,-0.25738981480317896,-0.25738981480317896,-0.25738981480317896,-0.25738981480317896,-0.25738981480317896,-0.25738981480317896,-0,-7.55885703922825e-14,-5.079374577488622e-119,-0.25738981480317896,-0.25738981480317896,-0,-0.25738981480317896,-0.25738981480317896,-0.25738981480317896,-0.25738981480317896,-0,-0.25738981480317896],"Weights":[-0.23023853685534273,0.4092808330241125,-0.1634326718267159,-0.19953029207694287,-0.7307913503307366,-0.604179546079112,-0.5045293580059045,-0.16584568279758516,0.9110352129462891,0.09966372564240997,-0.8468217924345777,-0.2573854521417915],"TrainRel":false,"LocalDeriv":0,"WeightsChange":[0,0,0,0,0,0,0,0,0,0,0,0]},{"Layer":1,"Node":7,"InputSum":[695.574731743036,-144.7503282168513,695.8665926444921,696.3131320277453,662.9098963509259,696.3246088984581,606.98979089594,606.9177286417547,-369.28222259601483,396.7225496244923,-144.88490134276304,696.1866759755853,662.7679836728423,-369.688595211513,696.1971018661018,606.9329894251773,696.1800757086398,662.7613834058968,-369.6951954784585,662.7420870634323],"RefInputSum":[1,1.3668825579165776e-63,1,1,1,1,1,1,4.195352546283506e-161,1,1.1947769507405442e-63,1,1,2.7943646399360497e-161,1,1,1,1,2.7759818198642403e-161,1],"OutputSum":[-0.7575181991432507,-1.0352964611319813e-63,-0.757414347806146,-0.757414347806146,-0.757414347806146,-0.757414347806146,-0.757414347806146,-0.757414347806146,-3.1776202126601757e-161,-0.757414347806146,-9.049412049189651e-64,-0.757414347806146,-0.757414347806146,-2.116491871289719e-161,-0.757414347806146,-0.757414347806146,-0.757414347806146,-0.757414347806146,-2.102568459614192e-161,-0.757414347806146],"Weights":[0.23410092276813163,0.46690034118693247,0.6171467060682478,-2.6066793720548658,0.2513343457017452,-1.2755449800694703,-0.22852297246200146,-1.2765466504991585,2.6468230959879553,1.2004063782487266,2.0282841900979447,-0.7575181991432507],"TrainRel":false,"LocalDeriv":0,"WeightsChange":[0,0,0,0,0,0,0,0,0,0,0,0]},{"Layer":1,"Node":8,"InputSum":[684.1493911450132,-92.863235479897,685.665412964505,685.531783721041,244.57197905916632,685.6584666202234,244.32729152660198,244.1445416823098,198.25012216565824,-113.09829856691248,-93.4433545021573,685.4128085682364,244.5604058737831,198.35192136938718,685.4569539727796,244.36360179371286,685.410890796754,244.55848810230071,198.35000359790484,244.303934786402],"RefInputSum":[1,4.677451137653144e-41,1,1,1,1,1,1,1,7.621369536813547e-50,2.618585563140381e-41,1,1,1,1,1,1,1,1,1],"OutputSum":[0.16403410023050324,7.67212982515151e-42,0.16402373000524623,0.16402373000524623,0.16402373000524623,0.16402373000524623,0.16402373000524623,0.16402373000524623,0.16402373000524623,1.2500854591765137e-50,4.2951017140417353e-42,0.16402373000524623,0.16402373000524623,0.16402373000524623,0.16402373000524623,0.16402373000524623,0.16402373000524623,0.16402373000524623,0.16402373000524623,0.16402373000524623],"Weights":[-0.2799386529307424,1.1991896379415343,-0.0025205409328913683,0.2800071696852837,-0.4336720232505067,0.49880890705107195,-0.030366866180711955,-0.5633311290787216,0.6421837377143879,-0.1312756666384552,-1.268827494283139,0.16403410023050324],"TrainRel":false,"LocalDeriv":0,"WeightsChange":[0,0,0,0,0,0,0,0,0,0,0,0]},{"Layer":1,"Node":9,"InputSum":[-437.90590231954246,276.51962261666046,-436.1641846692641,-436.19760208498263,-219.32319412613464,-435.96185223089054,-254.5001228688622,-254.58672370108724,98.33374080739617,405.26159281917734,277.32141711376397,-435.702145351302,-219.09389763456323,98.59882187574175,-435.6598189167757,-254.41876812468826,-435.6658885011313,-219.0576407843925,98.63507872591259,-218.93256865737152],"RefInputSum":[6.605155248029767e-191,1,3.7696531689602183e-190,3.645762680941405e-190,5.612379603206333e-96,4.615016475687118e-190,2.9648381777616927e-111,2.7188843242412016e-111,1,1,1,5.983599545536659e-190,7.058773370573486e-96,1,6.242300298885026e-190,3.2161249322370453e-111,6.204526881084683e-190,7.319398430979038e-96,1,8.294563250006336e-96],"OutputSum":[8.866917458368243e-192,0.13421817669845856,5.0595597512340683e-191,4.893276197112395e-191,7.532833572819724e-97,6.194190968000712e-191,3.979351744251548e-112,3.649236966536747e-112,0.13421817669845856,0.13421817669845856,0.13421817669845856,8.031078210956557e-191,9.47415691526006e-97,0.13421817669845856,8.378301645205911e-191,4.316624244393098e-112,8.3276028525576e-191,9.823963119355648e-97,0.13421817669845856,1.1132811559258911e-96],"Weights":[0.3471940517343735,-1.2020534738030808,0.5811874043908669,0.475345182721187,0.42934164238283684,0.9481448055333076,0.7973498197813589,0.702278735758312,-1.1330348434043767,-0.8304306472789386,-0.2617977510364468,0.1342423777399196],"TrainRel":false,"LocalDeriv":0,"WeightsChange":[0,0,0,0,0,0,0,0,0,0,0,0]},{"Layer":1,"Node":10,"InputSum":[1871.2505938867098,819.1119602428081,1872.3675136999836,1872.2411225808428,1872.5774293769523,1872.3361313067835,1187.0243941004685,1186.676531335001,222.0212688598274,556.3577459142995,818.6074486182127,1872.1959863377924,1872.4299636904166,221.7790013764868,1872.2266446404628,1186.9862426354389,1872.1969976104356,1872.4309749630597,221.78001264912996,1872.4311100643104],"RefInputSum":[1,1,1,1,1,1,1,1,1,1,1,1,1,1,1,1,1,1,1,1],"OutputSum":[0.7834109154077079,0.7833823517048614,0.7833823517048614,0.7833823517048614,0.7833823517048614,0.7833823517048614,0.7833823517048614,0.7833823517048614,0.7833823517048614,0.7833823517048614,0.7833823517048614,0.7833823517048614,0.7833823517048614,0.7833823517048614,0.7833823517048614,0.7833823517048614,0.7833823517048614,0.7833823517048614,0.7833823517048614,0.7833823517048614],"Weights":[-0.528028867284584,-0.5708401015593124,0.5724646327290285,-0.029856392934241756,-0.06796045296723564,0.5234881920722357,-0.10035621356090388,0.505147751805408,0.09504765874164202,0.559811985758349,-0.20098832791858373,0.7834109154077079],"TrainRel":false,"LocalDeriv":0,"WeightsChange":[0,0,0,0,0,0,0,0,0,0,0,0]},{"Layer":1,"Node":11,"InputSum":[-640.9517350536282,-679.1299947123705,-642.8400473309163,-642.8217094787592,-1141.9908549018915,-642.9498805193568,-567.3969063873201,-566.9517444409621,-686.0447532918213,-524.1174254041891,-678.3706043226714,-642.3907198698325,-1141.0655230764178,-686.1732820486098,-642.4526403416166,-566.9673858786186,-642.3715230782475,-1141.046326284833,-686.1540852570249,-1141.3342669287663],"RefInputSum":[4.347086678756977e-279,1.1418020053736366e-295,6.578315486140887e-280,6.700060522557197e-280,0,5.894062681022133e-280,3.825203170005638e-247,5.97015881105355e-247,1.1338335581379141e-298,2.391631570353624e-228,2.440000173891475e-295,1.0309916184900929e-279,0,9.970799353224518e-299,9.690884454544628e-280,5.877503464661348e-247,1.0509745400398669e-279,0,1.0164055726690124e-298,0],"OutputSum":[1.1306423548467513e-279,2.969735373423786e-296,1.710967059507071e-280,1.7426319663370402e-280,0,1.5329983968000317e-280,9.94904642927231e-248,1.5527903894635066e-247,2.949010081721883e-299,6.2204417589475595e-229,6.346244614620827e-296,2.681526450929251e-280,0,2.5933248848071734e-299,2.5205212662948737e-280,1.5286914775310726e-247,2.7335004260242557e-280,0,2.6435893164441277e-299,0],"Weights":[-0.10121606652981763,-0.7576227736933914,-0.006209541523209017,0.6318325523289725,-0.618064933559882,0.4665476843932585,0.2847005939439314,-0.15561465294967236,-0.8065600020376158,0.26289669541293337,0.03316580049196444,0.2600919738665187],"TrainRel":false,"LocalDeriv":0,"WeightsChange":[0,0,0,0,0,0,0,0,0,0,0,0]}],[{"Layer":2,"Node":0,"InputSum":[-2.2692396107117907,1.907979743148739,-2.269103292653135,-2.2691032927242443,-2.0473617633029124,-2.2691032927340156,1.5064296857362298,1.5064296857362298,-0.4959035534426131,2.1419960421032735,1.907979743148739,-2.2691032926777748,-2.0473617633029124,-0.4959035534426131,-2.2691032926841537,1.5064296857362298,-2.2691032926753976,-2.0473617633029124,-0.4959035534426131,-2.0473617633029124],"RefInputSum":[0.0937027664944362,0.8707920123451024,0.09371434361387343,0.09371434360783394,0.1143192319760869,0.09371434360700409,0.818531483594856,0.818531483594856,0.3785038307674529,0.8949184651095942,0.8707920123451024,0.0937143436117807,0.1143192319760869,0.3785038307674529,0.09371434361123893,0.818531483594856,0.09371434361198261,0.1143192319760869,0.3785038307674529,0.1143192319760869],"OutputSum":[-0.11226853767513527,-1.043310692616353,-0.11228074598498823,-0.11228074597775221,-0.1369678125217722,-0.11228074597675795,-0.9806964659423166,-0.9806964659423166,-0.4534918651498069,-1.0722170052458284,-1.043310692616353,-0.11228074598248089,-0.1369678125217722,-0.4534918651498069,-0.11228074598183178,-0.9806964659423166,-0.11228074598272281,-0.1369678125217722,-0.4534918651498069,-0.1369678125217722],"Weights":[0.6845410330732152,0.19089826975443713,-1.213506027492352,0.7057172138892465,0.8540570520785856,0.6084280685705269,-1.7871337299179901,-0.14969323085479647,-1.143805290715723,0.6145866793118401,-1.706910584403089,-1.1981347176318584],"TrainRel":false,"LocalDeriv":0,"WeightsChange":[0,0,0,0,0,0,0,0,0,0,0,0]},{"Layer":2,"Node":1,"InputSum":[2.359514251032828,-2.023779200103327,2.359351749940057,2.3593517496571854,3.293838414169346,2.3593517496109913,2.18794130544571,2.18794130544571,0.5822347167280537,-1.556927635642025,-2.023779200103327,2.35935174985139,3.293838414169346,0.5822347167280537,2.3593517498231247,2.18794130544571,2.3593517498611325,3.293838414169346,0.5822347167280537,3.293838414169346],"RefInputSum":[0.9136875057514928,0.11672877861992197,0.9136746896235497,0.9136746896012387,0.9642168261564961,0.9136746895975951,0.8991613975625745,0.8991613975625745,0.641581452359878,0.17408795344060282,0.11672877861992197,0.9136746896165562,0.9642168261564961,0.641581452359878,0.9136746896143267,0.8991613975625745,0.9136746896173247,0.9642168261564961,0.641581452359878,0.9642168261564961],"OutputSum":[0.08521219301595849,0.010876232661244274,0.08513186395441202,0.08513186395233319,0.08984113995839209,0.08513186395199371,0.08377958439660284,0.08377958439660284,0.059779509641970305,0.016220687884561734,0.010876232661244274,0.0851318639537604,0.08984113995839209,0.059779509641970305,0.08513186395355268,0.08377958439660284,0.08513186395383202,0.08984113995839209,0.059779509641970305,0.08984113995839209],"Weights":[1.0168443523827575,-0.8432337123286134,0.31818263383866224,-1.4212896980626086,0.5927453209057442,0.33456348010135145,-0.37556070012276166,-0.8887153585619302,0.46025009609638057,0.09534118354046175,1.3866973308711092,0.09326185646576493],"TrainRel":false,"LocalDeriv":0,"WeightsChange":[0,0,0,0,0,0,0,0,0,0,0,0]},{"Layer":2,"Node":2,"InputSum":[1.9564504516492236,1.2453482673515661,1.9564068596601862,1.956406860684844,-1.4180295096172209,1.9564068608506917,-2.2590011207231298,-2.2590011207231298,-2.751709764336579,1.8624399388142008,1.2453482673515661,1.9564068599832585,-1.4180295096172209,-2.751709764336579,1.9564068600850593,-2.2590011207231298,1.9564068599480235,-1.4180295096172209,-2.751709764336579,-1.4180295096172209],"RefInputSum":[0.8761482961941057,0.7764935854042022,0.8761435658426077,0.8761435659537994,0.19497068019054106,0.8761435659717964,0.09457586962342132,0.09457586962342132,0.059990161702181494,0.8655810893804909,0.7764935854042022,0.8761435658776661,0.19497068019054106,0.059990161702181494,0.8761435658887131,0.09457586962342132,0.8761435658738427,0.19497068019054106,0.059990161702181494,0.19497068019054106],"OutputSum":[0.22049397628946438,0.1953678192611242,0.2204400152632724,0.22044001529124854,0.04905513364782773,0.22044001529577664,0.023795536435029293,0.023795536435029293,0.015093681762710904,0.2177824685285798,0.1953678192611242,0.2204400152720932,0.04905513364782773,0.015093681762710904,0.22044001527487267,0.023795536435029293,0.22044001527113122,0.04905513364782773,0.015093681762710904,0.04905513364782773],"Weights":[0.19697662036772418,1.6395343611983961,-0.34277988386011693,-1.218486383314467,0.195037253885592,-2.2786785949811126,0.16886352614859515,2.76287517565123,1.7723610258340716,1.004889872417167,-0.4887804715258537,0.25166284891184126],"TrainRel":false,"LocalDeriv":0,"WeightsChange":[0,0,0,0,0,0,0,0,0,0,0,0]},{"Layer":2,"Node":3,"InputSum":[-3.3908917157722205,1.5509034794210075,-3.3908259336657096,-3.3908259338296194,-2.8538744005045276,-3.3908259338557523,-0.9136019049303663,-0.9136019049303663,2.8740128188614733,-1.0556255425993364,1.5509034794210075,-3.390825933717897,-2.8538744005045276,2.8740128188614733,-3.3908259337340247,-0.9136019049303663,-3.390825933712276,-2.8538744005045276,2.8740128188614733,-2.8538744005045276],"RefInputSum":[0.03258133689185184,0.8250441840291368,0.032583410394011886,0.032583410388845165,0.05448138972399193,0.03258341038802141,0.28626334192977304,0.28626334192977304,0.9465467447909341,0.2581463062901426,0.8250441840291368,0.03258341039236685,0.05448138972399193,0.9465467447909341,0.03258341039185847,0.28626334192977304,0.03258341039254403,0.05448138972399193,0.9465467447909341,0.05448138972399193],"OutputSum":[0.0171662604347691,0.43457078707843005,0.017162472719309763,0.017162472716588325,0.028696669671506626,0.017162472716154432,0.15078184686619148,0.15078184686619148,0.4985691334511551,0.13597192208306624,0.43457078707843005,0.017162472718443282,0.028696669671506626,0.4985691334511551,0.017162472718175507,0.15078184686619148,0.017162472718536607,0.028696669671506626,0.4985691334511551,0.028696669671506626],"Weights":[-0.21409742570895632,0.6948629206100282,-2.5064556817482804,3.050844158755079,1.0582625183821355,0.265343710940372,0.6401914569123006,-0.7484910909604406,-0.2188682436569272,0.09376518185017604,0.09650068159307601,0.5268740350265416],"TrainRel":false,"LocalDeriv":0,"WeightsChange":[0,0,0,0,0,0,0,0,0,0,0,0]},{"Layer":2,"Node":4,"InputSum":[0.16170298705236197,1.1947240514707707,0.1618190579140224,0.16181905827513132,-1.0291732620221936,0.16181905833382748,-1.3385790024072097,-1.3385790024072097,-0.22403998626807536,1.4460543234475218,1.1947240514707707,0.16181905802756225,-1.0291732620221936,-0.22403998626807536,0.16181905806353702,-1.3385790024072097,0.16181905801513508,-1.0291732620221936,-0.22403998626807536,-1.0291732620221936],"RefInputSum":[0.5403378892672958,0.7675848922011743,0.5403667179835426,0.5403667180732316,0.26324441595864534,0.5403667180878099,0.20774383821982523,0.20774383821982523,0.4442231135180587,0.8093904476604434,0.7675848922011743,0.5403667180117426,0.26324441595864534,0.4442231135180587,0.5403667180206777,0.20774383821982523,0.5403667180086561,0.26324441595864534,0.4442231135180587,0.26324441595864534],"OutputSum":[0.11967447105240446,0.16997794652570625,0.11966158535283569,0.11966158537269686,0.05829419744139792,0.11966158537592517,0.04600386404520274,0.04600386404520274,0.09837105107491563,0.17923558374933038,0.16997794652570625,0.11966158535908045,0.05829419744139792,0.09837105107491563,0.11966158536105907,0.04600386404520274,0.11966158535839695,0.05829419744139792,0.09837105107491563,0.05829419744139792],"Weights":[0.28920042500447457,0.9704074599995318,-0.6552042477486463,-0.20334932834363192,0.19286192333590052,-0.8724193805272125,0.7465294458994179,0.825404392320743,0.22781403502906838,0.610436230393203,-0.24623649953906493,0.22148080567639702],"TrainRel":false,"LocalDeriv":0,"WeightsChange":[0,0,0,0,0,0,0,0,0,0,0,0]},{"Layer":2,"Node":5,"InputSum":[-2.5416969443922754,1.5639063203774133,-2.5416021083296285,-2.5416021085880796,-1.6914061227956316,-2.54160210862978,0.08513304515139447,0.08513304515139447,2.5781170782828635,0.2884430087180718,1.5639063203774133,-2.541602108411286,-1.6914061227956316,2.5781170782828635,-2.5416021084369116,0.08513304515139447,-2.541602108402404,-1.6914061227956316,2.5781170782828635,-1.6914061227956316],"RefInputSum":[0.07298627615807296,0.8269131701315068,0.07299269295760841,0.07299269294012037,0.15559101078951387,0.07299269293729872,0.5212704161543324,0.5212704161543324,0.9294398842972869,0.5716149130301148,0.8269131701315068,0.07299269295208308,0.15559101078951387,0.9294398842972869,0.07299269295034912,0.5212704161543324,0.07299269295268408,0.15559101078951387,0.9294398842972869,0.15559101078951387],"OutputSum":[0.04784782499108718,0.5420402815948032,0.04784659535512407,0.04784659534366068,0.10198966269766369,0.0478465953418111,0.34169193739458736,0.34169193739458736,0.6092463813701535,0.3746926758626395,0.5420402815948032,0.04784659535150222,0.10198966269766369,0.6092463813701535,0.04784659535036561,0.34169193739458736,0.04784659535189618,0.10198966269766369,0.6092463813701535,0.10198966269766369],"Weights":[-0.44848243010282285,0.4047620472723669,-1.3133630933976497,1.8196321162208697,0.2881642321327869,1.0532769097559018,0.4198774612329141,-0.31111552262908354,-1.2108964848515429,0.08705181862483206,-0.6299104458948591,0.6555729036984821],"TrainRel":false,"LocalDeriv":0,"WeightsChange":[0,0,0,0,0,0,0,0,0,0,0,0]},{"Layer":2,"Node":6,"InputSum":[-0.8890686093677606,-2.9296315358310037,-0.888948429884778,-0.8889484307402445,1.9408544777708125,-0.8889484308804617,-1.6605362380911783,-1.6605362380911783,2.3862623718188885,-3.158111344622165,-2.9296315358310037,-0.8889484301522649,1.9408544777708125,2.3862623718188885,-0.8889484302379486,-1.6605362380911783,-0.8889484301227794,1.9408544777708125,2.3862623718188885,1.9408544777708125],"RefInputSum":[0.29130207115337964,0.050708058663387665,0.2913268822499771,0.2913268820733613,0.8744459867925476,0.2913268820444127,0.1596900264931082,0.1596900264931082,0.9157737242264291,0.04077285566313256,0.050708058663387665,0.291326882194753,0.8744459867925476,0.9157737242264291,0.2913268821770631,0.1596900264931082,0.29132688220084046,0.8744459867925476,0.9157737242264291,0.8744459867925476],"OutputSum":[-0.15498799693396884,-0.02698011212168223,-0.15500557809442655,-0.15500557800045503,-0.46526432661584827,-0.1550055779850524,-0.08496587984365618,-0.08496587984365618,-0.4872534742798002,-0.021693913084208597,-0.02698011212168223,-0.1550055780650436,-0.46526432661584827,-0.4872534742798002,-0.15500557805563137,-0.08496587984365618,-0.15500557806828252,-0.46526432661584827,-0.4872534742798002,-0.46526432661584827],"Weights":[0.6296009933549847,-1.7044191636535415,1.4402199178706385,0.4726040474142223,-0.049582927031441036,-0.5461071271371948,2.047568021067029,-1.170393565606173,-1.2594250733203418,-1.616907701217726,1.9686141232149816,-0.5320525059101375],"TrainRel":false,"LocalDeriv":0,"WeightsChange":[0,0,0,0,0,0,0,0,0,0,0,0]},{"Layer":2,"Node":7,"InputSum":[-1.1324660787904075,1.6758597224191913,-1.1322146655505299,-1.1322146654131942,-1.584899855668411,-1.1322146653909086,-1.4845800933557363,-1.4845800933557363,0.4381145685022314,0.39936779919129217,1.6758597224191913,-1.1322146655073009,-1.584899855668411,0.4381145685022314,-1.132214665493634,-1.4845800933557363,-1.1322146655120255,-1.584899855668411,0.4381145685022314,-1.584899855668411],"RefInputSum":[0.24370628198434516,0.8423555114506569,0.2437526238319245,0.24375262385724059,0.1701026619178739,0.24375262386134863,0.1847366197453176,0.1847366197453176,0.6078096785762731,0.5985357576024917,0.8423555114506569,0.24375262383989318,0.1701026619178739,0.6078096785762731,0.24375262384241256,0.1847366197453176,0.2437526238390223,0.1701026619178739,0.6078096785762731,0.1701026619178739],"OutputSum":[-0.0792702807446985,-0.27405141356239204,-0.07930232569576288,-0.07930232570399921,-0.05534109329805188,-0.07930232570533571,-0.06010209595560771,-0.06010209595560771,-0.19774441945998725,-0.19472724782926587,-0.27405141356239204,-0.07930232569835541,-0.05534109329805188,-0.19774441945998725,-0.07930232569917506,-0.06010209595560771,-0.07930232569807208,-0.05534109329805188,-0.19774441945998725,-0.05534109329805188],"Weights":[-0.20297336319367504,0.5053006970498034,-0.6392398922900802,0.8520981858979262,0.9603868211388127,-0.4909069028567519,0.6326127341842772,0.1695955296518109,-0.07453383208611726,-0.29531514520760815,-1.0371403366814669,-0.32526974725169594],"TrainRel":false,"LocalDeriv":0,"WeightsChange":[0,0,0,0,0,0,0,0,0,0,0,0]},{"Layer":2,"Node":8,"InputSum":[2.540325689966706,-1.4220647778192896,2.5403754674626664,2.5403754676049632,2.0683976190501197,2.5403754676284644,3.4388831675119262,3.4388831675119262,-2.7461767742461127,1.2245499231210617,-1.4220647778192896,2.5403754675069323,2.0683976190501197,-2.7461767742461127,2.540375467521255,3.4388831675119262,2.5403754675020207,2.0683976190501197,-2.7461767742461127,2.0683976190501197],"RefInputSum":[0.9269208914123069,0.19433809563007842,0.9269242631961745,0.9269242632058129,0.887793437423098,0.9269242632074048,0.9688978779579511,0.9688978779579511,0.060302935110612695,0.7728632600655857,0.19433809563007842,0.9269242631991729,0.887793437423098,0.060302935110612695,0.926924263200143,0.9688978779579511,0.9269242631988401,0.887793437423098,0.060302935110612695,0.887793437423098],"OutputSum":[-0.6766763375208871,-0.14185835562673213,-0.676614388657095,-0.6766143886641307,-0.6480505881295282,-0.6766143886652927,-0.7072533014781281,-0.7072533014781281,-0.04401851930534736,-0.5641565584028008,-0.14185835562673213,-0.6766143886592837,-0.6480505881295282,-0.04401851930534736,-0.6766143886599919,-0.7072533014781281,-0.6766143886590409,-0.6480505881295282,-0.04401851930534736,-0.6480505881295282],"Weights":[0.10403748242745109,0.16856538190980624,0.6300920000973629,-2.950957459136147,0.6905404037689058,1.0331102115728275,-2.359766735026136,-0.18708755473216754,-0.38114508514001916,1.4937360089157168,0.1467413962533917,-0.7300259858097128],"TrainRel":false,"LocalDeriv":0,"WeightsChange":[0,0,0,0,0,0,0,0,0,0,0,0]},{"Layer":2,"Node":9,"InputSum":[3.3249669022609676,-1.6245958055110874,3.324966006100886,3.324966006777946,1.1013506636820485,3.3249660068866804,-1.848927066827851,-1.848927066827851,-3.330770228297433,-0.424224006982192,-1.6245958055110874,3.3249660063154503,1.1013506636820485,-3.330770228297433,3.3249660063823807,-1.848927066827851,3.3249660062922017,1.1013506636820485,-3.330770228297433,1.1013506636820485],"RefInputSum":[0.9652754610890415,0.16457202728474518,0.9652754310508674,0.9652754310735617,0.7505130937337205,0.9652754310772064,0.1359989208750903,0.1359989208750903,0.034530543065011056,0.3955064254931183,0.16457202728474518,0.9652754310580594,0.7505130937337205,0.034530543065011056,0.9652754310603029,0.1359989208750903,0.9652754310572802,0.7505130937337205,0.034530543065011056,0.7505130937337205],"OutputSum":[0.3630671047562874,0.061897090361205484,0.3630491862133448,0.3630491862218803,0.28227504726381913,0.3630491862232511,0.05115047577233188,0.05115047577233188,0.012987262656845237,0.14875369381473336,0.061897090361205484,0.36304918621604976,0.28227504726381913,0.012987262656845237,0.3630491862168936,0.05115047577233188,0.3630491862157567,0.28227504726381913,0.012987262656845237,0.28227504726381913],"Weights":[-0.24446940941853135,0.08513464904976692,2.0075525379355157,-2.1968924719484577,-0.16247176506046826,-2.2698319928370854,-0.19834235883258797,2.187203312551252,1.789605084161484,-0.14159026228712623,0.27246921240805044,0.37612797526901637],"TrainRel":false,"LocalDeriv":0,"WeightsChange":[0,0,0,0,0,0,0,0,0,0,0,0]},{"Layer":2,"Node":10,"InputSum":[-1.4841228999459202,-1.0817201064427377,-1.4840095613678537,-1.4840095622977774,1.5798307885906862,-1.4840095624484857,2.1564430598741886,2.1564430598741886,2.0678201149989204,0.94635593874404,-1.0817201064427377,-1.4840095616608096,1.5798307885906862,2.0678201149989204,-1.4840095617532747,2.1564430598741886,-1.4840095616288245,1.5798307885906862,2.0678201149989204,1.5798307885906862],"RefInputSum":[0.18480548711315667,0.2531806405255815,0.1848225624540897,0.18482256231398442,0.8291805521808271,0.18482256229127825,0.8962693234036698,0.8962693234036698,0.8877358957502307,0.7203817377041553,0.2531806405255815,0.184822562409952,0.8291805521808271,0.8877358957502307,0.18482256239602093,0.8962693234036698,0.18482256241477102,0.8291805521808271,0.8877358957502307,0.8291805521808271],"OutputSum":[-0.16283365467292557,-0.22305124217180705,-0.162828018963779,-0.16282801884034676,-0.7305051119418072,-0.1628280188203427,-0.7896100803389595,-0.7896100803389595,-0.7820921609825207,-0.6346537440589236,-0.22305124217180705,-0.16282801892489385,-0.7305051119418072,-0.7820921609825207,-0.1628280189126206,-0.7896100803389595,-0.16282801892913937,-0.7305051119418072,-0.7820921609825207,-0.7305051119418072],"Weights":[1.7406308511961317,-1.3483191418422538,0.03363098320471872,-1.8213174323165522,0.7009616316079328,1.4941097641043495,0.8412519364691022,-1.0754431537438036,-2.8128118054816795,-0.4222568057352364,0.5464609304349813,-0.8811083329642819],"TrainRel":false,"LocalDeriv":0,"WeightsChange":[0,0,0,0,0,0,0,0,0,0,0,0]},{"Layer":2,"Node":11,"InputSum":[0.48008170888156104,-1.20710422330419,0.48004171846809407,0.48004171807339047,1.7908803325465188,0.4800417180079696,-0.8812642167756367,-0.8812642167756367,3.234373613278325,-1.9645185711104114,-1.20710422330419,0.4800417183456055,1.7908803325465188,3.234373613278325,0.48004171830578546,-0.8812642167756367,0.48004171835923826,1.7908803325465188,3.234373613278325,1.7908803325465188],"RefInputSum":[0.6177671689461429,0.23021382627894704,0.6177577259295917,0.617757725836389,0.8570351739501294,0.617757725820941,0.29291587064569685,0.29291587064569685,0.9621075228152157,0.12297886595273019,0.23021382627894704,0.617757725900668,0.8570351739501294,0.9621075228152157,0.6177577258912651,0.29291587064569685,0.6177577259038871,0.8570351739501294,0.9621075228152157,0.8570351739501294],"OutputSum":[0.34505196499935453,0.12856463153737865,0.34499141818386075,0.344991418131811,0.4786176970099207,0.344991418123184,0.16358105674931978,0.16358105674931978,0.5372961353772087,0.0686784666397047,0.12856463153737865,0.3449914181677081,0.4786176970099207,0.5372961353772087,0.344991418162457,0.16358105674931978,0.34499141816950585,0.4786176970099207,0.5372961353772087,0.4786176970099207],"Weights":[0.3454891668257869,-0.4918951447851677,0.27730753915528433,0.5612925322774319,0.12439647789139112,-0.3872297149538665,2.0322458714781653,-1.1218744591499095,-0.08647634630621395,-1.0508379871490576,1.540323620143517,0.5585469451022838],"TrainRel":false,"LocalDeriv":0,"WeightsChange":[0,0,0,0,0,0,0,0,0,0,0,0]}],[{"Layer":3,"Node":0,"InputSum":[1.8118617839042288,0.9037674809314694,1.8120218447984078,1.812021844431449,3.256100519035251,1.812021844371738,3.0501315471701,3.0501315471701,2.7612117328756995,2.0670286414396846,0.9037674809314694,1.8120218446831104,3.256100519035251,2.7612117328756995,1.8120218446465277,3.0501315471701,1.8120218446957415,3.256100519035251,2.7612117328756995,3.256100519035251],"RefInputSum":[0.8595867371769901,0.7117231053798707,0.8596060549954162,0.8596060549511302,0.962891708535806,0.8596060549439241,0.9547882054436735,0.9547882054436735,0.9405434321083788,0.8876569925927661,0.7117231053798707,0.8596060549815016,0.962891708535806,0.9405434321083788,0.8596060549770866,0.9547882054436735,0.859606054983026,0.962891708535806,0.9405434321083788,0.962891708535806],"OutputSum":[-1.261528683661963,-1.0444917914232814,-1.2615179435846027,-1.2615179435196104,-1.4130951742228384,-1.2615179435090351,-1.4012028492476811,-1.4012028492476811,-1.3802978811400919,-1.3026841974840329,-1.0444917914232814,-1.2615179435641821,-1.4130951742228384,-1.3802978811400919,-1.261517943557703,-1.4012028492476811,-1.2615179435664194,-1.4130951742228384,-1.3802978811400919,-1.4130951742228384],"Weights":[-0.9885223676316188,-0.5625723039840144,-1.3741972382313963,-1.2413969849209268,-2.1499312399990287,-0.7656045589597946,0.009661218075117292,-2.3975431664142626,-0.39034241768462613,-1.3680095525859715,0.1445433059456623,-1.7570462893816055,-1.4675990555705987],"TrainRel":false,"LocalDeriv":0,"WeightsChange":[0,0,0,0,0,0,0,0,0,0,0,0,0]},{"Layer":3,"Node":1,"InputSum":[0.5724562184126611,2.9249840934241234,0.5724516487611605,0.5724516495895764,-2.8456130031349685,0.5724516497246313,-1.1917682124601334,-1.1917682124601334,-1.8160862765672763,2.004333299306452,2.9249840934241234,0.5724516490211189,-2.8456130031349685,-1.8160862765672763,0.5724516491038061,-1.1917682124601334,0.5724516489925943,-2.8456130031349685,-1.8160862765672763,-2.8456130031349685],"RefInputSum":[0.6393297413399995,0.9490677608581591,0.6393286876360783,0.6393286878271005,0.05490853018022041,0.6393286878582426,0.23294284154904085,0.23294284154904085,0.139904151766574,0.8812512963886336,0.9490677608581591,0.6393286876960215,0.05490853018022041,0.139904151766574,0.6393286877150881,0.23294284154904085,0.639328687689444,0.05490853018022041,0.139904151766574,0.05490853018022041],"OutputSum":[0.22038252229382685,0.32718207683563266,0.22040247959980344,0.22040247966565654,0.018929193131702493,0.22040247967639248,0.08030482735299592,0.08030482735299592,0.048230624641095884,0.3038029962221196,0.32718207683563266,0.2204024796204683,0.018929193131702493,0.048230624641095884,0.22040247962704132,0.08030482735299592,0.22040247961820075,0.018929193131702493,0.048230624641095884,0.018929193131702493],"Weights":[0.14532720517483663,-0.4424410464432613,-0.48872384345087166,-0.4707439536471209,0.11944294026154396,-2.607113745148078,-0.9457977875200801,1.9187247370145093,-1.2344865092972517,-0.5189728502826053,1.472684632459974,0.07788233400280502,0.3447086973177837],"TrainRel":false,"LocalDeriv":0,"WeightsChange":[0,0,0,0,0,0,0,0,0,0,0,0,0]},{"Layer":3,"Node":2,"InputSum":[2.308297366557372,-4.882594253216817,2.308188620585753,2.3081886202755566,3.0700756220597487,2.3081886202244095,-1.1709397641947346,-1.1709397641947346,-2.825443494725773,-2.2397457897339095,-4.882594253216817,2.308188620489149,3.0700756220597487,-2.825443494725773,2.30818862045796,-1.1709397641947346,2.3081886204998527,3.0700756220597487,-2.825443494725773,3.0700756220597487],"RefInputSum":[0.9095618959139934,0.007520346834785483,0.909552950174887,0.9095529501493682,0.9556413782110816,0.9095529501451605,0.23668515948659255,0.23668515948659255,0.05596464346669476,0.09623764962446421,0.007520346834785483,0.9095529501669396,0.9556413782110816,0.05596464346669476,0.909552950164374,0.23668515948659255,0.9095529501678202,0.9556413782110816,0.05596464346669476,0.9556413782110816],"OutputSum":[-0.31160658517186,-0.002576282772052012,-0.311590096478773,-0.3115900964700309,-0.32737883943825835,-0.31159009646858943,-0.08108241709879659,-0.08108241709879659,-0.019172087401656608,-0.03296861224584162,-0.002576282772052012,-0.3115900964760504,-0.32737883943825835,-0.019172087401656608,-0.3115900964751715,-0.08108241709879659,-0.3115900964763521,-0.32737883943825835,-0.019172087401656608,-0.32737883943825835],"Weights":[-0.48058733391897285,-1.1000189137783736,-0.7113536175474362,-0.6650529280211779,1.8825973025367917,3.7203835754180496,-0.6120820045289058,-2.0610392299234626,-2.320993656900977,-0.8370598112909173,-1.3226090514822624,-0.036357552837015215,-0.34258975290377053],"TrainRel":false,"LocalDeriv":0,"WeightsChange":[0,0,0,0,0,0,0,0,0,0,0,0,0]},{"Layer":3,"Node":3,"InputSum":[-6.6781499963238735,2.8427850355376862,-6.677923559056355,-6.677923559167541,-5.870949587414018,-6.67792355918569,-3.4288755180041686,-3.4288755180041686,3.390643507155154,-2.870657064462446,2.8427850355376862,-6.677923559091216,-5.870949587414018,3.390643507155154,-6.677923559102323,-3.4288755180041686,-6.677923559087388,-5.870949587414018,3.390643507155154,-5.870949587414018],"RefInputSum":[0.001256522481610773,0.9449445315933088,0.0012568066797123344,0.0012568066795727699,0.0028122629142252453,0.0012568066795499897,0.03140511966614039,0.03140511966614039,0.9674108387160986,0.05362329762365794,0.9449445315933088,0.0012568066796685756,0.0028122629142252453,0.9674108387160986,0.0012568066796546334,0.03140511966614039,0.0012568066796733808,0.0028122629142252453,0.9674108387160986,0.0028122629142252453],"OutputSum":[-0.00021884787176058935,-0.16456429342975176,-0.00021887581366910062,-0.00021887581364479511,-0.0004897621436443784,-0.0002188758136408279,-0.005469274814703621,-0.005469274814703621,-0.16847685319810532,-0.009338622310381801,-0.16456429342975176,-0.00021887581366147993,-0.0004897621436443784,-0.16847685319810532,-0.00021887581365905186,-0.005469274814703621,-0.00021887581366231674,-0.0004897621436443784,-0.16847685319810532,-0.0004897621436443784],"Weights":[-1.09734157506195,-0.627449525373603,-0.41618692195126855,-0.7564024359867626,-2.9274021338556975,-3.6193367373405896,-2.335418229003048,4.517102203798886,3.179162456282679,-0.3272563291449669,-3.3605447933620147,-0.5177223962390383,-0.1741694836052928],"TrainRel":false,"LocalDeriv":0,"WeightsChange":[0,0,0,0,0,0,0,0,0,0,0,0,0]},{"Layer":3,"Node":4,"InputSum":[1.861459932990591,3.3437473699036278,1.8615261093414157,1.861526109277752,2.159386232918517,1.8615261092675717,3.224768582793047,3.224768582793047,3.3866876255052514,3.192743546242719,3.3437473699036278,1.8615261093211843,2.159386232918517,3.3866876255052514,1.8615261093149087,3.224768582793047,1.861526109323369,2.159386232918517,3.3866876255052514,2.159386232918517],"RefInputSum":[0.8654670243880477,0.965899487658555,0.8654747293692736,0.8654747293618613,0.8965426330807545,0.865474729360676,0.9617557972521803,0.9617557972521803,0.9672858903393279,0.9605602889914958,0.965899487658555,0.8654747293669182,0.8965426330807545,0.9672858903393279,0.8654747293661875,0.9617557972521803,0.8654747293671724,0.8965426330807545,0.9672858903393279,0.8965426330807545],"OutputSum":[-1.1300564122240475,-1.2611445927514735,-1.130023143249606,-1.130023143239928,-1.170587528337786,-1.1300231432383803,-1.2557343064672313,-1.2557343064672313,-1.2629547751426777,-1.2541733689185357,-1.2611445927514735,-1.1300231432465304,-1.170587528337786,-1.2629547751426777,-1.1300231432455765,-1.2557343064672313,-1.1300231432468624,-1.170587528337786,-1.2629547751426777,-1.170587528337786],"Weights":[-1.4420245051020355,-1.2744328610742448,-1.3307246551997425,-1.4837496159751293,-1.6750704503411138,-1.1476443328605004,0.4332277153728374,-0.5857420436553551,-1.3486046929582298,-0.7620222782408199,-0.448043101054322,-1.076312375092664,-1.305718624026242],"TrainRel":false,"LocalDeriv":0,"WeightsChange":[0,0,0,0,0,0,0,0,0,0,0,0,0]},{"Layer":3,"Node":5,"InputSum":[-3.494862778592353,-1.1050978474123168,-3.494735419641641,-3.4947354201349405,-0.5438123228588114,-3.4947354202143583,2.7670488399218205,2.7670488399218205,1.290005620358609,-0.791841163107022,-1.1050978474123168,-3.49473541979772,-0.5438123228588114,1.290005620358609,-3.4947354198465623,2.7670488399218205,-3.494735419780775,-0.5438123228588114,1.290005620358609,-0.5438123228588114],"RefInputSum":[0.02945875421022284,0.24878593047083475,0.02946239574005639,0.029462395725950805,0.36730118530227646,0.029462395723679903,0.940869013642079,0.940869013642079,0.7841481404799713,0.3117734727773738,0.24878593047083475,0.029462395735593404,0.36730118530227646,0.7841481404799713,0.0294623957341968,0.940869013642079,0.029462395736077937,0.36730118530227646,0.7841481404799713,0.36730118530227646],"OutputSum":[-0.03414309996752091,-0.28834028577122656,-0.03414660785324724,-0.03414660783689901,-0.42569822390572937,-0.03414660783426706,-1.090457325112493,-1.090457325112493,-0.908819475784129,-0.3613421871019121,-0.28834028577122656,-0.03414660784807468,-0.42569822390572937,-0.908819475784129,-0.03414660784645603,-1.090457325112493,-0.034146607848636254,-0.42569822390572937,-0.908819475784129,-0.42569822390572937],"Weights":[-0.6858176877681825,-0.9896672413183055,-0.5764727493165968,-0.5023775296509231,-3.873136456195181,-0.8619309239658941,3.751434365229097,-1.7790919545342452,0.29532947515240054,-0.4404144626633155,-1.135443705084863,-1.1916086850420207,-1.1590137085862409],"TrainRel":false,"LocalDeriv":0,"WeightsChange":[0,0,0,0,0,0,0,0,0,0,0,0,0]},{"Layer":3,"Node":6,"InputSum":[-0.12499011442693408,0.8056094877216335,-0.12490397426031641,-0.1249039748461791,1.8566845209585263,-0.12490397494276495,-1.7474601834743888,-1.7474601834743888,5.232772535496324,-1.0931930943854282,0.8056094877216335,-0.12490397444279155,1.8566845209585263,5.232772535496324,-0.12490397450169177,-1.7474601834743888,-0.12490397442257595,1.8566845209585263,5.232772535496324,1.8566845209585263],"RefInputSum":[0.4687930883914746,0.6911731244550331,0.4688145396013414,0.46881453945544543,0.864910033727721,0.46881453943139295,0.14836782956091862,0.14836782956091862,0.9946896473747286,0.2510174749114878,0.6911731244550331,0.4688145395559,0.864910033727721,0.9946896473747286,0.4688145395412323,0.14836782956091862,0.4688145395609343,0.864910033727721,0.9946896473747286,0.864910033727721],"OutputSum":[-0.6618203251631779,-0.9757499077749825,-0.6618395993626929,-0.6618395991567271,-1.2210195329989082,-0.6618395991227716,-0.2094553316507885,-0.2094553316507885,-1.404233320640009,-0.35436892629167627,-0.9757499077749825,-0.6618395992985419,-1.2210195329989082,-1.404233320640009,-0.6618395992778351,-0.2094553316507885,-0.661839599305649,-1.2210195329989082,-1.404233320640009,-1.2210195329989082],"Weights":[-0.925335868159067,-1.1164262273860937,-1.033002948834257,-1.137477356466885,-1.8472032322786323,2.0959594788550917,-3.7464186934949115,-0.774015083946167,1.271711192060379,-0.8445096614141379,-2.2719781950007607,-0.8958178407625648,-1.4117535892732962],"TrainRel":false,"LocalDeriv":0,"WeightsChange":[0,0,0,0,0,0,0,0,0,0,0,0,0]},{"Layer":3,"Node":7,"InputSum":[2.7399835967201644,1.5465355620273589,2.73981623877714,2.7398162397024626,-1.5796519682597185,2.7398162398530723,-2.197132566723059,-2.197132566723059,-4.030482801598342,2.261230529790423,1.5465355620273589,2.7398162390678182,-1.5796519682597185,-4.030482801598342,2.739816239160082,-2.197132566723059,2.739816239035967,-1.5796519682597185,-4.030482801598342,-1.5796519682597185],"RefInputSum":[0.9393451621006238,0.8244127959893542,0.9393356260420134,0.9393356260947421,0.17084477745112997,0.9393356261033244,0.10000828125996412,0.10000828125996412,0.017455638038899917,0.9056148650406965,0.8244127959893542,0.9393356260585773,0.17084477745112997,0.017455638038899917,0.9393356260638349,0.10000828125996412,0.9393356260567624,0.17084477745112997,0.017455638038899917,0.17084477745112997],"OutputSum":[-1.0433217568686755,-0.915642410102264,-1.0432826136472713,-1.0432826137058349,-0.1897504800262193,-1.043282613715367,-0.11107520908038054,-0.11107520908038054,-0.01938728093688816,-1.0058303093842418,-0.915642410102264,-1.043282613665668,-0.1897504800262193,-0.01938728093688816,-1.0432826136715074,-0.11107520908038054,-1.0432826136636524,-0.1897504800262193,-0.01938728093688816,-0.1897504800262193],"Weights":[-0.9704019808601327,-0.799927465474371,-0.9813873407923208,-0.9371147172956915,2.344435048607276,-1.7759166619630713,-2.587072343603076,0.27110786077240895,-3.007729244365465,-0.29155680942279616,1.9324233654845673,-0.37262473866141776,-1.1106905096903172],"TrainRel":false,"LocalDeriv":0,"WeightsChange":[0,0,0,0,0,0,0,0,0,0,0,0,0]},{"Layer":3,"Node":8,"InputSum":[2.3096725766651764,-1.2113654288989588,2.3094746861892115,2.3094746870852765,-1.9974073009800217,2.309474687230632,-3.8883194958810847,-3.8883194958810847,-5.002824035045468,-1.6931843773284767,-1.2113654288989588,2.309474686471327,-1.9974073009800217,-5.002824035045468,2.30947468656048,-3.8883194958810847,2.3094746864405016,-1.9974073009800217,-5.002824035045468,-1.9974073009800217],"RefInputSum":[0.909674955698814,0.2294595432137509,0.9096586944264791,0.9096586945001174,0.11947540765840416,0.9096586945120627,0.020068731148299282,0.020068731148299282,0.006674102710172055,0.15535752241629872,0.2294595432137509,0.9096586944496632,0.11947540765840416,0.006674102710172055,0.9096586944569897,0.020068731148299282,0.90965869444713,0.11947540765840416,0.006674102710172055,0.11947540765840416],"OutputSum":[-0.4294947943164834,-0.10833443565397831,-0.4294759761054106,-0.4294759761401774,-0.05640776880282117,-0.4294759761458171,-0.009475023931417505,-0.009475023931417505,-0.00315103543080638,-0.07334874496761133,-0.10833443565397831,-0.4294759761163565,-0.05640776880282117,-0.00315103543080638,-0.42947597611981553,-0.009475023931417505,-0.42947597611516053,-0.05640776880282117,-0.00315103543080638,-0.05640776880282117],"Weights":[-1.3395365272070745,0.05513689481107323,-0.789323496931317,-1.175110901025014,3.291604963417989,-2.4202005813161,-2.3209489308204354,-0.6378976192157081,-2.806850431003677,-1.5471231031469581,-1.520082425732673,-0.5921821569619046,-0.47214094619824365],"TrainRel":false,"LocalDeriv":0,"WeightsChange":[0,0,0,0,0,0,0,0,0,0,0,0,0]},{"Layer":3,"Node":9,"InputSum":[1.3420976830936149,1.5318412352555701,1.3420763782147285,1.342076378819723,-0.9574639285601602,1.3420763789188006,1.3117031208593122,1.3117031208593122,-2.1658535874415596,2.426648196944127,1.5318412352555701,1.3420763784040073,-0.9574639285601602,-2.1658535874415596,1.3420763784645706,1.3117031208593122,1.3420763783831586,-0.9574639285601602,-2.1658535874415596,-0.9574639285601602],"RefInputSum":[0.792834693008528,0.8222755492015937,0.7928311937063034,0.7928311938056738,0.27738624583879257,0.7928311938219472,0.7877980100716793,0.7877980100716793,0.10285903087215446,0.9188369206007643,0.8222755492015937,0.7928311937373925,0.27738624583879257,0.10285903087215446,0.79283119374734,0.7877980100716793,0.792831193733968,0.27738624583879257,0.10285903087215446,0.27738624583879257],"OutputSum":[-0.07819444745332838,-0.08106470318361274,-0.07816190747118264,-0.07816190748097915,-0.027346348444839262,-0.07816190748258348,-0.0776657069726933,-0.0776657069726933,-0.010140441139836217,-0.09058428444694575,-0.08106470318361274,-0.07816190747424759,-0.027346348444839262,-0.010140441139836217,-0.07816190747522826,-0.0776657069726933,-0.07816190747390998,-0.027346348444839262,-0.010140441139836217,-0.027346348444839262],"Weights":[-0.5734450727923999,-0.7464022665752276,-0.32152802015376786,0.05002280868051907,-0.13395047600701554,-2.095646766762028,0.9143025494248262,-0.15127605019038728,-2.2890299393212716,-0.852157756686406,0.8822791431529095,-0.9050425227225601,-0.09862642003796279],"TrainRel":false,"LocalDeriv":0,"WeightsChange":[0,0,0,0,0,0,0,0,0,0,0,0,0]},{"Layer":3,"Node":10,"InputSum":[2.275219604277174,-2.5416983715202024,2.275012045627414,2.275012044954439,4.5417831774432535,2.275012044843896,0.694365728876311,0.694365728876311,2.7683151344639323,-1.9798400425618419,-2.5416983715202024,2.275012045417292,4.5417831774432535,2.7683151344639323,2.2750120453497926,0.694365728876311,2.275012045440496,4.5417831774432535,2.7683151344639323,4.5417831774432535],"RefInputSum":[0.9068038374737563,0.07298617959968431,0.90678629507874,0.9067862950218569,0.9894579284170444,0.9067862950125133,0.6669374001642732,0.6669374001642732,0.9409394240046002,0.12133589047990209,0.07298617959968431,0.9067862950609795,0.9894579284170444,0.9409394240046002,0.9067862950552741,0.6669374001642732,0.906786295062941,0.9894579284170444,0.9409394240046002,0.9894579284170444],"OutputSum":[-0.5756042774014845,-0.04632706480668223,-0.5755712614132465,-0.5755712613771408,-0.628046046863648,-0.57557126137121,-0.42333017468342843,-0.42333017468342843,-0.5972495329131038,-0.07701643917341353,-0.04632706480668223,-0.5755712614019733,-0.628046046863648,-0.5972495329131038,-0.5755712613983519,-0.42333017468342843,-0.5755712614032183,-0.628046046863648,-0.5972495329131038,-0.628046046863648],"Weights":[-0.6907931664552494,-1.0023915135467747,-0.3810783677806083,-0.7097447456906509,0.3425831242763139,1.342959162629975,-0.7862055337248669,-3.210607001240325,0.5582461406046527,-1.207163066086416,-2.800492685083987,-0.6050299371185495,-0.6347616249673657],"TrainRel":false,"LocalDeriv":0,"WeightsChange":[0,0,0,0,0,0,0,0,0,0,0,0,0]},{"Layer":3,"Node":11,"InputSum":[0.012476987991710264,-0.1659570270790741,0.012252079646107916,0.012252079843534991,-0.9473593848164799,0.012252079875314736,-1.761843521899403,-1.761843521899403,-0.1332572838425029,-1.3461129700584118,-0.1659570270790741,0.012252079708580055,-0.9473593848164799,-0.1332572838425029,0.01225207972812542,-1.761843521899403,0.012252079701797869,-0.9473593848164799,-0.1332572838425029,-0.9473593848164799],"RefInputSum":[0.5031192065327665,0.4586057055385107,0.5030629815953935,0.5030629816447484,0.2794161809627374,0.5030629816526931,0.14655960201642487,0.14655960201642487,0.46673488991978423,0.20650658019629167,0.4586057055385107,0.503062981611011,0.2794161809627374,0.46673488991978423,0.5030629816158971,0.14655960201642487,0.5030629816093155,0.2794161809627374,0.46673488991978423,0.2794161809627374],"OutputSum":[-0.035655633656753234,-0.03249335066221679,-0.035643258835964885,-0.0356432588394618,-0.0197973288144302,-0.03564325884002471,-0.010384110977517546,-0.010384110977517546,-0.0330693235197467,-0.014631502930156698,-0.03249335066221679,-0.03564325883707143,-0.0197973288144302,-0.0330693235197467,-0.03564325883741762,-0.010384110977517546,-0.0356432588369513,-0.0197973288144302,-0.0330693235197467,-0.0197973288144302],"Weights":[0.3863364476420439,0.3852217724533027,0.1488982714812635,0.4960167888331621,0.7687358139770142,-0.9399362346554742,-0.5425063834423369,0.26477479720710223,0.5135565958080687,-0.08689375285168334,-0.9067809443615029,0.09858409956820137,-0.07086915624325524],"TrainRel":false,"LocalDeriv":0,"WeightsChange":[0,0,0,0,0,0,0,0,0,0,0,0,0]}],[{"Layer":4,"Node":0,"InputSum":[-5.91410351728389,-5.26113942116212,-5.913869848639009,-5.913869848548119,-4.811506422250143,-5.913869848533037,-4.20716278144931,-4.20716278144931,-5.405248829377499,-4.303374517838715,-5.26113942116212,-5.913869848610824,-4.811506422250143,-5.405248829377499,-5.9138698486016485,-4.20716278144931,-5.913869848613964,-4.811506422250143,-5.405248829377499,-4.811506422250143],"RefInputSum":[0.002693804004853026,0.0051625977247625,0.0026944318397038045,0.002694431839948042,0.008069941050287696,0.0026944318399885698,0.01467013351719302,0.01467013351719302,0.00447284010193753,0.013342421289838235,0.0051625977247625,0.0026944318397795416,0.008069941050287696,0.00447284010193753,0.002694431839804198,0.01467013351719302,0.002694431839771105,0.008069941050287696,0.00447284010193753,0.008069941050287696],"OutputSum":[0,0,0,0,0,0,0,0,0,0,0,0,0,0,0,0,0,0,0,0],"Weights":null,"TrainRel":false,"LocalDeriv":0,"WeightsChange":null},{"Layer":4,"Node":1,"InputSum":[-5.431460936247156,-4.827170458991913,-5.431272838840063,-5.431272838721473,-5.311796750762812,-5.431272838701869,-4.521543055683211,-4.521543055683211,-5.23244066387417,-4.285309957177276,-4.827170458991913,-5.431272838803191,-5.311796750762812,-5.23244066387417,-5.43127283879125,-4.521543055683211,-5.431272838807286,-5.311796750762812,-5.23244066387417,-5.311796750762812],"RefInputSum":[0.00435762504963693,0.007945514626769191,0.004358441211935361,0.004358441212449977,0.004908839701742356,0.004358441212535048,0.010755300113209654,0.010755300113209654,0.005312105909709737,0.013582333012879224,0.007945514626769191,0.004358441212095363,0.004908839701742356,0.005312105909709737,0.004358441212147184,0.010755300113209654,0.004358441212077596,0.004908839701742356,0.005312105909709737,0.004908839701742356],"OutputSum":[0,0,0,0,0,0,0,0,0,0,0,0,0,0,0,0,0,0,0,0],"Weights":null,"TrainRel":false,"LocalDeriv":0,"WeightsChange":null},{"Layer":4,"Node":2,"InputSum":[-5.959643204338135,-5.197136307338884,-5.959435989931084,-5.959435989889464,-5.015638451043499,-5.959435989882387,-4.182220168932042,-4.182220168932042,-4.914354931280663,-4.78065470736299,-5.197136307338884,-5.959435989918397,-5.015638451043499,-4.914354931280663,-5.959435989914128,-4.182220168932042,-5.959435989919841,-5.015638451043499,-4.914354931280663,-5.015638451043499],"RefInputSum":[0.0025741890864519517,0.005501945925309923,0.0025747211772640588,0.002574721177370943,0.00658968360847247,0.002574721177389117,0.015035075854190729,0.015035075854190729,0.007286961871219481,0.008320689070560064,0.005501945925309923,0.002574721177296639,0.00658968360847247,0.007286961871219481,0.0025747211773076034,0.015035075854190729,0.0025747211772929306,0.00658968360847247,0.007286961871219481,0.00658968360847247],"OutputSum":[0,0,0,0,0,0,0,0,0,0,0,0,0,0,0,0,0,0,0,0],"Weights":null,"TrainRel":false,"LocalDeriv":0,"WeightsChange":null},{"Layer":4,"Node":3,"InputSum":[-6.10971053733421,-5.2195581949948,-6.1094901420750665,-6.109490141975019,-5.207489382468999,-6.109490141958352,-4.022825296501517,-4.022825296501517,-5.418125140644474,-4.457443431629916,-5.2195581949948,-6.109490142044125,-5.207489382468999,-5.418125140644474,-6.109490142033999,-4.022825296501517,-6.109490142047585,-5.207489382468999,-5.418125140644474,-5.207489382468999],"RefInputSum":[0.0022162709054819618,0.005380611047449949,0.002216758332005759,0.0022167583322270476,0.005445586308680824,0.0022167583322639135,0.01758745788122531,0.01758745788122531,0.004415868326960087,0.011459127320116584,0.005380611047449949,0.0022167583320741972,0.005445586308680824,0.004415868326960087,0.0022167583320965942,0.01758745788122531,0.002216758332066543,0.005445586308680824,0.004415868326960087,0.005445586308680824],"OutputSum":[0,0,0,0,0,0,0,0,0,0,0,0,0,0,0,0,0,0,0,0],"Weights":null,"TrainRel":false,"LocalDeriv":0,"WeightsChange":null},{"Layer":4,"Node":4,"InputSum":[3.2949445282005114,-5.071203373382987,3.2946291960930805,3.2946291968711656,-3.484209606176174,3.2946291969978994,-6.663848942803058,-6.663848942803058,-10.496135221044238,-2.346937398292984,-5.071203373382987,3.294629196337393,-3.484209606176174,-10.496135221044238,3.29462919641501,-6.663848942803058,3.294629196310606,-3.484209606176174,-10.496135221044238,-3.484209606176174],"RefInputSum":[0.9642549705293205,0.006235736190391242,0.964244100284676,0.9642441003115022,0.02976486996992078,0.9642441003158717,0.001274598115090866,0.001274598115090866,0.000027642313435595628,0.08730951238430192,0.006235736190391242,0.9642441002930991,0.02976486996992078,0.000027642313435595628,0.9642441002957753,0.001274598115090866,0.9642441002921757,0.02976486996992078,0.000027642313435595628,0.02976486996992078],"OutputSum":[0,0,0,0,0,0,0,0,0,0,0,0,0,0,0,0,0,0,0,0],"Weights":null,"TrainRel":false,"LocalDeriv":0,"WeightsChange":null},{"Layer":4,"Node":5,"InputSum":[-3.7680014331518525,-10.360744372222369,-3.767712270211204,-3.7677122716576843,3.0243090212600037,-3.767712271894281,-3.2940624640656178,-3.2940624640656178,-3.5167431050654576,-7.598691803314127,-10.360744372222369,-3.767712270664115,3.0243090212600037,-3.5167431050654576,-3.7677122708088007,-3.2940624640656178,-3.767712270614278,3.0243090212600037,-3.5167431050654576,3.0243090212600037],"RefInputSum":[0.02257669976052284,0.00003164988564132552,0.02258308159792128,0.022583081565993,0.9536603237746881,0.022583081560770584,0.03577544431252704,0.03577544431252704,0.02883957472048153,0.0005008555687585132,0.00003164988564132552,0.022583081587924138,0.9536603237746881,0.02883957472048153,0.02258308158473048,0.03577544431252704,0.022583081589024195,0.9536603237746881,0.02883957472048153,0.9536603237746881],"OutputSum":[0,0,0,0,0,0,0,0,0,0,0,0,0,0,0,0,0,0,0,0],"Weights":null,"TrainRel":false,"LocalDeriv":0,"WeightsChange":null},{"Layer":4,"Node":6,"InputSum":[-7.229323079961765,-6.558988053647187,-7.228680392818547,-7.228680392691744,-3.503032554340965,-7.22868039266957,2.7721200613500163,2.7721200613500163,-3.741972549489762,-2.434104261010899,-6.558988053647187,-7.228680392780671,-3.503032554340965,-3.741972549489762,-7.228680392767422,2.7721200613500163,-7.228680392785096,-3.503032554340965,-3.741972549489762,-3.503032554340965],"RefInputSum":[0.0007244862110587091,0.0014153132851865864,0.0007249516410283897,0.0007249516411202494,0.029226068463172425,0.0007249516411363126,0.9411505185991662,0.9411505185991662,0.023158273197940747,0.08060877229445718,0.0014153132851865864,0.0007249516410558285,0.029226068463172425,0.023158273197940747,0.0007249516410654263,0.9411505185991662,0.0007249516410526228,0.029226068463172425,0.023158273197940747,0.029226068463172425],"OutputSum":[0,0,0,0,0,0,0,0,0,0,0,0,0,0,0,0,0,0,0,0],"Weights":null,"TrainRel":false,"LocalDeriv":0,"WeightsChange":null},{"Layer":4,"Node":7,"InputSum":[-6.849098600097248,2.6639927330713413,-6.848547782498193,-6.848547781683195,-9.182219722054105,-6.8485477815498985,-6.746837281552612,-6.746837281552612,-3.375867007860635,-2.032023312344986,2.6639927330713413,-6.848547782242991,-9.182219722054105,-3.375867007860635,-6.848547782161475,-6.746837281552612,-6.848547782271073,-9.182219722054105,-3.375867007860635,-9.182219722054105],"RefInputSum":[0.0010592878361137252,0.9348682052058027,0.0010598708526419714,0.0010598708535048493,0.00010284139933536271,0.0010598708536459763,0.0011732106057200137,0.0011732106057200137,0.033058252908747324,0.11588146658393127,0.9348682052058027,0.001059870852912166,0.00010284139933536271,0.033058252908747324,0.0010598708529984708,0.0011732106057200137,0.001059870852882435,0.00010284139933536271,0.033058252908747324,0.00010284139933536271],"OutputSum":[0,0,0,0,0,0,0,0,0,0,0,0,0,0,0,0,0,0,0,0],"Weights":null,"TrainRel":false,"LocalDeriv":0,"WeightsChange":null},{"Layer":4,"Node":8,"InputSum":[-10.223013118516011,-3.542211078338729,-10.222254923375091,-10.22225492431365,-3.441355374493757,-10.222254924466966,-3.6527407912149563,-3.6527407912149563,3.0561134889490114,-7.460209772615457,-3.542211078338729,-10.222254923669219,-3.441355374493757,3.0561134889490114,-10.222254923763021,-3.6527407912149563,-10.222254923636891,-3.441355374493757,3.0561134889490114,-3.441355374493757],"RefInputSum":[0.00003632336199630029,0.02813476689010851,0.00003635091163443761,0.000036350911600321436,0.03102770892694288,0.00003635091159474841,0.0252651184354973,0.0252651184354973,0.9550457306715715,0.0005752043767547069,0.02813476689010851,0.000036350911623746214,0.03102770892694288,0.9550457306715715,0.00003635091162033654,0.0252651184354973,0.000036350911624921326,0.03102770892694288,0.9550457306715715,0.03102770892694288],"OutputSum":[0,0,0,0,0,0,0,0,0,0,0,0,0,0,0,0,0,0,0,0],"Weights":null,"TrainRel":false,"LocalDeriv":0,"WeightsChange":null},{"Layer":4,"Node":9,"InputSum":[-6.83311593609053,-4.634833173039299,-6.832881872124446,-6.832881872156119,-5.41152278867757,-6.8328818721609395,-4.457172149592016,-4.457172149592016,-4.924459536566917,-4.302640712819735,-4.634833173039299,-6.832881872134824,-5.41152278867757,-4.924459536566917,-6.83288187213785,-4.457172149592016,-6.832881872133746,-5.41152278867757,-4.924459536566917,-5.41152278867757],"RefInputSum":[0.0010763357275219362,0.00961439252152753,0.001076587417159561,0.0010765874171254988,0.004444989879277074,0.0010765874171203148,0.011462200760361835,0.011462200760361835,0.007214229280901085,0.013352084843960834,0.00961439252152753,0.0010765874171484,0.004444989879277074,0.007214229280901085,0.0010765874171451456,0.011462200760361835,0.0010765874171495594,0.004444989879277074,0.007214229280901085,0.004444989879277074],"OutputSum":[0,0,0,0,0,0,0,0,0,0,0,0,0,0,0,0,0,0,0,0],"Weights":null,"TrainRel":false,"LocalDeriv":0,"WeightsChange":null},{"Layer":4,"Node":10,"InputSum":[-3.491525046961964,-2.6206264696321733,-3.49108101458752,-3.491081013735523,-6.467374195843885,-3.4910810135955765,-2.916362180190014,-2.916362180190014,-9.509339807197676,1.5610484820240254,-2.6206264696321733,-3.4910810143214976,-6.467374195843885,-9.509339807197676,-3.491081014236044,-2.916362180190014,-3.4910810143508755,-6.467374195843885,-9.509339807197676,-6.467374195843885],"RefInputSum":[0.029554333103468385,0.06782267571247808,0.02956707100092267,0.029567071025368905,0.0015508900457886544,0.029567071029384356,0.051350623763426806,0.051350623763426806,0.00007415048412316735,0.8265037518481698,0.06782267571247808,0.0295670710085556,0.0015508900457886544,0.00007415048412316735,0.029567071011007525,0.051350623763426806,0.029567071007712675,0.0015508900457886544,0.00007415048412316735,0.0015508900457886544],"OutputSum":[0,0,0,0,0,0,0,0,0,0,0,0,0,0,0,0,0,0,0,0],"Weights":null,"TrainRel":false,"LocalDeriv":0,"WeightsChange":null},{"Layer":4,"Node":11,"InputSum":[-4.986140105600076,-4.807352717174109,-4.985940572057213,-4.985940571921947,-4.857579049889358,-4.98594057189973,-5.124573002407359,-5.124573002407359,-5.637772122318025,-4.466424681003492,-4.807352717174109,-4.985940572014976,-4.857579049889358,-5.637772122318025,-4.98594057200141,-5.124573002407359,-4.985940572019641,-4.857579049889358,-5.637772122318025,-4.857579049889358],"RefInputSum":[0.006785625116894437,0.0081032587309084,0.006786970021602178,0.006786970022513992,0.007709373948155941,0.0067869700226637604,0.005913578478234438,0.005913578478234438,0.0035481583303474135,0.011357834506375467,0.0081032587309084,0.006786970021886895,0.007709373948155941,0.0035481583303474135,0.006786970021978343,0.005913578478234438,0.006786970021855451,0.007709373948155941,0.0035481583303474135,0.007709373948155941],"OutputSum":[0,0,0,0,0,0,0,0,0,0,0,0,0,0,0,0,0,0,0,0],"Weights":null,"TrainRel":false,"LocalDeriv":0,"WeightsChange":null},{"Layer":4,"Node":12,"InputSum":[-5.341262341463228,-4.59354704149589,-5.341068804215863,-5.341068803914777,-5.46068784086742,-5.341068803865293,-4.595026902684135,-4.595026902684135,-5.7587213826059545,-4.27248419903263,-4.59354704149589,-5.341068804121889,-5.46068784086742,-5.7587213826059545,-5.34106880409168,-4.595026902684135,-5.341068804132273,-5.46068784086742,-5.7587213826059545,-5.46068784086742],"RefInputSum":[0.0047669874889496415,0.010015582811613383,0.00476790576862382,0.004767905770052522,0.004232639592359089,0.004767905770287332,0.010000920221669648,0.010000920221669648,0.0031452196230234795,0.013755247022240076,0.010015582811613383,0.004767905769069742,0.004232639592359089,0.0031452196230234795,0.0047679057692130876,0.010000920221669648,0.00476790576902047,0.004232639592359089,0.0031452196230234795,0.004232639592359089],"OutputSum":[0,0,0,0,0,0,0,0,0,0,0,0,0,0,0,0,0,0,0,0],"Weights":null,"TrainRel":false,"LocalDeriv":0,"WeightsChange":null}]]end