[[{"Layer":0,"Node":0,"InputSum":0,"RefInputSum":0.5,"OutputSum":-0.19632939818039005,"Weights":[0.19562859721347184,-0.7368461327793171,-0.18012341778947602,-0.16766732175167523,0.27572013618518476,-0.39264858499226224],"TrainRel":false,"LocalDeriv":0},{"Layer":0,"Node":1,"InputSum":0,"RefInputSum":0.5,"OutputSum":0.09067852734981353,"Weights":[-0.09359260994543228,0.6700294244849309,-0.7616693191696084,-0.3046424878259781,0.2005070002854257,0.18136726606814493],"TrainRel":false,"LocalDeriv":0},{"Layer":0,"Node":2,"InputSum":0,"RefInputSum":0.5,"OutputSum":0.2252764467475799,"Weights":[-0.17284303653892322,-0.6007370307525198,0.1031773498156127,0.5476991690780517,-0.14265243747291198,0.4505631048636777],"TrainRel":false,"LocalDeriv":0},{"Layer":0,"Node":3,"InputSum":0,"RefInputSum":0.5,"OutputSum":-0.1362443386842529,"Weights":[0.5986428296177587,-0.17236677095207797,-0.21630260298406664,0.1506612667752586,0.32076283095566727,-0.27247846599998793],"TrainRel":false,"LocalDeriv":0},{"Layer":0,"Node":4,"InputSum":0,"RefInputSum":0.5,"OutputSum":-0.11606388011146034,"Weights":[0.5885773646169234,-0.08653750843405643,-0.4640548544078697,0.02685463702895826,0.4722373636621428,-0.2321175488544028],"TrainRel":false,"LocalDeriv":0},{"Layer":0,"Node":5,"InputSum":0,"RefInputSum":0.5,"OutputSum":0.2630382216013831,"Weights":[-0.0023844865388989453,-0.3161975256545449,0.09235736117299508,0.33196470585038207,0.26796181708720007,0.5260764432027663],"TrainRel":false,"LocalDeriv":0}],[{"Layer":1,"Node":0,"InputSum":0.5570086970765677,"RefInputSum":0.6357601283984481,"OutputSum":-0.12018151888005366,"Weights":[-0.1405257139418147,0.2915111588004524,-0.2441859198862164,-0.11031859008409907,0.2223958103158909,-0.18901721661288512],"TrainRel":false,"LocalDeriv":0},{"Layer":1,"Node":1,"InputSum":-0.621328574383841,"RefInputSum":0.34947934826185145,"OutputSum":0.27806603378499656,"Weights":[0.5181395307444185,-0.664883943813041,0.00918273003657321,0.6889231543453953,-0.04644508192096561,0.7956682812471205],"TrainRel":false,"LocalDeriv":0},{"Layer":1,"Node":2,"InputSum":-0.7133333930576515,"RefInputSum":0.32886270099748877,"OutputSum":0.16626359433937793,"Weights":[-0.09602244848535386,0.5235651024566963,0.14712732629806966,0.5525471513098252,0.19361746556431805,0.5055811448317219],"TrainRel":false,"LocalDeriv":0},{"Layer":1,"Node":3,"InputSum":0.29245102724322053,"RefInputSum":0.5725960788124426,"OutputSum":-0.32804273270229256,"Weights":[0.3211364613954987,-0.5230335976027528,0.13531932642320987,0.3731264987074941,0.5080197788129638,-0.5728873889883461],"TrainRel":false,"LocalDeriv":0},{"Layer":1,"Node":4,"InputSum":0.6972602087003851,"RefInputSum":0.6675800455069834,"OutputSum":-0.026667085137571534,"Weights":[-0.5835108811358706,0.07006321554931032,-0.6646513732077345,0.05275273296946811,-0.11016179493350059,-0.03992622969308179],"TrainRel":false,"LocalDeriv":0},{"Layer":1,"Node":5,"InputSum":0.13035557872267328,"RefInputSum":0.532542825520869,"OutputSum":0.3840745447009044,"Weights":[-0.336085151952742,0.6218753601833792,0.17936463248597628,0.3357629321033223,0.510820840149114,0.7212244391738692],"TrainRel":true,"LocalDeriv":0.12447048225355917}],[{"Layer":2,"Node":0,"InputSum":-0.3244624324783446,"RefInputSum":0.41958860549030835,"OutputSum":-0.0007194272667188672,"Weights":[-0.24098848165180406,0.02059033790922185,-0.05551104949760331,-0.6039224000511295,0.13054162657174423,-0.0016078585888712443],"TrainRel":true,"LocalDeriv":-0.010187680439793968},{"Layer":2,"Node":1,"InputSum":0.20348587777936347,"RefInputSum":0.5506966591022909,"OutputSum":0.2333432282059418,"Weights":[-0.04975960658312269,0.35640717779342657,0.855485690753792,-0.2821281092397839,0.09464293346256113,0.4238638007662339],"TrainRel":true,"LocalDeriv":0.01915233861505859},{"Layer":2,"Node":2,"InputSum":-0.3743235427571753,"RefInputSum":0.4074967157827122,"OutputSum":-0.23412673512364512,"Weights":[0.2683725294551248,-0.4999149820243094,0.6358848694386154,-0.20238468982548677,0.1502681633349623,-0.5744450990276668],"TrainRel":true,"LocalDeriv":0.0053903635766356685},{"Layer":2,"Node":3,"InputSum":0.7799357140499431,"RefInputSum":0.6856662586787909,"OutputSum":0.5045026634991242,"Weights":[0.545978952318878,-0.004344201149267383,-0.4938358224332725,0.5848606511268739,-0.01677837299177711,0.7359590177160552],"TrainRel":true,"LocalDeriv":0.009007471594623319},{"Layer":2,"Node":4,"InputSum":0.678216624270414,"RefInputSum":0.6633405502626387,"OutputSum":0.22073568279130362,"Weights":[-0.29458993307509096,0.5604882873199276,-0.7967761666541283,-0.7382208677542634,-0.10046890959063899,0.3329324938014554],"TrainRel":true,"LocalDeriv":0.014199149609772052},{"Layer":2,"Node":5,"InputSum":0.3535128361053611,"RefInputSum":0.5874691725290496,"OutputSum":0.011153649942161106,"Weights":[-0.022078537324206067,0.1657611240013064,0.026917765466780836,0.33162039252497943,0.6129631237163443,0.019135383910346956],"TrainRel":true,"LocalDeriv":0.021755962256077423}],[{"Layer":3,"Node":0,"InputSum":0.1464671403779603,"RefInputSum":0.536551464712449,"OutputSum":-0.05150932885606263,"Weights":[0.2626399173413018,0.15566517360624083,0.006640570659555079,0.22179937074855058,0.31092404182328803,-0.09586269609228068],"TrainRel":true,"LocalDeriv":0.0007965577589638182},{"Layer":3,"Node":1,"InputSum":0.4670483458611994,"RefInputSum":0.6146849019383334,"OutputSum":0.24065456600872734,"Weights":[-0.525464753293243,-0.6683123364429449,-0.2879132449700461,0.7082004643485592,0.8361177287542576,0.39166695602278506],"TrainRel":true,"LocalDeriv":0.0036586190799393456},{"Layer":3,"Node":2,"InputSum":-0.14465985725624336,"RefInputSum":0.4638979710873075,"OutputSum":-0.23354760077942358,"Weights":[0.4037428250909183,0.499951086394948,-0.13193115160891014,0.08490292454040671,0.04870583076933368,-0.5033267117710539],"TrainRel":true,"LocalDeriv":0.001293619678146343},{"Layer":3,"Node":3,"InputSum":-0.38511470404331616,"RefInputSum":0.40489388733943127,"OutputSum":0.05261584917166192,"Weights":[-0.13761631615770098,-0.2514979289186826,0.20204222432968516,0.06986645791780034,0.27721442832789006,0.1300538833250469],"TrainRel":true,"LocalDeriv":0.00039973349974429867},{"Layer":3,"Node":4,"InputSum":0.44981726054872084,"RefInputSum":0.6105957851290171,"OutputSum":0.08819466613220812,"Weights":[0.3622599343888559,0.19932204479365495,-0.5387506438643895,0.35165679786859827,-0.4620338085551228,0.14459742079588594],"TrainRel":true,"LocalDeriv":0.0031030263234958166},{"Layer":3,"Node":5,"InputSum":0.7348890620481667,"RefInputSum":0.6758772253334804,"OutputSum":0.371302760814334,"Weights":[0.07705744724586126,-0.3925427295891831,-0.18601437062478343,0.29691170887834234,0.8336249658352505,0.5495380831898916],"TrainRel":true,"LocalDeriv":0.003682671335984744}],[{"Layer":4,"Node":0,"InputSum":0.22069109329196285,"RefInputSum":0.5549499281531041,"OutputSum":-0.4778775509310435,"Weights":[-0.028806076311463123,-0.5028569433432655,-0.24742909983007527,-0.8765980909271415,-0.9647325297440541,-0.8627696073217381],"TrainRel":true,"LocalDeriv":0.00003998408599658353},{"Layer":4,"Node":1,"InputSum":-0.34117978147084116,"RefInputSum":0.4155229225357103,"OutputSum":-0.14504782295484708,"Weights":[0.3570376942731921,-0.38958749438724105,-0.031830639373264455,-0.30691859720485304,-0.17665160809573413,-0.3503093877589351],"TrainRel":true,"LocalDeriv":-0.0006319296554092995},{"Layer":4,"Node":2,"InputSum":-0.6068186505407482,"RefInputSum":0.35278524784396736,"OutputSum":0.1285530901109443,"Weights":[0.488827561592748,-0.1566290390822208,0.02180605263308165,-0.2894200086721814,0.32239474721110656,0.3633450113812208],"TrainRel":true,"LocalDeriv":-0.0007979527936654005},{"Layer":4,"Node":3,"InputSum":1.0358708363672684,"RefInputSum":0.7380524957637759,"OutputSum":-0.05293107817387909,"Weights":[-0.3029133528402241,0.7769699693514969,-0.23410515143932625,-0.3747353224907949,-0.42732950707664846,-0.07391334421873079],"TrainRel":true,"LocalDeriv":0.0009840742357523234},{"Layer":4,"Node":4,"InputSum":1.0953338455171386,"RefInputSum":0.7493847882260205,"OutputSum":-0.3707271009375694,"Weights":[-0.3403895762509948,0.25030790391490326,-0.4405920889957447,-0.26181030376079156,-0.4302257626014631,-0.4969384393712729],"TrainRel":true,"LocalDeriv":0.0009609697007247292},{"Layer":4,"Node":5,"InputSum":0.46771091249144514,"RefInputSum":0.6148418171751591,"OutputSum":0.22913088055332764,"Weights":[-0.12549509452223792,0.7399819453479843,0.1645035117441602,-0.583350319342927,-0.05224017392443651,0.37083689314532625],"TrainRel":true,"LocalDeriv":0.0007648844211291019}],[{"Layer":5,"Node":0,"InputSum":-0.25227598151611197,"RefInputSum":0.4372633819968051,"OutputSum":0,"Weights":null,"TrainRel":true,"LocalDeriv":-0.0003292383030801211},{"Layer":5,"Node":1,"InputSum":0.7137301483886761,"RefInputSum":0.6712248617283818,"OutputSum":0,"Weights":null,"TrainRel":true,"LocalDeriv":0.0004241957578801504},{"Layer":5,"Node":2,"InputSum":-0.5374810593518438,"RefInputSum":0.36877374637047494,"OutputSum":0,"Weights":null,"TrainRel":true,"LocalDeriv":-0.0001245662268247008},{"Layer":5,"Node":3,"InputSum":-1.5454142301213951,"RefInputSum":0.17574958296310425,"OutputSum":0,"Weights":null,"TrainRel":true,"LocalDeriv":-0.00009802937091112373},{"Layer":5,"Node":4,"InputSum":-1.161342393006536,"RefInputSum":0.23842345092744144,"OutputSum":0,"Weights":null,"TrainRel":true,"LocalDeriv":-0.00019212990204867014},{"Layer":5,"Node":5,"InputSum":-0.6888995823330673,"RefInputSum":0.33427791132820694,"OutputSum":0,"Weights":null,"TrainRel":true,"LocalDeriv":-0.00008226939695914354}]]end