[[{"Layer":0,"Node":0,"InputSum":[0,0,0,0,0,0,0,0,0,0,0,0,0,0,0,0,0,0,0,0,0,0,0,0,0,0,0,0,0,0,0,0,0,0,0,0,0,0,0,0,0,0,0,0,0,0,0,0,0,0],"RefInputSum":[1.2597402597402598,1.2597402597402598,1.2597402597402598,1.2597402597402598,1.2597402597402598,1.2597402597402598,1.2597402597402598,1.2597402597402598,1.2597402597402598,1.2597402597402598,1.2597402597402598,1.2597402597402598,1.2597402597402598,1.2597402597402598,1.2597402597402598,1.2597402597402598,1.2597402597402598,1.2597402597402598,1.2597402597402598,1.2597402597402598,1.2597402597402598,1.2597402597402598,1.2597402597402598,1.2597402597402598,1.2597402597402598,1.2597402597402598,1.2597402597402598,1.2597402597402598,1.2597402597402598,1.2597402597402598,1.2597402597402598,1.2597402597402598,1.2597402597402598,1.2597402597402598,1.2597402597402598,1.2597402597402598,1.2597402597402598,1.2597402597402598,1.2597402597402598,1.2597402597402598,1.2597402597402598,1.2597402597402598,1.2597402597402598,1.2597402597402598,1.2597402597402598,1.2597402597402598,1.2597402597402598,1.2597402597402598,1.2597402597402598,1.2597402597402598],"OutputSum":[-0.7799973354321222,-0.7799973354321222,-0.7799973354321222,-0.7799973354321222,-0.7799973354321222,-0.7799973354321222,-0.7799973354321222,-0.7799973354321222,-0.7799973354321222,-0.7799973354321222,-0.7799973354321222,-0.7799973354321222,-0.7799973354321222,-0.7799973354321222,-0.7799973354321222,-0.7799973354321222,-0.7799973354321222,-0.7799973354321222,-0.7799973354321222,-0.7799973354321222,-0.7799973354321222,-0.7799973354321222,-0.7799973354321222,-0.7799973354321222,-0.7799973354321222,-0.7799973354321222,-0.7799973354321222,-0.7799973354321222,-0.7799973354321222,-0.7799973354321222,-0.7799973354321222,-0.7799973354321222,-0.7799973354321222,-0.7799973354321222,-0.7799973354321222,-0.7799973354321222,-0.7799973354321222,-0.7799973354321222,-0.7799973354321222,-0.7799973354321222,-0.7799973354321222,-0.7799973354321222,-0.7799973354321222,-0.7799973354321222,-0.7799973354321222,-0.7799973354321222,-0.7799973354321222,-0.7799973354321222,-0.7799973354321222,-0.7799973354321222],"Weights":[-0.15022939811859223,0.5879804817179485,0.7863509136555201,-0.4732745361769117,-0.1947037193832827,-0.7641879808234813,0.12917831353787318,0.5682814237857775,-0.4959572971558235,0.09807652259181389,0.20457462231126616,-0.6191731425595197],"TrainRel":false,"LocalDeriv":0,"WeightsChange":[-0.00023452977251513073,0,0,0,0,0,0,0,0,0,0,0]},{"Layer":0,"Node":1,"InputSum":[0,0,0,0,0,0,0,0,0,0,0,0,0,0,0,0,0,0,0,0,0,0,0,0,0,0,0,0,0,0,0,0,0,0,0,0,0,0,0,0,0,0,0,0,0,0,0,0,0,0],"RefInputSum":[1.2597402597402598,1.2597402597402598,1.2597402597402598,1.2727272727272727,1.2727272727272727,1.2727272727272727,1.2727272727272727,1.2727272727272727,1.2727272727272727,1.2727272727272727,1.2727272727272727,1.2727272727272727,1.2727272727272727,1.2727272727272727,1.2727272727272727,1.2727272727272727,1.2727272727272727,1.2727272727272727,1.2727272727272727,1.2727272727272727,1.2727272727272727,1.2727272727272727,1.2727272727272727,1.2727272727272727,1.2727272727272727,1.2727272727272727,1.2727272727272727,1.2727272727272727,1.2727272727272727,1.2727272727272727,1.2727272727272727,1.2727272727272727,1.2727272727272727,1.2727272727272727,1.2727272727272727,1.2727272727272727,1.2727272727272727,1.2727272727272727,1.2727272727272727,1.2727272727272727,1.2727272727272727,1.2727272727272727,1.2727272727272727,1.2727272727272727,1.2727272727272727,1.2727272727272727,1.2727272727272727,1.2727272727272727,1.2727272727272727,1.2727272727272727],"OutputSum":[-1.2516763138812952,-1.2516763138812952,-1.2516763138812952,-1.2645801934058445,-1.2645801934058445,-1.2645801934058445,-1.2645801934058445,-1.2645801934058445,-1.2645801934058445,-1.2645801934058445,-1.2645801934058445,-1.2645801934058445,-1.2645801934058445,-1.2645801934058445,-1.2645801934058445,-1.2645801934058445,-1.2645801934058445,-1.2645801934058445,-1.2645801934058445,-1.2645801934058445,-1.2645801934058445,-1.2645801934058445,-1.2645801934058445,-1.2645801934058445,-1.2645801934058445,-1.2645801934058445,-1.2645801934058445,-1.2645801934058445,-1.2645801934058445,-1.2645801934058445,-1.2645801934058445,-1.2645801934058445,-1.2645801934058445,-1.2645801934058445,-1.2645801934058445,-1.2645801934058445,-1.2645801934058445,-1.2645801934058445,-1.2645801934058445,-1.2645801934058445,-1.2645801934058445,-1.2645801934058445,-1.2645801934058445,-1.2645801934058445,-1.2645801934058445,-1.2645801934058445,-1.2645801934058445,-1.2645801934058445,-1.2645801934058445,-1.2645801934058445],"Weights":[-0.1919339400630039,0.13113275845168484,-0.30394352722263696,0.3101267352670725,0.3692079607278496,0.1798617427488957,-0.21145652035369963,-0.6776010771958201,0.15400166345252353,-0.7785268575358127,0.32545554381377106,-0.9935987233903064],"TrainRel":false,"LocalDeriv":0,"WeightsChange":[-0.00023673382553656108,0,0,0,0,0,0,0,0,0,0,0]},{"Layer":0,"Node":2,"InputSum":[0,0,0,0,0,0,0,0,0,0,0,0,0,0,0,0,0,0,0,0,0,0,0,0,0,0,0,0,0,0,0,0,0,0,0,0,0,0,0,0,0,0,0,0,0,0,0,0,0,0],"RefInputSum":[1.4805194805194806,1.4805194805194806,1.4805194805194806,1.2597402597402598,1.2597402597402598,1.2597402597402598,1.2597402597402598,1.2597402597402598,1.2597402597402598,1.2597402597402598,1.2597402597402598,1.2597402597402598,1.2597402597402598,1.2597402597402598,1.2597402597402598,1.2597402597402598,1.2597402597402598,1.2597402597402598,1.2597402597402598,1.2597402597402598,1.2597402597402598,1.2597402597402598,1.2727272727272727,1.2727272727272727,1.2727272727272727,1.2727272727272727,1.2727272727272727,1.2727272727272727,1.2727272727272727,1.2727272727272727,1.2727272727272727,1.2727272727272727,1.2727272727272727,1.2727272727272727,1.2987012987012987,1.2987012987012987,1.2987012987012987,1.2987012987012987,1.2987012987012987,1.2987012987012987,1.2987012987012987,1.2987012987012987,1.2987012987012987,1.2987012987012987,1.2987012987012987,1.2987012987012987,1.2987012987012987,1.2987012987012987,1.2987012987012987,1.2987012987012987],"OutputSum":[-0.22755153708622147,-0.22755153708622147,-0.22755153708622147,-0.1936184131347674,-0.1936184131347674,-0.1936184131347674,-0.1936184131347674,-0.1936184131347674,-0.1936184131347674,-0.1936184131347674,-0.1936184131347674,-0.1936184131347674,-0.1936184131347674,-0.1936184131347674,-0.1936184131347674,-0.1936184131347674,-0.1936184131347674,-0.1936184131347674,-0.1936184131347674,-0.1936184131347674,-0.1936184131347674,-0.1936184131347674,-0.1956144792495588,-0.1956144792495588,-0.1956144792495588,-0.1956144792495588,-0.1956144792495588,-0.1956144792495588,-0.1956144792495588,-0.1956144792495588,-0.1956144792495588,-0.1956144792495588,-0.1956144792495588,-0.1956144792495588,-0.19960661147914163,-0.19960661147914163,-0.19960661147914163,-0.19960661147914163,-0.19960661147914163,-0.19960661147914163,-0.19960661147914163,-0.19960661147914163,-0.19960661147914163,-0.19960661147914163,-0.19960661147914163,-0.19960661147914163,-0.19960661147914163,-0.19960661147914163,-0.19960661147914163,-0.19960661147914163],"Weights":[-0.37518706831802223,0.32905685813672114,-0.038134266263586965,-0.9343284308907943,-0.5450725725258393,-0.5429863331106032,0.42317285941657434,0.25541777175761043,-0.49926897378173996,-0.7508444054684362,0.11808141286870004,-0.15369709083893907],"TrainRel":false,"LocalDeriv":0,"WeightsChange":[-0.0001961366818696266,0,0,0,0,0,0,0,0,0,0,0]},{"Layer":0,"Node":3,"InputSum":[0,0,0,0,0,0,0,0,0,0,0,0,0,0,0,0,0,0,0,0,0,0,0,0,0,0,0,0,0,0,0,0,0,0,0,0,0,0,0,0,0,0,0,0,0,0,0,0,0,0],"RefInputSum":[1.2987012987012987,1.2987012987012987,1.4415584415584415,1.2857142857142858,1.2857142857142858,1.3246753246753247,1.4025974025974026,1.4285714285714286,1.4285714285714286,1.4285714285714286,1.4285714285714286,1.4935064935064934,1.4935064935064934,1.4935064935064934,1.4935064935064934,1.4935064935064934,1.5064935064935066,1.5064935064935066,1.5064935064935066,1.5064935064935066,1.5064935064935066,1.5064935064935066,1.3116883116883118,1.3116883116883118,1.3116883116883118,1.3116883116883118,1.4415584415584415,1.4415584415584415,1.4805194805194806,1.4805194805194806,1.4805194805194806,1.4805194805194806,1.4805194805194806,1.4805194805194806,1.3636363636363635,1.3636363636363635,1.3636363636363635,1.3636363636363635,1.3636363636363635,1.4415584415584415,1.4415584415584415,1.4415584415584415,1.5194805194805194,1.5194805194805194,1.5194805194805194,1.5194805194805194,1.5194805194805194,1.5194805194805194,1.5194805194805194,1.5194805194805194],"OutputSum":[-0.12766010895789984,-0.12766010895789984,-0.14170272094326883,-0.12638350786832087,-0.12638350786832087,-0.13021331113705784,-0.13787291767453183,-0.14042611985368983,-0.14042611985368983,-0.14042611985368983,-0.14042611985368983,-0.14680912530158483,-0.14680912530158483,-0.14680912530158483,-0.14680912530158483,-0.14680912530158483,-0.14808572639116382,-0.14808572639116382,-0.14808572639116382,-0.14808572639116382,-0.14808572639116382,-0.14808572639116382,-0.12893671004747886,-0.12893671004747886,-0.12893671004747886,-0.12893671004747886,-0.14170272094326883,-0.14170272094326883,-0.14553252421200583,-0.14553252421200583,-0.14553252421200583,-0.14553252421200583,-0.14553252421200583,-0.14553252421200583,-0.13404311440579483,-0.13404311440579483,-0.13404311440579483,-0.13404311440579483,-0.13404311440579483,-0.14170272094326883,-0.14170272094326883,-0.14170272094326883,-0.14936232748074282,-0.14936232748074282,-0.14936232748074282,-0.14936232748074282,-0.14936232748074282,-0.14936232748074282,-0.14936232748074282,-0.14936232748074282],"Weights":[-0.047032759746562014,0.5777038533854981,0.43680455171782195,0.023978935394717456,-0.43077341971258304,0.03148184656605467,0.7229185479150851,-0.35515672620871946,0.001641172828701589,0.7999144704708585,0.3634673854936145,-0.09829828389758288],"TrainRel":false,"LocalDeriv":0,"WeightsChange":[0.000511112268470245,0,0,0,0,0,0,0,0,0,0,0]},{"Layer":0,"Node":4,"InputSum":[0,0,0,0,0,0,0,0,0,0,0,0,0,0,0,0,0,0,0,0,0,0,0,0,0,0,0,0,0,0,0,0,0,0,0,0,0,0,0,0,0,0,0,0,0,0,0,0,0,0],"RefInputSum":[1.5324675324675325,1.5454545454545454,1.4285714285714286,1.3896103896103895,1.5194805194805194,1.5064935064935066,1.4415584415584415,1.2987012987012987,1.2987012987012987,1.2987012987012987,1.2987012987012987,1.3116883116883118,1.3116883116883118,1.3116883116883118,1.3506493506493507,1.3506493506493507,1.3116883116883118,1.3116883116883118,1.3116883116883118,1.3116883116883118,1.5064935064935066,1.5064935064935066,-2,1.4935064935064934,1.5714285714285714,1.5714285714285714,1.5064935064935066,1.5064935064935066,1.3116883116883118,1.3116883116883118,1.3116883116883118,1.3116883116883118,1.3116883116883118,1.3116883116883118,1.2857142857142858,1.2857142857142858,1.2857142857142858,1.2857142857142858,1.2857142857142858,1.4155844155844155,1.4155844155844155,1.4155844155844155,1.2857142857142858,1.2857142857142858,1.2857142857142858,1.2857142857142858,1.2857142857142858,1.2857142857142858,1.2857142857142858,1.2857142857142858],"OutputSum":[-1.5192837358983868,-1.5321590217958307,-1.416281448718835,-1.3776555910265031,-1.5064084500009427,-1.493533164103499,-1.429156734616279,-1.2875285897443955,-1.2875285897443955,-1.2875285897443955,-1.2875285897443955,-1.3004038756418397,-1.3004038756418397,-1.3004038756418397,-1.3390297333341714,-1.3390297333341714,-1.3004038756418397,-1.3004038756418397,-1.3004038756418397,-1.3004038756418397,-1.493533164103499,-1.493533164103499,1.9827940282063692,-1.4806578782060549,-1.5579095935907186,-1.5579095935907186,-1.493533164103499,-1.493533164103499,-1.3004038756418397,-1.3004038756418397,-1.3004038756418397,-1.3004038756418397,-1.3004038756418397,-1.3004038756418397,-1.2746533038469516,-1.2746533038469516,-1.2746533038469516,-1.2746533038469516,-1.2746533038469516,-1.4034061628213912,-1.4034061628213912,-1.4034061628213912,-1.2746533038469516,-1.2746533038469516,-1.2746533038469516,-1.2746533038469516,-1.2746533038469516,-1.2746533038469516,-1.2746533038469516,-1.2746533038469516],"Weights":[0.3678893347236641,-1.0983886205994269,1.0413562832275949,0.6821150881613326,-0.3970010771466611,1.0860800656570968,-1.1031267329273589,0.13001619427574612,1.0644406922506242,-0.27677059405097704,-0.06153251696288531,-0.9913970141031846],"TrainRel":false,"LocalDeriv":0,"WeightsChange":[-0.0019966723550052887,0,0,0,0,0,0,0,0,0,0,0]},{"Layer":0,"Node":5,"InputSum":[0,0,0,0,0,0,0,0,0,0,0,0,0,0,0,0,0,0,0,0,0,0,0,0,0,0,0,0,0,0,0,0,0,0,0,0,0,0,0,0,0,0,0,0,0,0,0,0,0,0],"RefInputSum":[1.2597402597402598,1.4415584415584415,-2,-2,1.4935064935064934,-2,1.4285714285714286,1.4415584415584415,1.4415584415584415,1.4415584415584415,1.4415584415584415,-2,1.2987012987012987,1.4155844155844155,-2,1.3116883116883118,-2,1.2987012987012987,1.4155844155844155,1.4935064935064934,1.4415584415584415,1.4415584415584415,-2,1.4935064935064934,-2,1.4935064935064934,-2,1.4935064935064934,1.5324675324675325,1.5324675324675325,1.5324675324675325,1.5324675324675325,1.5324675324675325,1.5324675324675325,1.2597402597402598,1.2597402597402598,1.2597402597402598,1.2597402597402598,1.2597402597402598,1.3116883116883118,1.3116883116883118,1.3636363636363635,1.5064935064935066,1.5064935064935066,1.5064935064935066,1.5064935064935066,1.5064935064935066,1.5064935064935066,1.5064935064935066,1.5064935064935066],"OutputSum":[0.9451568737259107,1.0815712678719183,-1.500558335606085,-1.500558335606085,1.120546809056492,-1.500558335606085,1.071827382575775,1.0815712678719183,1.0815712678719183,1.0815712678719183,1.0815712678719183,-1.500558335606085,0.9743885296143409,1.0620834972796316,-1.500558335606085,0.9841324149104844,-1.500558335606085,0.9743885296143409,1.0620834972796316,1.120546809056492,1.0815712678719183,1.0815712678719183,-1.500558335606085,1.120546809056492,-1.500558335606085,1.120546809056492,-1.500558335606085,1.120546809056492,1.1497784649449223,1.1497784649449223,1.1497784649449223,1.1497784649449223,1.1497784649449223,1.1497784649449223,0.9451568737259107,0.9451568737259107,0.9451568737259107,0.9451568737259107,0.9451568737259107,0.9841324149104844,0.9841324149104844,1.0231079560950578,1.1302906943526354,1.1302906943526354,1.1302906943526354,1.1302906943526354,1.1302906943526354,1.1302906943526354,1.1302906943526354,1.1302906943526354],"Weights":[1.176548681940064,0.1137332823046463,-1.6229114288019995,0.675085384209053,-1.8424282427842447,-0.7466062074790996,0.5415938905822351,0.03641861333046667,-0.40240781667473996,0.19640865170382293,-0.46439420411786775,0.7502791678030425],"TrainRel":false,"LocalDeriv":0,"WeightsChange":[-0.003161733333560414,0,0,0,0,0,0,0,0,0,0,0]},{"Layer":0,"Node":6,"InputSum":[0,0,0,0,0,0,0,0,0,0,0,0,0,0,0,0,0,0,0,0,0,0,0,0,0,0,0,0,0,0,0,0,0,0,0,0,0,0,0,0,0,0,0,0,0,0,0,0,0,0],"RefInputSum":[1.4805194805194806,1.4025974025974026,-2,-2,-2,-2,1.3116883116883118,1.4285714285714286,1.4285714285714286,1.4285714285714286,1.4285714285714286,-2,-2,1.3116883116883118,-2,1.2987012987012987,-2,-2,1.3116883116883118,-2,1.3636363636363635,1.3636363636363635,-2,-2,-2,-2,-2,-2,1.3636363636363635,1.3636363636363635,1.3636363636363635,1.3636363636363635,1.3636363636363635,1.3636363636363635,1.5064935064935066,1.5064935064935066,1.5064935064935066,1.5064935064935066,1.5064935064935066,1.4285714285714286,1.4285714285714286,1.4285714285714286,-2,1.3116883116883118,1.3636363636363635,1.3636363636363635,1.3636363636363635,1.4415584415584415,1.4415584415584415,1.4935064935064934],"OutputSum":[-3.0177974924921784,-2.858966045518906,4.076673805647329,4.076673805647329,4.076673805647329,4.076673805647329,-2.6736626907167547,-2.9119098611766634,-2.9119098611766634,-2.9119098611766634,-2.9119098611766634,4.076673805647329,4.076673805647329,-2.6736626907167547,4.076673805647329,-2.647190782887876,4.076673805647329,4.076673805647329,-2.6736626907167547,4.076673805647329,-2.7795503220322693,-2.7795503220322693,4.076673805647329,4.076673805647329,4.076673805647329,4.076673805647329,4.076673805647329,4.076673805647329,-2.7795503220322693,-2.7795503220322693,-2.7795503220322693,-2.7795503220322693,-2.7795503220322693,-2.7795503220322693,-3.070741308149936,-3.070741308149936,-3.070741308149936,-3.070741308149936,-3.070741308149936,-2.9119098611766634,-2.9119098611766634,-2.9119098611766634,4.076673805647329,-2.6736626907167547,-2.7795503220322693,-2.7795503220322693,-2.7795503220322693,-2.938381769005542,-2.938381769005542,-3.044269400321057],"Weights":[0.4852836212713186,0.5597256680062372,0.2363963343056813,1.0813360742852651,1.3460802231986757,-0.5181118163981726,-0.3716368943774341,-0.03697846086661673,-0.9579838124491888,-0.13962326518789459,-0.7796396592223848,-2.0383369028236644],"TrainRel":false,"LocalDeriv":0,"WeightsChange":[0.0013846882603858112,0,0,0,0,0,0,0,0,0,0,0]},{"Layer":0,"Node":7,"InputSum":[0,0,0,0,0,0,0,0,0,0,0,0,0,0,0,0,0,0,0,0,0,0,0,0,0,0,0,0,0,0,0,0,0,0,0,0,0,0,0,0,0,0,0,0,0,0,0,0,0,0],"RefInputSum":[1.3896103896103895,1.3246753246753247,-2,-2,-2,-2,-2,-2,1.3116883116883118,1.4155844155844155,1.4935064935064934,-2,-2,1.4285714285714286,-2,-2,-2,-2,1.4285714285714286,-2,1.4805194805194806,1.4805194805194806,-2,-2,-2,-2,-2,-2,1.2597402597402598,1.2597402597402598,1.2597402597402598,1.2597402597402598,1.2597402597402598,1.2597402597402598,1.3116883116883118,1.3116883116883118,1.3116883116883118,1.3636363636363635,1.3636363636363635,-2,1.4935064935064934,1.2597402597402598,-2,1.2987012987012987,1.4285714285714286,1.4415584415584415,1.4415584415584415,1.4805194805194806,1.4805194805194806,-2],"OutputSum":[-0.08514319219098622,-0.08116453835028593,0.12254253829356897,0.12254253829356897,0.12254253829356897,0.12254253829356897,0.12254253829356897,0.12254253829356897,-0.08036880758214589,-0.08673465372726634,-0.0915090383361067,0.12254253829356897,0.12254253829356897,-0.08753038449540641,0.12254253829356897,0.12254253829356897,0.12254253829356897,0.12254253829356897,-0.08753038449540641,0.12254253829356897,-0.09071330756796664,-0.09071330756796664,0.12254253829356897,0.12254253829356897,0.12254253829356897,0.12254253829356897,0.12254253829356897,0.12254253829356897,-0.07718588450958565,-0.07718588450958565,-0.07718588450958565,-0.07718588450958565,-0.07718588450958565,-0.07718588450958565,-0.08036880758214589,-0.08036880758214589,-0.08036880758214589,-0.08355173065470611,-0.08355173065470611,0.12254253829356897,-0.0915090383361067,-0.07718588450958565,0.12254253829356897,-0.07957307681400583,-0.08753038449540641,-0.08832611526354646,-0.08832611526354646,-0.09071330756796664,-0.09071330756796664,0.12254253829356897],"Weights":[0.15100364227723106,1.0496848292820042,-0.43778748842998383,-0.560521655420039,-1.3874673397794164,-0.02026846081424102,1.6919095666883905,0.13217598133087194,-0.5229297056649417,0.09788573619722964,-0.28333931709279575,-0.061271269146784484],"TrainRel":false,"LocalDeriv":0,"WeightsChange":[0.003743751064617446,0,0,0,0,0,0,0,0,0,0,0]},{"Layer":0,"Node":8,"InputSum":[0,0,0,0,0,0,0,0,0,0,0,0,0,0,0,0,0,0,0,0,0,0,0,0,0,0,0,0,0,0,0,0,0,0,0,0,0,0,0,0,0,0,0,0,0,0,0,0,0,0],"RefInputSum":[-2,-2,-2,-2,-2,-2,-2,-2,1.2987012987012987,1.3116883116883118,-2,-2,-2,1.5064935064935066,-2,-2,-2,-2,1.5064935064935066,-2,-2,1.4935064935064934,-2,-2,-2,-2,-2,-2,1.5064935064935066,1.5064935064935066,1.5064935064935066,1.5064935064935066,1.5064935064935066,1.5064935064935066,-2,1.2987012987012987,1.4935064935064934,1.4285714285714286,1.4415584415584415,-2,-2,1.4025974025974026,-2,-2,1.3376623376623376,1.4285714285714286,1.4285714285714286,-2,1.4935064935064934,-2],"OutputSum":[0.5034030988155468,0.5034030988155468,0.5034030988155468,0.5034030988155468,0.5034030988155468,0.5034030988155468,0.5034030988155468,0.5034030988155468,-0.3268851291010044,-0.3301539803920145,0.5034030988155468,0.5034030988155468,0.5034030988155468,-0.37918674975716515,0.5034030988155468,0.5034030988155468,0.5034030988155468,0.5034030988155468,-0.37918674975716515,0.5034030988155468,0.5034030988155468,-0.37591789846615503,0.5034030988155468,0.5034030988155468,0.5034030988155468,0.5034030988155468,0.5034030988155468,0.5034030988155468,-0.37918674975716515,-0.37918674975716515,-0.37918674975716515,-0.37918674975716515,-0.37918674975716515,-0.37918674975716515,0.5034030988155468,-0.3268851291010044,-0.37591789846615503,-0.35957364201110487,-0.3628424933021149,0.5034030988155468,0.5034030988155468,-0.3530359394290848,0.5034030988155468,0.5034030988155468,-0.3366916829740345,-0.35957364201110487,-0.35957364201110487,0.5034030988155468,-0.37591789846615503,0.5034030988155468],"Weights":[-0.16206596914236462,0.6770837119688821,0.33894300186334064,-1.9024228607205886,1.518865050534623,0.06114321422626476,0.06388238732205158,0.33588603396562317,-1.139286391988461,0.39251468612919355,-1.663822609135193,-0.2517015494077734],"TrainRel":false,"LocalDeriv":0,"WeightsChange":[0.005362023372345683,0,0,0,0,0,0,0,0,0,0,0]},{"Layer":0,"Node":9,"InputSum":[0,0,0,0,0,0,0,0,0,0,0,0,0,0,0,0,0,0,0,0,0,0,0,0,0,0,0,0,0,0,0,0,0,0,0,0,0,0,0,0,0,0,0,0,0,0,0,0,0,0],"RefInputSum":[-2,-2,-2,-2,-2,-2,-2,-2,-2,1.4285714285714286,-2,-2,-2,-2,-2,-2,-2,-2,-2,-2,-2,-2,-2,-2,-2,-2,-2,-2,1.3116883116883118,1.3116883116883118,1.3116883116883118,1.3636363636363635,1.3636363636363635,1.3636363636363635,-2,-2,-2,1.3376623376623376,1.4285714285714286,-2,-2,-2,-2,-2,-2,-2,1.4935064935064934,-2,-2,-2],"OutputSum":[0.47526572705476483,0.47526572705476483,0.47526572705476483,0.47526572705476483,0.47526572705476483,0.47526572705476483,0.47526572705476483,0.47526572705476483,0.47526572705476483,-0.33947551932483205,0.47526572705476483,0.47526572705476483,0.47526572705476483,0.47526572705476483,0.47526572705476483,0.47526572705476483,0.47526572705476483,0.47526572705476483,0.47526572705476483,0.47526572705476483,0.47526572705476483,0.47526572705476483,0.47526572705476483,0.47526572705476483,0.47526572705476483,0.47526572705476483,0.47526572705476483,0.47526572705476483,-0.31170024956189124,-0.31170024956189124,-0.31170024956189124,-0.324044813900976,-0.324044813900976,-0.324044813900976,0.47526572705476483,0.47526572705476483,0.47526572705476483,-0.3178725317314336,-0.33947551932483205,0.47526572705476483,0.47526572705476483,0.47526572705476483,0.47526572705476483,0.47526572705476483,0.47526572705476483,0.47526572705476483,-0.354906224748688,0.47526572705476483,0.47526572705476483,0.47526572705476483],"Weights":[-0.3478076456008347,0.25021898414361116,2.0566335134048987,0.8325104052089048,0.10936960968957997,1.0173015093728255,-1.3517057796161247,0.011046578869166034,-0.48053932985588615,0.2919869508121212,-0.030910094063141224,-0.23763286352738242],"TrainRel":false,"LocalDeriv":0,"WeightsChange":[0.007133617087930325,0,0,0,0,0,0,0,0,0,0,0]},{"Layer":0,"Node":10,"InputSum":[0,0,0,0,0,0,0,0,0,0,0,0,0,0,0,0,0,0,0,0,0,0,0,0,0,0,0,0,0,0,0,0,0,0,0,0,0,0,0,0,0,0,0,0,0,0,0,0,0,0],"RefInputSum":[-2,-2,-2,-2,-2,-2,-2,-2,-2,1.5064935064935066,-2,-2,-2,-2,-2,-2,-2,-2,-2,-2,-2,-2,-2,-2,-2,-2,-2,-2,-2,1.2987012987012987,1.4935064935064934,1.4285714285714286,1.4415584415584415,1.4415584415584415,-2,-2,-2,-2,-2,-2,-2,-2,-2,-2,-2,-2,-2,-2,-2,-2],"OutputSum":[0.5281401263580301,0.5281401263580301,0.5281401263580301,0.5281401263580301,0.5281401263580301,0.5281401263580301,0.5281401263580301,0.5281401263580301,0.5281401263580301,-0.3978198354385162,0.5281401263580301,0.5281401263580301,0.5281401263580301,0.5281401263580301,0.5281401263580301,0.5281401263580301,0.5281401263580301,0.5281401263580301,0.5281401263580301,0.5281401263580301,0.5281401263580301,0.5281401263580301,0.5281401263580301,0.5281401263580301,0.5281401263580301,0.5281401263580301,0.5281401263580301,0.5281401263580301,0.5281401263580301,-0.3429481339987208,-0.39439035409852896,-0.37724294739859293,-0.3806724287385801,-0.3806724287385801,0.5281401263580301,0.5281401263580301,0.5281401263580301,0.5281401263580301,0.5281401263580301,0.5281401263580301,0.5281401263580301,0.5281401263580301,0.5281401263580301,0.5281401263580301,0.5281401263580301,0.5281401263580301,0.5281401263580301,0.5281401263580301,0.5281401263580301,0.5281401263580301],"Weights":[-0.6694752921963212,0.20375160530020808,0.06551610205531433,1.1855513054711304,-1.716811324137057,0.3750811087403972,-0.44691377189175874,1.0651001819906152,-0.05315387416992252,0.30211428614511293,-0.5602853003621605,-0.26407006317901505],"TrainRel":true,"LocalDeriv":0,"WeightsChange":[0.004275848480383855,0,0,0,0,0,0,0,0,0,0,0]},{"Layer":0,"Node":11,"InputSum":[0,0,0,0,0,0,0,0,0,0,0,0,0,0,0,0,0,0,0,0,0,0,0,0,0,0,0,0,0,0,0,0,0,0,0,0,0,0,0,0,0,0,0,0,0,0,0,0,0,0],"RefInputSum":[-2,-2,-2,-2,-2,-2,-2,-2,-2,-2,-2,-2,-2,-2,-2,-2,-2,-2,-2,-2,-2,-2,-2,-2,-2,-2,-2,-2,-2,-2,-2,1.3376623376623376,1.4285714285714286,1.4285714285714286,-2,-2,-2,-2,-2,-2,-2,-2,-2,-2,-2,-2,-2,-2,-2,-2],"OutputSum":[0.6601904512749783,0.6601904512749783,0.6601904512749783,0.6601904512749783,0.6601904512749783,0.6601904512749783,0.6601904512749783,0.6601904512749783,0.6601904512749783,0.6601904512749783,0.6601904512749783,0.6601904512749783,0.6601904512749783,0.6601904512749783,0.6601904512749783,0.6601904512749783,0.6601904512749783,0.6601904512749783,0.6601904512749783,0.6601904512749783,0.6601904512749783,0.6601904512749783,0.6601904512749783,0.6601904512749783,0.6601904512749783,0.6601904512749783,0.6601904512749783,0.6601904512749783,0.6601904512749783,0.6601904512749783,0.6601904512749783,-0.4415559511774205,-0.47156460805355593,-0.47156460805355593,0.6601904512749783,0.6601904512749783,0.6601904512749783,0.6601904512749783,0.6601904512749783,0.6601904512749783,0.6601904512749783,0.6601904512749783,0.6601904512749783,0.6601904512749783,0.6601904512749783,0.6601904512749783,0.6601904512749783,0.6601904512749783,0.6601904512749783,0.6601904512749783],"Weights":[0.6750815285955233,-0.9889499416555343,-0.2655067621054302,-0.5529057402938307,-0.5177132784364327,-1.1964134145283079,1.2825174030391637,0.8295049825949001,0.34454774432558655,1.123355279787493,0.16970880134509983,-0.33009522563748916],"TrainRel":false,"LocalDeriv":0,"WeightsChange":[0,0,0,0,0,0,0,0,0,0,0,0]}],[{"Layer":1,"Node":0,"InputSum":[2.935176842761333,3.1062528290323783,-3.1458901096676044,-3.0725528196139535,1.085505476348563,-3.0313852126883267,2.582050270743691,2.600274336612893,2.5657441108795593,-0.9606660730496828,3.1278065414515304,-3.110992562007291,0.770090103093698,2.4641603817222357,-3.0966592113037716,2.400509018535594,-3.111603377068935,0.7694792880320549,2.4635495666605918,0.9986770832151841,3.1671131784445885,2.6009346628693146,-4.3256485202722335,1.0698557197607903,-3.0117580391162893,1.0985224211678293,-3.041755107571925,1.0685253527121936,1.4453022172567491,-0.7630967985596869,-0.893514063273256,1.38508462150113,1.437761185241031,1.437761185241031,2.907906313498815,2.373299090613612,2.341727797923541,1.1992314277340113,1.1655077980152033,2.4752473655533045,3.002779570391942,2.4771541840474045,0.9891728760436529,3.0943968833501847,2.5982958033277157,2.585523619669023,1.3704553512713018,3.184875937955307,2.6186974223800332,2.68451435814735],"RefInputSum":[0.9495582103167378,0.9571499325359638,0.041253525105589876,0.04425372951673374,0.7475344290424344,0.04602796492794067,0.9296973932268803,0.9308792334076569,0.9286241238570967,0.2767448557754109,0.958025276293338,0.042656093004968774,0.6835403845225845,0.9215908247046437,0.043245269734152526,0.9168661104794037,0.0426311563915963,0.6834082425183624,0.9215466751218861,0.7307983979115988,0.9595777581622454,0.930921708750241,0.013052353659202369,0.7445694767472133,0.046897501998723404,0.7499831494651299,0.04557476671129701,0.7443163775514647,0.8092743875582438,0.3179742956527001,0.29038518080757675,0.7998063714125604,0.808107718711759,0.808107718711759,0.9482358931938771,0.9147684334652004,0.912274458974917,0.7683880305492249,0.762332069484504,0.922388247740699,0.952699540681658,0.9225246434868465,0.7289245189279607,0.9566610293996213,0.9307518198903098,0.9299240732891382,0.7974537124551142,0.9602611483913613,0.9320552628717655,0.9361066639337676],"OutputSum":[0.9631123241685844,0.9708124115898306,0.041842383134509095,0.044885412842433754,0.7582048299186867,0.04668497391403959,0.9429680112665672,0.9441667211833861,0.941879421914213,0.28069514680795493,0.9717002501145798,0.04326497146527027,0.6932973263229862,0.9347457285611406,0.04386255817751715,0.9299535731681758,0.04323967890352828,0.6931632981071024,0.9347009487816612,0.741229906565225,0.9732748923058092,0.9442098028243763,0.013238664604238991,0.7551975555198408,0.047566922866819385,0.7606885036860428,0.046225306688798984,0.7549408435541981,0.8208260724019659,0.3225131009185719,0.2945301755628136,0.8112229085977236,0.8196427503769811,0.8196427503769811,0.9617711321240635,0.927825953647272,0.9252963798500503,0.7793560983678227,0.7732136937498139,0.9355545341143511,0.9662984942799779,0.9356928767906099,0.7393292795962472,0.9703165297883567,0.9440374889493962,0.9431979269886702,0.8088366674891072,0.9739680373333883,0.9453595374406334,0.9494687687132084],"Weights":[-0.5187779513572822,-0.49356710750526667,0.0580233847961826,0.013960225336301495,-0.19265496762172152,-0.34215664882011,-0.09184288668129252,0.3376304465612958,1.608713832920481,1.1016568761049375,-1.1801829545868583,1.0142741263301018],"TrainRel":false,"LocalDeriv":0,"WeightsChange":[0.006827878584609765,0.0011502275225333237,0.005359842288282318,-0.012435964575536815,0.000946021103776188,0.00020784643812284695,-0.004669411762444512,-0.005805663958181641,-0.000493267166552206,-0.007901117375959303,0.012483700954454304,-0.006619240102201539]},{"Layer":1,"Node":1,"InputSum":[2.6064942090739027,2.5011318607260877,-3.0737580243638245,-3.1919413257755167,-2.9372612383215477,-3.2978164689604297,-0.9378970132029316,-0.6990795219337702,5.010646378157231,6.700845178042874,2.968001245298167,-2.9863102429474058,-2.6111381169035077,5.228901390166358,-3.029104604788942,-0.8060876351620703,-2.9788075955008413,-2.6036354694569424,5.236404037612923,-2.5814796352417515,2.734802440381399,5.10019878479217,0.5504469150213425,-2.8894529031773066,-3.3723695871194685,-2.9750416268603788,-3.226019176251259,-2.82869121599217,5.919470135536135,6.591585820552406,6.631277691714784,3.3302644826836296,3.2430060672772845,3.2430060672772845,2.7896576137904576,5.023154533791705,5.155053958201227,6.000763044982937,6.032303520320264,-0.8219101190850129,2.845170648146924,4.9095412811078285,-2.5311499605495547,2.785083701518233,5.21035986958119,5.285545204815789,6.159686850720092,3.04862713385603,5.414023478266801,-0.5757447047875042],"RefInputSum":[0.9312783682240634,0.9242211295397008,0.04420278296521083,0.039470113736628454,0.0503420460245918,0.035646173236996016,0.2813253317799187,0.3320163412537321,0.9933775563615656,0.9987716387246685,0.9511074144696616,0.048048176516103845,0.06842502105228997,0.9946691601859614,0.046128208774996904,0.3087248229480111,0.04839251019203289,0.0689048138871252,0.9947087951044322,0.0703399127416998,0.9390492885857042,0.9939413956876287,0.6342392724944824,0.05267741325584265,0.03317023213678629,0.04856623083879213,0.03819823049339015,0.05579330513926858,0.9973205752589475,0.9986300167193451,0.9986832586919535,0.9654525923246008,0.9624209806919192,0.9624209806919192,0.9421143755593624,0.9934593365981311,0.9942629351135731,0.997529258186589,0.9976057867627237,0.3053583451280452,0.9450685099141082,0.9926781341313394,0.07370309920334515,0.9418644328108177,0.9945699380048715,0.9949612472355738,0.9978915401701334,0.9547232189480072,0.9955660625499226,0.3599123236750507],"OutputSum":[0.5813399693667591,0.576934568081207,0.027593086419396534,0.024638771277712572,0.031425451822322245,0.02225171974858076,0.17561415076236647,0.20725743906387964,0.6201046839369041,0.6234718787335661,0.5937180268094234,0.029993529772700568,0.042713544091349025,0.6209109529895614,0.02879501166481327,0.19271797266977203,0.030208476168372,0.04301304933212618,0.6209356946383271,0.04390889353147941,0.586190878352869,0.6204566542475282,0.3959166795061083,0.032883278355182136,0.020706141570817786,0.030316919313742138,0.023844812574395677,0.03482833855830407,0.6225660688065944,0.6233834728014137,0.6234167084995478,0.6026728415450585,0.600780392333513,0.600780392333513,0.5881042241667215,0.6201557343229562,0.6206573715909206,0.6226963367596596,0.6227441088561926,0.19061648703506867,0.5899483090653842,0.6196680775345998,0.04600832457304442,0.5879482002379584,0.6208490146672687,0.6210932850207433,0.6229224871829938,0.5959751517855851,0.6214708341277698,0.22467119001053884],"Weights":[-1.4472171187254703,-0.9242423849808558,1.1134122111004647,0.36365897833706357,0.5841811299919631,-0.0702221985891228,-0.5359407822801913,-0.5784452109033971,0.2600665973206247,1.4913847632061763,-0.2583951147117153,0.6242386693415498],"TrainRel":true,"LocalDeriv":0,"WeightsChange":[0.006679081316005701,0.0058792683900208715,-0.004915796110563719,-0.0016035645455848113,-0.0007149894815856914,-0.0028624344793909333,-0.0007587163009286101,0.0014901169503871647,-0.0009282055579595476,0.0017232836048488905,-0.0036529245108943348,-0.000003988946090589785]},{"Layer":1,"Node":2,"InputSum":[-3.9796104250125515,-4.2511538572681955,1.9260140596456352,1.8218402353464362,-3.712570303815407,1.9605755626737327,-2.8544050355289965,-2.9852706775045643,-3.3170146655092054,3.9229494668057505,-4.514684111110612,1.8314601720752621,-3.522039865791073,-3.2413440742804633,1.8720324947984153,-2.7227434198881664,1.8371329584612075,-3.5163670794051276,-3.235671287894518,-3.8325186564444786,-4.273926531125547,-3.0898269531873828,-1.6971015190072023,-3.7287681964034993,2.0220280639484933,-3.647623550957193,2.0111353899360287,-3.658516224969657,3.4599186130943718,3.676036664030084,3.6887995410538466,2.905211433031085,2.881925313126115,2.881925313126115,-4.164964877260297,-3.046893156827977,-2.980865299322132,3.8387314277171196,4.030099967920985,-2.6485989555565723,-4.17801238916262,-3.0066929662440884,-3.876456607643571,-4.5377157870366505,-3.4510136840262424,-3.42588623565464,3.758976298188448,-4.586612689568638,-3.4025131116304737,-3.0506044787055417],"RefInputSum":[0.018349906868554304,0.014047636808840988,0.8728075798231506,0.8607867942024439,0.02383281852441297,0.8765952280190455,0.054454061494131394,0.04809574811732242,0.034992076382856264,0.9806011015076889,0.010828522126194081,0.8619355830002537,0.028691593472791783,0.037639174555146496,0.8666932789316679,0.0616445834611913,0.8626092745021798,0.028850108258230877,0.03784519669099528,0.02119600574937327,0.013735694003521681,0.043528839030900365,0.1548442026091043,0.02345886995119458,0.8830905524783151,0.02539144626472021,0.8819612738946045,0.02512327732261548,0.9695255621903647,0.9753022834203056,0.97560785446526,0.9481034562109834,0.9469456737715477,0.9469456737715477,0.01529275981434276,0.04535179444778306,0.04829783955021848,0.978932506272356,0.9825377947910513,0.06607541463521871,0.01509751628424468,0.04712442156032679,0.020303359512412193,0.01058458284675065,0.030738643508416093,0.03149617764482713,0.9772232821728171,0.010084572922507123,0.03221701600788292,0.0451913835857169],"OutputSum":[-0.0138976725259951,-0.010639261415977312,-0.6610384461065189,-0.6519342613682269,-0.018050266390799204,-0.6639070979556697,-0.04124188312109187,-0.03642628608501236,-0.0265019556805989,-0.7426780465430027,-0.00820119990408398,-0.6528043197629565,-0.021730157716340164,-0.028506788937038646,-0.6564076568538036,-0.04668777013866701,-0.6533145536265059,-0.021850212090149337,-0.028662823962046814,-0.016053222987671062,-0.010403005232977429,-0.03296744526398068,-0.11727438377891401,-0.017767048887332836,-0.6688264631018607,-0.01923072458494089,-0.6679711811617695,-0.019027621421218527,-0.7342897631809367,-0.7386648796598798,-0.7388963100614956,-0.7180652986181878,-0.7171884287073547,-0.7171884287073547,-0.011582280468281077,-0.03434809736182539,-0.03657934411276244,-0.7414143022458133,-0.744144840310855,-0.05004354960478125,-0.011434408838002,-0.03569063230204626,-0.015377159333958128,-0.008016447564673382,-0.02328053239906871,-0.02385426617496839,-0.7401197868578558,-0.007637754951317811,-0.024400207665880868,-0.03422660695609323],"Weights":[0.8516512076856193,0.7083751584330252,0.2296238073359435,0.27955422282121106,-0.4315696354759449,-1.6422084145546276,1.8686985538465475,0.14320637548252246,-3.0788204487654562,-0.00034165634831898907,1.213556424675278,-0.7573701940586485],"TrainRel":true,"LocalDeriv":0,"WeightsChange":[0.004454086344982054,-0.004805363849219554,0.005083141435662909,-0.005861043121557743,0.0021794366596727937,0.005431861112091318,-0.007411179746170854,-0.0027534098750412743,0.010707263363772446,-0.00022710324695041377,-0.004696628645373277,0.004296362716494583]},{"Layer":1,"Node":3,"InputSum":[2.0346438292344597,2.1183828201237667,-2.0970639590284232,-1.9170689256363458,0.5299326228551935,-1.8364069438228894,4.016794855469244,4.055129945778221,-4.076667830262552,2.851838706728035,2.096943902817305,-1.9652381147617035,0.261666918862965,-4.671000899641258,-1.9386622022359372,3.8640148866181647,-1.964926700016317,0.261978333608351,-4.670689484895871,0.3934884733893351,2.177613465245141,-4.468513152077436,-4.240684621353349,0.5007040418626743,-1.8045593064914458,0.5538558669142069,-1.8457383465805304,0.5126768268251227,-1.6967185588949159,2.214061072139722,2.4450126251535784,0.5658634022700133,0.5309960142624068,0.5309960142624068,2.113555970153125,-4.161968791184921,-4.532570647169451,-1.6595160780706029,-1.6085401043596708,4.0110932651819065,2.052907222220991,-4.254171455368585,0.3484475493712671,2.0805020749044196,-4.2857647752546795,-4.465991810065902,-1.5576113035568713,2.119022303046915,-4.527104314275662,4.126102146549661],"RefInputSum":[0.8843867429776038,0.8926770944399716,0.10938251652063377,0.12818877584866153,0.6294673971809744,0.13747679142377434,0.9823080436329713,0.9829620942419497,0.016680924659965943,0.9454136500844182,0.8906057872971097,0.12290128057677631,0.5650460131417715,0.009276042916698177,0.12579490122919962,0.9794476778987385,0.12293485395614556,0.565122547686443,0.009278905254963781,0.5971221954252848,0.8982211024608532,0.01133440732746331,0.014193379014031433,0.6226247693827944,0.1412969692776692,0.635029718047811,0.13637404083695376,0.6254337752173557,0.1548943262570034,0.9015051126497435,0.9201959678966848,0.6378081299694457,0.6297153865061365,0.6297153865061365,0.8922137822696911,0.015337943131438115,0.010638601484196831,0.15982696840083083,0.16679139955291197,0.9822086830095975,0.8862410479040757,0.014005903397647021,0.5862410631296862,0.8889935897195362,0.013576240774926248,0.011362696170579506,0.1739896766545517,0.8927383445266458,0.010696291119576927,0.9841108514035221],"OutputSum":[-0.5062996508434492,-0.511045766820532,-0.06262003627091586,-0.07338636967319408,-0.36036171498573993,-0.07870363508908602,-0.5623582934289639,-0.5627327287058257,-0.009549607564957036,-0.5412367436996887,-0.5098599710229949,-0.07035934893679248,-0.3234813292213796,-0.0053104112281475825,-0.07201590828441763,-0.560720772079819,-0.07037856925006296,-0.32352514423053974,-0.005312049878744709,-0.341844517068198,-0.5142196376949361,-0.006488797483656344,-0.00812552075904968,-0.3564444015563165,-0.08089063611431037,-0.363546069720951,-0.07807232504118224,-0.3580525200458217,-0.08867494218368005,-0.5160996898612581,-0.526799955961619,-0.3651366736021068,-0.3605036855769314,-0.3605036855769314,-0.5107805267636145,-0.008780768497227975,-0.006090457890375522,-0.09149881422267866,-0.095485858452616,-0.5623014107932606,-0.5073612157575377,-0.008018193461494868,-0.33561521351317797,-0.5089370093468983,-0.007772217323124014,-0.006504992470189355,-0.09960677637927343,-0.511080831680723,-0.0061234844395432406,-0.5633903769060348],"Weights":[-0.3227472378036008,0.7535982192221998,-2.3127064204682783,-0.2568249960288846,-0.05998065627263688,1.129751656881861,1.5944665434887373,2.936183597842687,0.24970710568894852,0.4354270198673322,0.06822714350212229,-0.5724867032027308],"TrainRel":true,"LocalDeriv":0,"WeightsChange":[0.00733342244407215,-0.008274893970454368,0.01714889862846557,-0.00626824993637708,0.0017205065906443107,-0.0009501545107133746,-0.007629799675149823,-0.010789949782401139,-0.00001560988372990423,-0.00688985835702954,0.003321244603991462,0.0037733020140130564]},{"Layer":1,"Node":4,"InputSum":[-2.798539990546976,-3.1534768881628326,3.20492060431488,3.4126573051156344,-3.075436306318501,3.349471201823976,1.482585041928905,1.6615169740742552,2.0769397168280608,-3.692493454946705,-3.1856091869733163,3.3540810940439285,-2.723539343192411,2.0877696006152044,3.338613519609643,1.6773820232782302,3.348486634047661,-2.7291338031886783,2.0821751406189373,-3.0880483959388556,-3.371058427607551,1.9351064891952228,4.74006849632768,-3.083392374599768,3.3222075065181764,-3.11432752346834,3.292042197279313,-3.144492832707204,2.5373084764970035,-3.1259392680590032,-3.460383032501287,-5.071172350666476,-5.140533445123516,-5.140533445123516,-2.481574512256234,2.5287076024943405,2.8245904045465395,3.018925405565128,3.0485936174919033,1.8275595922071433,-3.0195665688404283,2.3771521634318287,-3.128495372897051,-3.2475375467711993,1.7116568101430687,1.8317163947399906,2.213799836382809,-3.3249887224195778,1.9811761943831958,1.5740446276281927],"RefInputSum":[0.05740312306762758,0.04095449750507503,0.9610190289352463,0.9680977741439837,0.04413193161867596,0.9660875153979663,0.8149627185457388,0.8404415336879949,0.8886415545659264,0.02430439510691651,0.03971088050532101,0.9662382225815281,0.06159855971269425,0.889708753203591,0.9657299855523755,0.8425575565592128,0.9660552437604154,0.06127596859057803,0.8891585870942882,0.043602947770646355,0.03321230672749902,0.8738135545102801,0.9913376444348103,0.043797525042842775,0.9651828507642344,0.042520112209312566,0.9641548000523814,0.04130882518342696,0.9267162462888796,0.042049876337635225,0.030460719183278435,0.00623592843651221,0.005820489352768349,0.005820489352768349,0.07716001220502618,0.9261299849814825,0.9439902684825506,0.9534218274461925,0.9547217701209533,0.8614707480773939,0.04654970763685548,0.9150683668539707,0.04194703257134233,0.037415473012734644,0.8470510566520858,0.8619660713446481,0.9014819141417079,0.034723807534044644,0.8788064892732216,0.8283594377137946],"OutputSum":[-0.09444404837050172,-0.06738150011110111,-1.5811426766241297,-1.5927891745700486,-0.07260925994509947,-1.5894817417319012,-1.3408395623320284,-1.3827592754264428,-1.462061669790797,-0.03998746661203699,-0.06533540544233589,-1.5897296968216847,-0.10134670453740124,-1.4638175073545092,-1.5888935060362388,-1.3862407195661102,-1.5894286459431186,-0.10081595272612531,-1.4629123316103674,-0.07173893489202415,-0.054643450311448266,-1.437665499693163,-1.6310252027959904,-0.07205906843746678,-1.5879933176556256,-0.06995737025465372,-1.5863018892808458,-0.06796446735408286,-1.5247050911694233,-0.06918370190636684,-0.050116326119688165,-0.010259830744733153,-0.009576318301100464,-0.009576318301100464,-0.1269496071907917,-1.5237405288195953,-1.5531256456693967,-1.5686431743920415,-1.5707819404084715,-1.41735816194776,-0.07658717165107005,-1.5055411009546698,-0.0690144954047114,-0.0615588238789175,-1.3936337727214965,-1.418173106015463,-1.4831876203674066,-0.05713028809407672,-1.4458802613134751,-1.36288087864897],"Weights":[0.7756166749940456,-1.3023281834446834,2.0368493531537593,-1.8363150758020517,1.5629161665944378,-0.9412217045910005,0.29821458831617553,-2.640834610004315,-1.1387936799163927,1.2447273027494645,1.3878769982193564,-1.645277178721367],"TrainRel":true,"LocalDeriv":0,"WeightsChange":[-0.008732666073494502,0.012619001007931285,-0.01343798574854098,0.014302040893399473,-0.01173181280722542,-0.004362850680654251,-0.004632380836432302,0.01102307700092163,-0.0016050013791699437,0.001994769084801477,-0.007076044206572487,0.0066813424476277585]},{"Layer":1,"Node":5,"InputSum":[-2.0847278118001364,-2.164680975911695,2.1126728756213056,2.1876677723728015,-0.279556502371443,2.315838761082049,-2.027850345475165,-2.2524416387759265,-2.1178712633754095,2.6839273517160906,-2.323249638243859,2.10957983927039,-0.35325102695936694,-2.011435116085524,2.151894647023264,-2.0297285253443498,2.1099886944205983,-0.3528421718091588,-2.0110262609353153,-0.4982849394998925,-2.0612106814553535,-1.8476064655220386,-1.4999545623866886,-0.3140004344661529,2.3789028149600853,-0.22937081896040512,2.3124666868740476,-0.2958069470464433,1.239331164019339,2.47661170453961,2.5496794529955316,-1.4150536254458426,-1.5189472980816578,-1.5189472980816578,-2.2614947530503713,-2.0598015528754203,-2.0478905371170573,1.3424951511222663,1.4357711742370198,-2.0492818269195743,-2.120089826387507,-1.9460907407768406,-0.5569374523772823,-2.339621896901325,-2.1650936607660656,-2.159798413509318,1.3941510153386054,-2.4105943204777027,-2.196990104544388,-2.366964447326743],"RefInputSum":[0.11059008268731364,0.1029672887533332,0.892128827106851,0.8991365935619332,0.43056250876493773,0.9101803308180272,0.11630968513560816,0.09513906214187506,0.10737192494636272,0.936071545515998,0.08921565328879587,0.8918308075853899,0.4125942781460087,0.11800752651127015,0.8958456918039983,0.1161167816069341,0.8918702429586086,0.41269337191811367,0.11805008751744893,0.37794379895098157,0.1129244961729134,0.13615417037937927,0.18243230076296144,0.42213857973664587,0.9152043256007752,0.4429073842221835,0.9099042751157355,0.42658282838462286,0.7754475722291235,0.9224858620011307,0.9275519770538689,0.19543819041078117,0.179616587425627,0.179616587425627,0.09436255247871514,0.11306572919280376,0.1142657043624403,0.792899968676272,0.8077989392119002,0.1141249687898508,0.10715947592482075,0.12498024911807878,0.3642563698382489,0.08789422218873785,0.10292917735101767,0.10341914179372565,0.8012541023095413,0.08236838595586021,0.10002110453054344,0.08572676001704024],"OutputSum":[-0.15139227338509653,-0.1409570510290886,-1.2212795940298136,-1.2308728746315325,-0.5894184673016077,-1.2459911967200967,-0.15922212210629297,-0.13024060164697496,-0.14698677693663156,-1.2814349703260015,-0.12213175218537727,-1.22087162026064,-0.5648208612956632,-0.16154638174569944,-1.2263677952743766,-0.15895804685614107,-1.2209256053075657,-0.564956515696788,-0.16160464562729163,-0.5173860941651389,-0.15458796829749682,-0.1863882265363437,-0.24974066462603983,-0.5778865312053695,-1.2528687934552907,-0.6063179822916867,-1.2456132903171417,-0.583970484575838,-1.0615488115932845,-1.2628368513733141,-1.2697721086443756,-0.2675450748709107,-0.24588609436999737,-0.24588609436999737,-0.129177598886197,-0.1547813092141385,-0.1564240150022388,-1.0854402665045022,-1.105836209483077,-0.1562313550659883,-0.14669594488760762,-0.17109168907776015,-0.4986486905949392,-0.12032277932363167,-0.14090487843188784,-0.1415756151657517,-1.096876656207542,-0.11275818682744529,-0.1369238726783628,-0.11735563238173738],"Weights":[0.2911021526275009,0.8831030920990613,-1.1961920564654112,0.9777595125004063,0.13287453454671322,-0.7319720205613673,0.2949879531759467,0.00994943943623658,-0.9132168665096815,-1.397590813848196,1.045922502052681,-1.368949816351512],"TrainRel":true,"LocalDeriv":0,"WeightsChange":[0.004481575463416129,-0.013894361709755037,0.010816259756618414,-0.013199759488028012,0.002365800387190172,0.0032017548884286104,-0.001429079100541068,-0.0033140112100058577,0.009128861705182722,0.0033883909769586015,-0.004207232424245876,0.004953532455150534]},{"Layer":1,"Node":6,"InputSum":[3.158802448027642,3.1620422047555206,-2.8301931085720167,-2.996050738528308,-1.2472521770043123,-3.0968219716789704,-2.3427112703855713,-2.202749023642501,3.611057026816469,-2.4138505745939547,3.7079480340091493,-2.7598759701620024,-0.9733194999296948,3.884074099183077,-2.802854933782549,-2.235183882787722,-2.7504874175916765,-0.9639309473593689,3.8934626517534037,-0.8584256439991933,3.5372176244747537,3.760391159405038,0.767391953020879,-1.194326678028969,-3.172346378862546,-1.2802846052700618,-3.0068292471250446,-1.1147674735325601,-0.8378966335419746,-2.3121316732888153,-2.3991927976833134,1.840219128577198,1.9510075448029436,1.9510075448029436,3.2567685898993872,3.467497503922778,3.4799421248296714,-0.9478521483028062,-1.0699048505104796,-2.3761469765776146,3.534550081074035,3.384539546532678,-0.7968635078615083,3.553495217756745,3.9671357584209197,3.9949160996929036,-0.7272768187062855,3.812850607235487,4.036024142165771,-2.0951794115956606],"RefInputSum":[0.9592541651114121,0.9593806047487347,0.0557142375838613,0.04760460684363782,0.22317616255639877,0.04323853600529752,0.08764686585569727,0.0995038973711023,0.9736877748512497,0.08212260024694465,0.9760594082081571,0.05953130969697331,0.27421935013747933,0.9798476086452224,0.057170095492543795,0.0966351573712839,0.06005912856062654,0.27609184442925955,0.9800321647677254,0.2976683786569035,0.9717283739049164,0.9772547528130272,0.6829564509611413,0.23248600609319045,0.04021974245846406,0.2175017813578102,0.04711830242078032,0.24698315288226413,0.3019779621234459,0.09012319256221814,0.0832342704198799,0.8629746213136759,0.8755564627633995,0.8755564627633995,0.9629155721730867,0.9697486911086591,0.9701116421489149,0.27931697737812533,0.2554211793955516,0.08500978711101895,0.9716549979527522,0.9672178484782274,0.31069684441517087,0.9721721401989951,0.9814240292635271,0.9819237742095535,0.32579259503938934,0.978392080674293,0.9826391474601748,0.1095662405194541],"OutputSum":[1.9892057129500944,1.9894679108722437,0.1155346348499866,0.09871769061863721,0.4628004898992602,0.08966376792468402,0.1817533377737005,0.2063412683628094,2.019136694745354,0.1702976661608406,2.024054751704779,0.12345009868668834,0.5686487666504756,2.0319103443363056,0.11855364792756698,0.20039236117620945,0.12454463685724702,0.5725317587480319,2.032293058435024,0.6172750256655205,2.0150734842864733,2.026533538248985,1.4162470420863236,0.48210631584572,0.08340369464277073,0.4510335235328666,0.0977092409591367,0.5121690544432137,0.6262118104759213,0.18688849737050048,0.17260293700494705,1.7895507877713834,1.815641756986321,1.815641756986321,1.99679837411271,2.0109682153479884,2.0117208670528828,0.5792197181233892,0.5296669931092464,0.17628482661659323,2.01492132454764,2.0057200060598404,0.6442921598723969,2.015993722612771,2.0351793683489143,2.0362156896262245,0.6755962234617144,2.028892015450764,2.0376991593976195,0.2272075530289186],"Weights":[-1.5208152919763538,-0.7426274726113907,1.1232243637764856,0.9520912616739179,0.437842266075398,0.4336546415916349,-1.0558161558075008,-0.977699160231952,1.4490543201066182,0.3696238018943667,-1.726051207129532,2.0737003656575825],"TrainRel":true,"LocalDeriv":0,"WeightsChange":[0.0017343066576501072,0.010886558832613275,-0.014569940717641018,-0.0025851978068898974,0.0022155107512142613,-0.00350440434399232,0.005965905442276446,0.004162838131949082,-0.0032775781158698655,0.006165332124793151,0.0037772629479328433,-0.007782190297184796]},{"Layer":1,"Node":7,"InputSum":[-4.329832063153287,-4.32722339251111,-4.832112960602031,-4.8470203770357685,-4.70290649484547,-4.845660954050631,-4.879375433665893,-4.911023214496019,-3.3653098655786082,0.42542571680500885,-4.449265565431025,-4.930950309308418,-4.810816182218307,-3.298063607659146,-4.925884743297674,-4.927258544087955,-4.935562734324115,-4.815428607234004,-3.302676032674844,-4.808334072169628,-4.449239135896455,-3.2758190951594086,-5.293632356082906,-4.712191274965098,-4.829288805098098,-4.702060142943611,-4.88385566527298,-4.756627003118493,-3.2735309059862883,0.2399164475931439,0.4474034960328739,3.1474225341161586,3.2366645478844043,3.2366645478844043,-4.4514756217741125,-3.343487925316083,-3.2780555810370657,-3.2561303274673117,-3.2507639367393923,-4.895217289765615,-4.433459640700621,-3.3195810992933548,-4.805899230431406,-4.492351285794339,-3.3560323676254114,-3.323780702442421,-3.285189407431958,-4.473121686703871,-3.2997016459668234,-4.935083723588807],"RefInputSum":[0.01299857094557936,0.013032081721546025,0.007906650529829263,0.007790568446145925,0.00898737468217395,0.007801083650881502,0.007544409555407312,0.007311102657563972,0.03339738486064877,0.6047808444973158,0.011552135752387581,0.007167889554185299,0.008075468172012578,0.035637678689708886,0.007204028853512471,0.007194209899547747,0.007135139684688249,0.008038605177731663,0.03547949962649688,0.008095374802396334,0.011552437546784753,0.03641011702706134,0.004998370795646139,0.008905054726516847,0.007928834403265448,0.008994915934992553,0.007510937764905932,0.008521313100942758,0.03649048203261209,0.559693058987242,0.6100217148155884,0.9588070422528534,0.9621909542255298,0.9621909542255298,0.011526927040575306,0.03410905887399309,0.036331732518988205,0.03710722638587016,0.037299446054460124,0.007426714442798058,0.011734019030454838,0.034905517342028375,0.00811494962656178,0.011070366943237143,0.03369818100572543,0.03476432079190118,0.03608278935249939,0.011282880502958979,0.03558142598859266,0.007138533907923003],"OutputSum":[0.004389257449858612,0.004400573110916895,0.0026698569317178756,0.002630659226621264,0.0030347875503820973,0.002634209920071771,0.0025475381858894104,0.0024687569072588894,0.011277372021826063,0.20421774350082686,0.0039008363400277785,0.0024203978081276125,0.0027268619745585794,0.01203385720933189,0.0024326010487352584,0.002429285459889383,0.002409339084112977,0.0027144143622057286,0.011980444520004602,0.002733583892381646,0.003900938247638366,0.012294688245372332,0.0016878114020223692,0.003006990380973805,0.0026773478114579755,0.0030373340226253847,0.002536235689143162,0.002877411460650664,0.012321825282266495,0.18899284691209664,0.2059874402763054,0.3237625867339267,0.32490524009927896,0.32490524009927896,0.0038923240561323713,0.011517684628344143,0.012268219967632115,0.012530082771380468,0.012594990030486114,0.0025077958055927667,0.003962253286290854,0.011786626597346953,0.0027401937684332187,0.003738156354395033,0.011378942550324466,0.01173894843240599,0.012184158754082018,0.0038099162985542998,0.012014862229923554,0.0024104852193059913],"Weights":[-1.0308211912232426,-0.7651747588020776,0.3049499849839509,-0.14307836016288716,-0.6418695732356318,-0.6511057760747687,-0.10847414927997075,1.0329908815661646,-0.9373017778984821,0.1838038692124806,-0.15395965666774797,0.33767230784329716],"TrainRel":true,"LocalDeriv":0,"WeightsChange":[0.004366170376518022,0.0009815033101117975,0.0010651986281427746,-0.0008962466104787485,0.004663603880375738,0.002860444380307374,-0.006399390935319091,-0.0040184190467335845,0.0028598588894017596,-0.0021606954854192662,0.00045118388399021037,0.0008303521390652396]},{"Layer":1,"Node":8,"InputSum":[0.4683516013682665,0.5176150125607872,6.776549059334537,6.847049813452015,5.57947454380268,6.9715289010980115,2.3503095218648236,2.0810909842308387,-3.408854710699411,-5.311928128168774,0.25423266184292515,6.764447405812476,5.437024218339957,-3.570356439543743,6.805919121094968,2.313167411820258,6.764468719745317,5.437045532272798,-3.570335125610903,5.358654399154342,0.5445410628934848,-3.435563345481788,3.232569199094389,5.545385348833517,7.034143099989475,5.6283287793985,6.965236713847058,5.559422393256083,-5.176771487414997,-5.352110241170326,-5.362464891982649,-4.233992394020287,-4.203360181863025,-4.203360181863025,0.314445245743199,-3.443720255101854,-3.665659162632074,-5.222722729329219,-5.281204050121162,2.2383361614839092,0.41147783909599656,-3.3637160734456497,5.306349789418076,0.40881709573705804,-3.5114145282561973,-3.6217773133157314,-5.300544582552528,0.18932548529808346,-3.7907789230771893,1.9596271199527273],"RefInputSum":[0.614993528409732,0.626589907578859,0.9988610956926746,0.9989385419903963,0.996239645283095,0.9990626620595799,0.9129588268610629,0.8890516923280031,0.032019876258094424,0.004908197998618671,0.5632180275703281,0.9988472453181536,0.9956664455728064,0.027375318823685418,0.998894022490024,0.9099617029880306,0.9988472698593056,0.9956665375366538,0.027375886332275567,0.9953148183467615,0.6328681509582242,0.03120232003064624,0.962041685061817,0.9961097551518621,0.9991195029539605,0.9964182970667378,0.9990567511401303,0.9961637731909282,0.005614505214433248,0.004715797701987022,0.004667445941727598,0.014287321238004845,0.014725201354838768,0.014725201354838768,0.5779699226987662,0.03095668761486596,0.024948923942094723,0.005363702016209003,0.00506056338223466,0.9036396767990759,0.6014421839457406,0.033448873937417654,0.9950644814118651,0.6008042067088472,0.02898919199721118,0.02603896282875976,0.004964110976343716,0.5471904968993221,0.022079497389204755,0.8764925925952654],"OutputSum":[-0.6923355095844081,-0.7053902568467935,-1.1244785087066693,-1.1245656947005405,-1.1215273830096892,-1.1247054241893533,-1.0277731153673635,-1.000859404238648,-0.03604671646432026,-0.005525456131712127,-0.6340486885013826,-1.1244629165001518,-1.120882097335639,-0.030818056503522654,-1.124515576399204,-1.0243990712708524,-1.124462944127615,-1.120882200864919,-0.030818695382357642,-1.1204862492437786,-0.7124580561463851,-0.03512634384054992,-1.0830286653438803,-1.1213811578121173,-1.1247694134311228,-1.1217285021564,-1.1246987699088766,-1.1214419691944748,-0.0063205889966848755,-0.00530885945018751,-0.005254426941499046,-0.016084103934375146,-0.016577052135974945,-0.016577052135974945,-0.6506557914370715,-0.03484982053437882,-0.028086516643025302,-0.006038244627148199,-0.005696983083843759,-1.0172819830074133,-0.677079939335902,-0.03765542580971364,-1.1202044297751454,-0.6763617296718915,-0.03263489140402449,-0.02931363952026519,-0.0055884007614316455,-0.6160055252778863,-0.024856229163664128,-0.9867208640561678],"Weights":[1.3526021463631834,0.5116977046265848,-0.2507497460987703,-0.39284989023320804,0.20719610885702044,0.980092894477433,-0.8368271055774796,0.44767325981288303,0.18245028009999617,-0.9431710963017139,0.5845677606529125,-1.1257606423512607],"TrainRel":true,"LocalDeriv":0,"WeightsChange":[-0.008342956736995399,0.0004883370801046842,-0.005183859158264531,0.0045015688928214635,0.0003597454407703556,-0.0055019752912592035,0.0014777996569721595,0.0030012554365210498,-0.002669786256435552,0.007947978063279128,-0.00007256743642786233,0.004278004404489971]},{"Layer":1,"Node":9,"InputSum":[-5.397332886357512,-5.360693127397203,-5.740378207489895,-5.698596828633658,-5.048386161519131,-5.699781139478414,-5.408465669089114,-5.361918854277228,-3.7429631009381534,-1.6672356613370163,-5.019954399250542,-5.510814294973404,-4.862920820521833,-3.5903942639845314,-5.5215975648714934,-5.331728774913707,-5.5004257953568985,-4.852532320905327,-3.5800057643680265,-4.814270895248738,-5.007338971877143,-3.636086367088142,-4.749426574311862,-5.0301715417324395,-5.737892981636781,-5.051738081528621,-5.616035868974917,-4.929880968866756,-2.6443866819693302,-1.6478018939062302,-1.5889484615402993,2.1559824901208513,2.262029259531989,2.262029259531989,-5.161943957646006,-3.867155252752303,-3.790691352857005,-2.8365404973653416,-2.804898635783341,-5.438641459594519,-5.096677004567834,-3.7737868861118096,-4.823396465458202,-4.962889395702575,-3.6473486341905828,-3.6103942375788742,-2.5903359288975674,-4.9632248807041055,-3.5919722759151043,-5.311171249036692],"RefInputSum":[0.004508227103622981,0.004675684187002082,0.0032032588148879037,0.0033394742606188375,0.006378735947971055,0.0033355348102222983,0.004458538858294252,0.004669983333966267,0.02313587555623824,0.15879308504438944,0.006561490372950343,0.0040265354654443666,0.0076686170015911005,0.026846816296653177,0.003983521540341219,0.004812431451091086,0.004068412088307185,0.007748077193982631,0.027119565113718873,0.008047842016705749,0.006644237240925821,0.02567852247528042,0.008582363149777412,0.006495225225427639,0.003211203941314593,0.00635752643182376,0.0036258435950508794,0.007175503538993513,0.0663358273389505,0.16140625123862157,0.16953189246436104,0.8962264961309814,0.9056831156131339,0.9056831156131339,0.005697896830033367,0.020489201857471058,0.022081388283937884,0.055381240623105656,0.05706003617347447,0.004326581986204452,0.006079849046728209,0.02244938422872069,0.007975318000644344,0.006944135738955849,0.025398250440916533,0.02632921106960302,0.06976297924819103,0.006941822645633246,0.02680561982231724,0.004911896063312634],"OutputSum":[0.002154497385707213,0.002234525707277013,0.0015308485095778203,0.0015959463440423688,0.00304842005696117,0.0015940636670198102,0.002130751200743485,0.002231801249817429,0.011056715257735005,0.07588776668362165,0.00313575903119516,0.001924295279353957,0.003664858691045134,0.012830186722230021,0.0019037387751997493,0.0022998776995813946,0.001944308262818717,0.0037028329928804975,0.012960534328909049,0.0038460916424647032,0.0031753040467036634,0.012271855048596573,0.004101541147855118,0.003104090687116745,0.0015346455130831802,0.003038283955553427,0.0017328032432621795,0.003429198055144662,0.03170212220800451,0.07713660788094445,0.08101988003553076,0.42830975426326173,0.4328291055478392,0.4328291055478392,0.0027230446785768106,0.009791860707654467,0.010552772129047705,0.02646688718139648,0.02726918940381553,0.002067688553408105,0.0029055809691005924,0.010728638668767556,0.0038114321633804056,0.003318626580181172,0.012137912070249593,0.012582821387060515,0.03333997000474622,0.003317521144851075,0.012810498784107782,0.0023474121831102944],"Weights":[0.036032012287031186,0.01186663052455809,0.5967748960172505,0.23681645958710731,-0.5962465808204092,-0.1806593063381013,0.6810185291932495,-0.22347777634977808,-0.7638293588463227,0.15621067289233848,-1.054087734973253,0.47790347207126677],"TrainRel":true,"LocalDeriv":0,"WeightsChange":[0.001502600149803716,0.005584232588570987,-0.004108495878684301,0.0012811885430721707,0.003963577742060629,0.0025701547261252804,-0.00514209166722446,-0.0017005313633644311,0.0017971404369396921,-0.002183648647218023,0.0032150962881308544,-0.002245098085699785]},{"Layer":1,"Node":10,"InputSum":[3.2578605193552996,3.2517758851499132,8.503942818609021,8.42785269458319,6.797497290981433,8.43482164917819,4.2930071544892385,4.214080418391313,-2.2127048878294917,-4.334365057651962,3.2242326742619354,8.508173126656894,6.976275362423927,-2.465560288456192,8.505775755866132,4.396048541677274,8.512893482312656,6.980995718079688,-2.4608399328004302,6.890529314680103,3.2940745139341465,-2.5185005751225673,8.647398189533439,6.810069774329247,8.427639200380277,6.805275032747724,8.478838374922491,6.8564742072899385,-2.618055811968788,-4.466269659916694,-4.575416147000232,-3.974209029191804,-3.9660573888144857,-3.9660573888144857,3.281231001141362,-2.2072228004214822,-2.531344087915351,-2.5411900411221366,-2.5656081355062557,4.276520171801863,3.2866724276724866,-2.332535269758965,6.895417398497085,3.3788420784545115,-2.251734056033308,-2.406670388254596,-2.5146550025790764,3.2260739351879795,-2.5865011538687344,4.171741186408495],"RefInputSum":[0.9629545443677826,0.9627368741795121,0.9997973733562742,0.9997813572330739,0.9988846792353914,0.9997828753178778,0.986520407733059,0.9854295253903936,0.09861537348583067,0.012940542603915337,0.9617360808091486,0.9997982285463087,0.9990670964152658,0.07830807607177809,0.9997977443429791,0.9878241298817497,0.9997991785441346,0.9990714855957418,0.0786494509751838,0.9989836588134768,0.9642249713521334,0.07457135519436357,0.9998244477357168,0.9988985984599354,0.9997813105593368,0.9988933107019421,0.9997922232087179,0.9989484881280425,0.06798538045803822,0.011359575344306089,0.010196961919567801,0.01844745677276671,0.01859564059905852,0.01859564059905852,0.9637792809139194,0.09910375174439509,0.07368984703993721,0.07302058029273814,0.0713848893009272,0.9862993978335018,0.9639687558375457,0.08846401042825228,0.9989886096399504,0.9670367144299471,0.0951999937095285,0.08266545824983774,0.07483717451326724,0.9618037812511951,0.07001225217535338,0.9848089494327432],"OutputSum":[-0.14747204904026223,-0.14743871385443547,-0.1531143584464035,-0.15311190565097318,-0.1529745835495085,-0.1531121381386622,-0.15108105237090422,-0.15091398876932963,-0.01510248981105775,-0.001981784441076732,-0.14728544696363916,-0.15311448941481468,-0.15300251989962343,-0.011992520833148695,-0.15311441526130704,-0.15128071140753382,-0.15311463490260202,-0.15300319208237825,-0.012044800825792809,-0.15298974181557493,-0.14766660907597112,-0.011420259257867759,-0.15311850476279637,-0.15297671521457676,-0.15311189850310553,-0.15297590541881778,-0.15311356972504855,-0.15298435558724516,-0.010411647589773951,-0.0017396665938701277,-0.0015616177077719395,-0.002825142957965554,-0.0028478366278025112,-0.0028478366278025112,-0.14759835364008841,-0.015177282689827013,-0.01128526034796147,-0.011182765231093045,-0.010932266696588047,-0.15104720572369068,-0.1476273708511212,-0.013547855358778829,-0.15299050001182496,-0.14809721456559183,-0.014579440143959878,-0.012659833825239995,-0.011460968261073042,-0.14729581497422484,-0.010722053648961788,-0.15081895042240545],"Weights":[1.0050922839738137,-0.01670579086901174,-1.4780678695078482,0.24715698378682904,0.032409231746542644,0.8981127165361871,-0.043171803488462945,0.720450440353004,1.387276638770516,-0.3642198925569431,0.23567751668448483,-0.15314538978273726],"TrainRel":true,"LocalDeriv":0,"WeightsChange":[-0.007254534295256005,0.0003907464866645797,-0.004007259937406207,0.0030674367176776436,-0.0005860883485958092,-0.0066873378189319915,0.003467436447642168,0.002529506151400649,-0.0033284661961500185,0.00807126881611814,0.000537101040878238,0.0027866512982127776]},{"Layer":1,"Node":11,"InputSum":[-3.8969534387098586,-3.610604229647323,1.0484480557763909,1.1234223709705746,3.6157746566587123,1.0037149946248423,-3.1175189606076357,-3.2069473030786755,-4.240146876870941,-5.990482782483215,-3.4209988797083515,1.1802484689219745,3.6551953341424,-4.100108965918079,1.1416226112296426,-3.097551226788992,1.1789718678323957,3.653918733052821,-4.101385567007658,3.800077012494972,-3.5015077906923944,-4.380828787974096,4.479322721909498,3.636975960159651,0.9386191001124098,3.559724244774987,0.9902295187038399,3.611334663366417,-4.895642571224352,-5.7667308315811034,-5.818173051680911,-6.915116611772459,-6.948554749988581,-6.948554749988581,-3.6918343970727063,-4.522122624989257,-4.571155394354408,-5.351132319758117,-5.376004158642526,-3.4275285285510577,-3.6415801051807337,-4.44472044841427,3.8283066701520507,-3.124145441319607,-4.078085162106103,-4.101762851911314,-4.931934803714767,-3.4000047503623563,-4.279325747644058,-3.292636535816335],"RefInputSum":[0.019899637947438823,0.026323828251789295,0.740476771952444,0.7546229791749043,0.9738083703017606,0.7317883636319968,0.04239037146852368,0.038905118878500435,0.014200905061499266,0.0024962089646392966,0.031645604225151995,0.7649924761961073,0.974795258697987,0.01630075200676317,0.7579774278035458,0.04320837752316331,0.7647628925100926,0.9747638742770286,0.016280294295661572,0.9781203772616344,0.029269359980229823,0.012360293207372993,0.9887860863946709,0.9743437249858714,0.718820637699532,0.9723401622694242,0.7291332542070385,0.9736948869342853,0.007423580112341463,0.003120207051730864,0.002964219044210047,0.000991681287463037,0.0009591008652476688,0.0009591008652476688,0.024320028702748884,0.010749135462091119,0.010240055495434568,0.004720389857627773,0.004604967065354701,0.0314461193927857,0.02554143147127677,0.011604150392643672,0.9787164328297613,0.042122194088352126,0.016657692549884598,0.01627425308759223,0.00716088678723951,0.03229531623823445,0.013662742391668828,0.0358246650821037],"OutputSum":[0.009815042810509303,0.012983628240385126,0.36522328879035576,0.3722005830437245,0.4803087809431343,0.3609379294363003,0.020908084449370666,0.019189063054766885,0.0070042727156517295,0.001231198171375028,0.015608472930748822,0.37731510107944866,0.480795541148709,0.00803997435593886,0.373855088366019,0.021311547289586664,0.3772018641596222,0.4807800614984709,0.008029884056266194,0.48243558008501625,0.014436444622809718,0.006096432874871842,0.4876961979928243,0.48057283243780136,0.3545418942160477,0.47958462079860414,0.3596283572349675,0.4802528078589509,0.003661511671836959,0.0015389710039590454,0.0014620334749554126,0.0004891241899244415,0.0004730546393289512,0.0004730546393289512,0.011995299788909848,0.005301766042932796,0.005050673953724721,0.002328224697217343,0.002271295035961143,0.015510081584388952,0.012597728862928188,0.005723482667585157,0.4827295709070634,0.020775812069634587,0.008216027142466775,0.008026904368093757,0.0035319441772563576,0.015928928571185597,0.006738836246035781,0.017669699437836292],"Weights":[1.2474999653060428,0.5826392069397157,-0.04234912987448325,0.6199373538685718,-1.7854768335073774,-0.11409077781300953,-1.9015999623449984,-0.11624114812500273,1.4792469933059413,-1.9981960592669639,0.356367574090818,0.4932272052604125],"TrainRel":true,"LocalDeriv":0,"WeightsChange":[-0.008667176398398454,0.00027853960643415697,-0.014388000598547238,0.0013713714721555843,0.007480937099550163,-0.003564880193737048,0.00669243431998616,0.006827726036896686,-0.0012018414985167447,0.015552146730464346,-0.0020771054595057343,0.002310208423404852]}],[{"Layer":2,"Node":0,"InputSum":[-1.6810223059065914,-1.6728040441160745,4.814664333955784,4.84137414565828,2.733914085633649,4.8364212743066615,1.6442351125533305,1.522668555138331,-2.5287130220305576,-1.4874980215123332,-1.82306498554847,4.824262238630418,2.698187824153628,-2.553982426040773,4.825491409896659,1.6246136611153772,4.823156457917034,2.6946094776313685,-2.5540461096154585,2.5980396073705667,-1.7042048050978567,-2.560854443815149,2.5208359087299943,2.7176874818186,4.832965955835614,2.7441292614478465,4.8274077973953435,2.6908701423976655,-0.5522471495202631,-1.4558811464835735,-1.4974705563140354,-3.378196814267498,-3.402999562430819,-3.402999562430819,-1.7382915376900647,-2.4817445520285792,-2.500476264825128,-0.4643429786127779,-0.42113855102097436,1.6362586689618455,-1.7431656939914544,-2.4909671811118774,2.5722005778538843,-1.7351745500547016,-2.584175651857516,-2.5901346772633818,-0.5886028472114939,-1.8606975515276334,-2.602458228969184,1.4280594272851481],"RefInputSum":[0.15696014618283016,0.15805068495058772,0.9919552982258637,0.9921656653727594,0.9389984231243658,0.9921270729172553,0.8381103864239814,0.82093110282753,0.0738696442513641,0.18429755771212572,0.13906650528382133,0.9920315288305613,0.9369196268667567,0.07215939758210994,0.9920412395240822,0.8354304276332155,0.9920227829044851,0.9367078112142349,0.07215513392890982,0.9307353055032901,0.1539168909170717,0.07170064995143996,0.9255896472392805,0.9380623091947843,0.9921000376724843,0.9395809350141141,0.9920563559470672,0.9364857575558495,0.365343210445442,0.18909810161309387,0.18280308444598475,0.032983860667561496,0.03220185237035405,0.03220185237035405,0.14953007103244453,0.0771479051649009,0.0758247988307017,0.38595605566381547,0.3962443370012554,0.8370252107803188,0.14891127880938668,0.07649384523226382,0.9290508847722571,0.14992689410605692,0.07016381834782376,0.06977604082647516,0.3569554902042502,0.13462176735929257,0.06898038037653532,0.8065987719720124],"OutputSum":[-0.3187744302729177,-0.32098923372995264,-2.0145877328619743,-2.015014972954639,-1.9070362422444105,-2.0149365945361972,-1.702140112859713,-1.6672502604090356,-0.15002377567400343,-0.374294688104716,-0.2824337710558605,-2.014742551573429,-1.9028143610294115,-0.1465503913731083,-2.014762273272663,-1.696697315070227,-2.014724789245412,-1.9023841791291163,-0.14654173220928357,-1.890254462435998,-0.31259380425344896,-0.14561870891636838,-1.8798040116599257,-1.9051350641948865,-2.0148816879566693,-1.9082192807436575,-2.0147929736080155,-1.9019332045972797,-0.7419849980782205,-0.38404423717336134,-0.37125952360240166,-0.06698777777803436,-0.06539957685268209,-0.06539957685268209,-0.30368449801590863,-0.15668168075636366,-0.1539945497990342,-0.7838481598462848,-0.804742897151191,-1.699936201510448,-0.30242777684712985,-0.15535333348184047,-1.8868335287026061,-0.3044904162842479,-0.14249751776828218,-0.14170997034655286,-0.7249501595781337,-0.2734068375694856,-0.14009404291026706,-1.6381423580907695],"Weights":[0.66151902431098,0.44801572000398276,1.1833373740409685,1.5061196891336877,-0.9486137468035832,0.07257798062497028,2.2929991498520996,-1.1965415406941338,-1.229175647332883,1.1178370037043284,0.03614182966849327,-2.0309259262641306],"TrainRel":true,"LocalDeriv":0.013309004696950266,"WeightsChange":[0.005722943320985027,-0.013204089283479326,-0.01154748610388207,-0.011936990265781326,0.0014412659948137673,0.00037823743564575213,-0.005388923797770765,0.020048241741700723,0.018015852353584386,-0.004824948964681324,-0.0010846132556529592,0.009275220872214092]},{"Layer":2,"Node":1,"InputSum":[-1.039085015883927,-1.0088567624257962,1.0542262105262743,1.074141315957249,1.2864456021631985,1.097361784289447,-0.49410905569998514,-0.6203019284538593,-3.1269407233740756,0.6242761657565901,-1.089045229353627,1.0574229496856722,1.1806824672453282,-3.1274242990825964,1.0663270169058532,-0.5537511834827846,1.0573924766886227,1.1796021088705442,-3.126567077190594,1.151620941983308,-1.0040371354074709,-3.0878622526595367,-1.061417364784464,1.2667212285706624,1.106932078322211,1.3086188070283682,1.0962642198271684,1.263612522492789,-1.2850988854767937,0.5609877287535475,0.5750301477987454,-1.3266434899753559,-1.3599067907003082,-1.3599067907003082,-1.1027372190141846,-3.157859136537533,-3.185923258434389,-1.2596585664665252,-1.220050143133641,-0.5761490663027349,-1.0550692401580204,-3.1325413969377016,1.1212022016830576,-1.05088620993328,-3.0902153575383275,-3.112991026647586,-1.2222290959732567,-1.1013082031351398,-3.1440131202651527,-0.6579820678552973],"RefInputSum":[0.2613265792975389,0.2672036437885861,0.7415856214342973,0.745383681528839,0.7835449628693758,0.749765457135345,0.3789260579918551,0.3497127856280274,0.04200955452647667,0.6511904699103961,0.25179811056420975,0.742197759711388,0.7650704910018644,0.04199009745168111,0.7438977886954092,0.36499454445738533,0.7421919289576274,0.7648762543379648,0.042024594397956264,0.7598068640666764,0.26814841317959415,0.043610710927053604,0.25703868762959825,0.78018095969414,0.7515567136980237,0.7872819405331326,0.7495594787011381,0.7796473565224902,0.2166835305329335,0.6366810508393745,0.6399230434693095,0.2097151133315798,0.20425545165510797,0.20425545165510797,0.24922737341334733,0.040782720772280366,0.039698905458571854,0.2210326737010669,0.2279276264334823,0.3598191739897032,0.25825285631831274,0.04178473407318312,0.7542116444199096,0.2590549605012173,0.04351267104010355,0.042574557152028764,0.22754440900541895,0.24949485679909414,0.04132782713121168,0.34119305758662066],"OutputSum":[0.058941192093527515,0.06026674109831688,0.1672617484384932,0.16811838609937294,0.1767255144675393,0.16910667852040429,0.08546529646305831,0.0788763566670935,0.009475091396230966,0.14687347410139456,0.056792083084111065,0.1673998138426124,0.17255866929589045,0.009470702928796135,0.16778324875834547,0.0823230978486042,0.1673984987388125,0.17251485997289973,0.009478483580662889,0.17137147874248584,0.06047983015458196,0.009836225985876875,0.05797407482916165,0.17596677665415733,0.1695106894611721,0.17756837522407157,0.1690602208868549,0.17584642453717605,0.04887212632934674,0.14360093114411326,0.1443321499542337,0.04730042697156657,0.0460690215458207,0.0460690215458207,0.05621226333275531,0.00919838382148949,0.008953933498943207,0.04985305863100649,0.05140818836396173,0.08115581319768658,0.058247925847714134,0.009424384018666276,0.17010949874453823,0.058428837321972446,0.009814113471240653,0.009602525537739002,0.05132175516569393,0.05627259316856271,0.009321330437557167,0.07695476519169514],"Weights":[-0.16179850039257904,-0.04460622968564319,0.1439806554456498,-0.03121537169635517,-0.8477485540641855,0.45103208825284563,1.6947354316021075,0.5764016826519408,0.037391893565320106,0.8098079900821405,-1.21997653453174,0.225546104999977],"TrainRel":true,"LocalDeriv":0.002873179675356263,"WeightsChange":[-0.004030817226795885,-0.0004851009883134693,-0.0015159818851289933,-0.00275087846853263,0.0012000394973714326,-0.007270659996382116,-0.0123095184150586,-0.01025679826505482,-0.016188747447516992,-0.010480417416475409,0.01500712269715736,-0.012190476730894377]},{"Layer":2,"Node":2,"InputSum":[-1.4587379141858046,-1.513307075280834,-0.8033378303115445,-0.8583089426177792,-3.286261990754582,-0.9015886653216397,-1.9567383563933038,-1.8048539530869723,3.7742397668575736,-1.5524393040446334,-1.4288006088795289,-0.8182316980943204,-3.005010607364337,3.82336232153166,-0.8341533720330018,-1.8532821987077452,-0.8175764068108102,-3.0032660471309103,3.8220910407081408,-3.0446045707256886,-1.5265356889340702,3.7669588175768793,1.5234842469656138,-3.2482083959685566,-0.9223795423584024,-3.3250324527102175,-0.8940546697268563,-3.244740617571258,2.269479063270107,-1.3983229275951115,-1.458489921501066,1.4085750374547537,1.462691234192545,1.462691234192545,-1.3936490724954178,3.8424630288939046,3.930828179201891,2.2525424645945673,2.1985419179433467,-1.830112034781182,-1.4500987335108713,3.8223831195774167,-2.988382059959284,-1.4605811361692909,3.718330638140795,3.774529991710485,2.1634833305360446,-1.4250587753875215,3.836542616905957,-1.7745741394673993],"RefInputSum":[0.18866043384927067,0.18044920181628896,0.3093119777241629,0.29769277704726194,0.036045502580328834,0.2887241356047953,0.12382046593719563,0.14126122295525217,0.9775605522754717,0.17473423606077568,0.19328563205368365,0.3061391501771167,0.04720002329941794,0.978613195047998,0.3027675783869157,0.13548798965298123,0.30627836350194065,0.04727854198306144,0.9785865716955796,0.04545098196558472,0.17850112138907726,0.9774002813935381,0.8210509807701722,0.03739131950263834,0.28447329434116386,0.03472234180915541,0.2902737951867041,0.03751633640419653,0.9063175664510793,0.19808237237852638,0.1886983964437237,0.8035410923434692,0.8119439469767757,0.8119439469767757,0.1988258421502298,0.9790093281414731,0.980750408827056,0.9048696173586784,0.9001184981965104,0.13822492718325485,0.18998637129720747,0.9785926913216721,0.047953501224014754,0.18837845804328715,0.9763008276444106,0.9775669177420129,0.8969220380878221,0.1938697519899761,0.9788873176416933,0.14497441182947823],"OutputSum":[0.11230380755852042,0.107415911335473,0.18412399522855244,0.17720743911671266,0.021456789335942944,0.17186868015138107,0.07370655041282737,0.08408850162468348,0.581912009315407,0.10401396636314526,0.11505704711421551,0.18223530766969454,0.02809673562825852,0.5825386154825914,0.18022831371886444,0.08065187175725362,0.1823181771199636,0.028143475408072088,0.5825227674121426,0.027055584617635717,0.10625627841752427,0.5818166049430398,0.48874663043453154,0.022257913141121938,0.16933828387542377,0.0206691520471749,0.17279114528048675,0.0223323318932031,0.5395032307142233,0.11791240046710623,0.11232640553423207,0.47832352740162587,0.4833254907196739,0.4833254907196739,0.11835496536777675,0.582774421442482,0.583810833721772,0.5386413107402799,0.5358131142753974,0.08228108727122362,0.113093097718357,0.582526410239083,0.028545258077385924,0.1121359559533628,0.5811621336278717,0.5819157984836755,0.5339103589727068,0.11540475591344838,0.5827017923097708,0.08629884981614734],"Weights":[-0.3248419118513557,2.5077577781000255,0.12919630457051984,1.2926995771340908,2.482783867699213,-0.28078658228001496,-2.469620636322268,-1.2472074776080646,0.2924561396225334,-2.5860292862168195,0.44925208199982786,0.5952695287886648],"TrainRel":true,"LocalDeriv":-0.00017581146854295774,"WeightsChange":[0.007083547676605013,-0.014852550107327396,0.0026623309744623854,-0.013081110173859552,-0.004524949732895607,0.017791209330498492,0.013119821184926887,0.023341969880459664,0.006448767425568733,0.010089006666093617,-0.01901172469160513,0.014366980491516202]},{"Layer":2,"Node":3,"InputSum":[1.0538838897356768,1.0703715607980686,-0.2934647616339359,-0.3084180935145242,0.885606785146218,-0.31162417942454884,-1.509705317018751,-1.5423528693088402,-0.1987911090495115,1.3011029754584709,1.1131166782707516,-0.2892947936495733,0.9094657100606649,-0.18280818304422378,-0.29116986287277036,-1.5373387060519916,-0.28824061358341624,0.9121407421580137,-0.18135122837276513,0.9242456528058854,1.1104011835842054,-0.14261874915961836,-0.23784697875574634,0.8897345284414296,-0.3160880357894249,0.8926456068047885,-0.3034771685152533,0.9131309134936286,-0.02110675442987626,1.2803116208652419,1.2892651691920607,1.5393913232674414,1.5390314347863396,1.5390314347863396,1.0242619397666595,-0.26506765153888906,-0.2982356355899554,-0.07680492783942325,-0.08819955653303511,-1.591036236880883,1.095564895585533,-0.23758169804891657,0.9304987161146817,1.1025029529213046,-0.11696229696695352,-0.1445938640251589,0.07308415898929294,1.125235437341162,-0.18073209305152396,-1.5077256369613803],"RefInputSum":[0.7415200148896092,0.7446675699951056,0.42715584844109245,0.4235009111846835,0.7079827359460046,0.42271834468115,0.1809824692603291,0.1761934970974271,0.45046524122321363,0.7860205534826479,0.752709699909912,0.4281765220179608,0.7128908180635045,0.4544248060800737,0.4277174894209822,0.1769224816939909,0.4284346484486786,0.7134380249894419,0.4547860424324177,0.7159063963339789,0.7522038968951614,0.4644056250518085,0.4408169969905778,0.7088353855177352,0.4216294182275485,0.7094358310670633,0.42470768127038877,0.7136404169953039,0.49472350727870656,0.7825028165197416,0.7840227854695486,0.8233762241145415,0.8233238802269436,0.8233238802269436,0.7358019418764542,0.43411837777966766,0.42598885327907937,0.48080820147611747,0.4779643938937327,0.1692381556099421,0.7494281785983942,0.44088238901397314,0.7171764532262808,0.7507287897590844,0.47079271490944136,0.4639143834214688,0.5182629115054647,0.7549585444815168,0.45493956485591264,0.18127609825606303],"OutputSum":[1.10532291679853,1.1100147183954285,0.6367261015830405,0.6312779871318468,1.055331652585723,0.6301114795893588,0.2697756861519213,0.26263715910844854,0.6714714968540938,1.1716562107475619,1.1220024602179197,0.6382475357620644,1.0626477270450339,0.6773736946221326,0.6375632936124125,0.26372379650783834,0.6386323036086158,1.0634634034169783,0.6779121599509289,1.0671428016253892,1.1212485012520612,0.6922512808185326,0.6570896524762462,1.056602627195589,0.6284883064588896,1.0574976620060264,0.6330768200753317,1.0637650925390036,0.7374436550515844,1.1664126094929843,1.16867830223129,1.2273392374935854,1.227261212764172,1.227261212764172,1.096799455510289,0.6471045715936646,0.6349865578479222,0.7167012528385421,0.7124622226995603,0.25226940343644383,1.1171109662126995,0.6571871269888464,1.0690359710078883,1.119049680330846,0.7017719905088086,0.6915190273111465,0.7725319094711138,1.125354627915892,0.6781410032046833,0.27021337475304363],"Weights":[-0.7115431801404485,-0.1517028705709662,-0.11009981682801663,0.6725108380100764,-0.03294002469124332,-0.8529679228687811,0.4124351959542533,0.8481295940509769,1.1436748502152927,-0.1080146938142008,-0.5235728541824942,1.4906177778128893],"TrainRel":true,"LocalDeriv":-0.0005005243466000628,"WeightsChange":[0.0022202420656459347,-0.0014843358187806555,0.0060906341387760715,-0.005330152482783184,0.0025481136477330094,0.00715499331825218,-0.004302440538837775,-0.0029339507931751352,-0.020470343431897266,-0.004432328649948236,0.004564955293233536,-0.01362724082755387]},{"Layer":2,"Node":4,"InputSum":[0.9366168138910095,0.8965297281285651,0.18983778288931297,0.17374983055859317,-1.4482417214465377,0.20100055826921115,1.3683083773364706,1.443855668117728,2.164010834087502,-0.2373251967692443,0.8942736106460696,0.16169222364886715,-1.378380542107837,2.1621799669786923,0.16947290609592036,1.4288677541087729,0.16196178788232984,-1.3777864770039912,2.1613357530731983,-1.413769666486088,0.8950213299388218,2.1416332390402233,0.6309187466371475,-1.4442990957990918,0.21744364182866716,-1.4514539156157027,0.20372328178026966,-1.4392565286300592,1.6097698134286418,-0.18482085902071735,-0.2381020290287087,-0.7719680714218635,-0.7792528343345752,-0.7792528343345752,0.95907525511427,2.2270405898173804,2.2516979645448365,1.6586221644995527,1.6503746307128078,1.467746801420408,0.9203971576989345,2.2045564445065735,-1.4101936763755027,0.8732085900980869,2.097446654613824,2.1196630983760745,1.5811047491189294,0.8839327967146653,2.1481403780047565,1.4474454741603848],"RefInputSum":[0.7184157633000502,0.7102358389660728,0.5473174273682024,0.5433285087365571,0.19027231429713118,0.5500816396975121,0.7971067089859,0.8090510137401015,0.8969707971084496,0.4409456188480935,0.7097713078378316,0.540335215928883,0.2012692177256423,0.8968014759990542,0.5422671118739324,0.8067248374376228,0.5404021676968388,0.20136473653253287,0.896723319016786,0.19564016177135868,0.7099253108575141,0.8948843424364392,0.6526977560068852,0.1908804916266232,0.5541477285041453,0.18977790783513723,0.5507553992310812,0.19166050576508614,0.8333794255939074,0.45392586354727976,0.4407541287178401,0.31605352674231213,0.3144809397053107,0.3144809397053107,0.7229366175952603,0.9026516203878988,0.9047968974341369,0.8400529583166609,0.8389416764061586,0.8127146693485945,0.7151230224078609,0.9006579355395942,0.1962035103142589,0.705412899968688,0.8906547593381302,0.8927996894635425,0.8293609204948637,0.707636529797263,0.895494874330371,0.8096049786147552],"OutputSum":[-1.0388694513279242,-1.027040822365625,-0.7914516697968669,-0.7856834699299629,-0.2751444286923279,-0.7954488757221835,-1.1526609683648228,-1.1699331023579467,-1.2970700358366716,-0.637632073959448,-1.026369084323431,-0.781355000796034,-0.2910465672793289,-1.296825188024302,-0.7841486305895076,-1.166569321073489,-0.7814518168042494,-0.29118469282664444,-1.2967121686482885,-0.2829066369361268,-1.0265917813197016,-1.2940529054630625,-0.9438375301665555,-0.2760238871909795,-0.8013286679864763,-0.27442948924341426,-0.796423169762936,-0.27715183134455806,-1.205113349180687,-0.6564022351635999,-0.6373551685006406,-0.45703111024292614,-0.45475706126494914,-0.45475706126494914,-1.045406859972223,-1.3052848246329294,-1.308387015455879,-1.2147636514600515,-1.2131566755449754,-1.1752309536667298,-1.0341079634837256,-1.3024018446229069,-0.2837212704973126,-1.020066582314174,-1.287936691291338,-1.291038380447333,-1.199302365623999,-1.0232820756510084,-1.2949357687938359,-1.170734166609019],"Weights":[0.5974227799385978,0.9027604541932525,1.317007447988961,-0.36725966470277077,-0.3688763335840874,0.885943127204273,-1.6794075561877149,0.8918495675578786,0.45404959355480917,-1.0546092791506634,0.5747358143271966,-1.4460560366268504],"TrainRel":true,"LocalDeriv":0.011928719477455694,"WeightsChange":[0.005869991984421118,-0.009250247460371602,-0.008240828158178526,0.0009571700144132022,-0.0015973890867722,-0.003083438374090603,0.010825315869077395,-0.0023323915739884285,-0.0014304104403688885,-0.006184406699546827,-0.007505782457226732,0.012908906556052339]},{"Layer":2,"Node":5,"InputSum":[2.315760302776756,2.361590912010549,-1.0736615658918833,-1.0501791244003351,1.9081898792099856,-1.071348134932656,1.638531176738527,1.6185051004880835,-0.8264637544092116,-1.7858519216369162,2.3178255528853473,-1.0468010938192147,1.8667543080630573,-0.8681379178735178,-1.0540662826634293,1.6023279338850407,-1.047472075716387,1.867652350943242,-0.8675307840895743,1.950587054925075,2.3796094150766023,-0.8775198719100786,0.6655372478723329,1.9122987538044471,-1.0804845742337914,1.9015707166562592,-1.0772846294292364,1.9182815649200096,-3.043029835705229,-1.8169363053709275,-1.8179847345440605,-1.7083044862929124,-1.7040910112224061,-1.7040910112224061,2.2888782473245377,-0.8816143827750496,-0.9388855067663511,-3.0805057749277,-3.101164722236641,1.5688456495261538,2.3267824180563723,-0.8961197989983777,1.9570836771351017,2.359610409193498,-0.784967895109071,-0.8176047323236211,-3.0097123834025346,2.3155399386528273,-0.8489309067680204,1.6310036964483665],"RefInputSum":[0.9101739164806811,0.9138511361025421,0.25470737944250665,0.2591907054999047,0.8708156536012147,0.2551467907374119,0.8373349752931534,0.8345888617017447,0.30439330947826504,0.14358204334627683,0.910342622900511,0.2598398515747228,0.8660822769813161,0.2956419102244593,0.2584450277477064,0.8323434945716834,0.25971082705038323,0.8661864011384165,0.2957683540947619,0.8755106400678931,0.915259145477324,0.29369198587721657,0.6605031552499242,0.8712771806865122,0.2534143264409926,0.8700691964930162,0.25402021918521633,0.8719466832772175,0.04551935106805069,0.13980189827264744,0.13967586458938275,0.15338376102693982,0.15393171047671003,0.15393171047671003,0.9079517420597714,0.2928433508667832,0.2811255199850639,0.04391857314284208,0.04305923684922696,0.8276189842079014,0.9110709907675881,0.2898485320846495,0.876216992683966,0.9136950887369776,0.313250179863448,0.3062723451586595,0.04698902377505351,0.9101558984635255,0.29965717230692207,0.8363070887381284],"OutputSum":[0.24087643283657006,0.24184960458894836,0.06740800177453116,0.06859450862601837,0.2304603158798158,0.06752429144549221,0.22159969461418133,0.2208729389534388,0.08055732342885578,0.03799881516531137,0.24092108078776867,0.06876630435435196,0.2292076334475596,0.07824127613677752,0.06839716590531107,0.22027870524172252,0.06873215816909156,0.22923518978056398,0.07827473935504936,0.2317028384041728,0.24222223257735448,0.07772523100236943,0.17480136601703852,0.2305824584681178,0.06706579685211626,0.23026276690347994,0.06722614563850479,0.2307596415239095,0.012046641539348368,0.03699840431585377,0.036965049653088396,0.04059282796642348,0.04073784212959107,0.04073784212959107,0.24028833704744978,0.07750064076703966,0.07439953091071183,0.011622997585807364,0.011395575268748025,0.219028369253489,0.24111384246818762,0.07670806557655117,0.231889773774879,0.2418083068412431,0.08290128352906154,0.08105460796280084,0.012435588654498553,0.24087166438999008,0.07930391041997838,0.22132766567306156],"Weights":[-0.766281008717223,-1.1073820716777154,1.275418341312894,-0.017970185465146272,-0.626176750167946,-0.7934591138491215,-0.467391438809956,0.3136979848222168,-0.5382725708718362,1.5532343271799665,0.7463878716782673,0.2646487978560774],"TrainRel":true,"LocalDeriv":0.014673167273762196,"WeightsChange":[0.010825832727285236,-0.005249102944929115,-0.009978924787740304,0.00032475445233887124,0.005695944988097467,0.0035507338653988983,-0.00028061079333519185,0.006889258903320763,0.011626515744517337,-0.006562831026050296,-0.006227492297046216,-0.0010608274526695983]},{"Layer":2,"Node":6,"InputSum":[-0.6973562730769806,-0.7181801649477916,-0.01692861862884687,-0.021263725778473574,-1.868125288526248,0.07555595359006628,0.731690364400295,0.7092598576254373,-1.302971967084935,3.008975356675432,-0.7196259533763081,-0.06640791006969726,-2.019988802684222,-1.309871932148023,-0.03513528623783646,0.7269180430977092,-0.06540933194140264,-2.0217420117293807,-1.3096193369902744,-2.034332961220304,-0.7399200493955861,-1.289127888239825,-3.1239550420342157,-1.8939495760954745,0.12394492396929846,-1.843838080599102,0.08302760905585105,-1.901053230370369,1.6556363089854635,2.9239023711102545,2.9625541216006703,1.8378732109880909,1.8113554105172132,1.8113554105172132,-0.6755253669910544,-1.2619543762556766,-1.2509108148720163,1.7193670478072196,1.7694024464784852,0.7855914921913488,-0.7237228382753924,-1.2601749925388401,-2.0742438228922047,-0.765834906404648,-1.3390667673946421,-1.3329920418786254,1.6793172403170926,-0.7132669600453613,-1.3209015702516005,0.6898077198425481],"RefInputSum":[0.33239863652484203,0.3277938488256295,0.4957679464101387,0.49468426884443567,0.1337587913321725,0.518880007557029,0.6751761017520238,0.6702375947786525,0.2136652646672302,0.952977960368355,0.3274753558661881,0.4834041210344138,0.1171201487070781,0.21250827529742755,0.4912170819561104,0.6741285943346194,0.483653494646873,0.11693898325509079,0.2125505497899696,0.11564504609029122,0.32302162700476705,0.21600046136562429,0.042129876972274855,0.1307947968054272,0.5309466234089718,0.13659800155702617,0.5207449863576797,0.1299893159095002,0.839651359404853,0.9490154469996241,0.9508534884466546,0.86269698162411,0.8595256081072724,0.8595256081072724,0.33726072490120423,0.22063764070372588,0.22254251223336102,0.8480472901389947,0.8543833437099818,0.6868839555246925,0.32657371596031004,0.22094376970001273,0.11162550465673733,0.3173807875751075,0.20766357021174509,0.208664877080292,0.8428141013108774,0.3288773637288485,0.21066833478927954,0.6659241517084773],"OutputSum":[-0.17223877589775263,-0.16985271618080156,-0.2568917403265077,-0.2563302118577511,-0.06930970212597284,-0.268867701365436,-0.3498555424203551,-0.3472965596135998,-0.11071478518355081,-0.4938039429626704,-0.1696876829001607,-0.2504851853225756,-0.06068806796914245,-0.11011526878701881,-0.2545336219809174,-0.34931275621279473,-0.2506144030781002,-0.060594193589838474,-0.11013717413212872,-0.05992371504731584,-0.1673798972386683,-0.11192481247192029,-0.021830409758269952,-0.06777385109363536,-0.27512025151213826,-0.070780893761287,-0.26983407616485644,-0.06735647560445183,-0.4350815750532344,-0.49175069009965006,-0.49270310678882684,-0.44702310947812135,-0.44537980101523045,-0.44537980101523045,-0.1747581609319591,-0.11432765654241117,-0.11531470253013536,-0.4394320887836444,-0.44271523736240775,-0.3559221930639224,-0.16922048076205146,-0.11448628319665533,-0.057840911990649634,-0.1644569872996929,-0.10760489124074629,-0.10812373774126026,-0.43672041088020824,-0.17041416036284912,-0.10916186806263162,-0.3450614657453489],"Weights":[2.624688478430616,-0.2576101669402249,-1.8096249231720016,-0.21563873378718984,-1.2479354365711948,1.348053456515885,-1.6586938852464117,-0.268804372555389,0.7970556217056594,-0.22674733006207393,-0.38724566579277464,-0.5181693213259624],"TrainRel":true,"LocalDeriv":0.003695765392342608,"WeightsChange":[-0.021494501939598825,0.007536572630866858,0.00820348004446174,0.014840822733836998,-0.000159034108829995,-0.00908231541543692,0.003332323149460006,-0.006813715700726668,-0.01650475090001782,-0.004695512407482441,0.0007118336129691121,-0.002191848378550929]},{"Layer":2,"Node":7,"InputSum":[2.2720860296198784,2.3499809772177405,-1.0601239438417498,-1.0153431018447172,2.804753226598238,-0.9705868713671965,1.9277967184574556,1.8094234124504045,-3.3916941270455414,2.8973540007925465,2.28336232103228,-1.0450584855330811,2.4865493918578636,-3.4403827010001025,-1.0299977850222912,1.8176449931279317,-1.0451192737580688,2.4854478370539095,-3.4390855200867048,2.618089979597616,2.368501394313552,-3.38469381567115,-2.543174390179303,2.7737321769945757,-0.9496321972373714,2.833359004745521,-0.9734294198930723,2.7723601935912328,-2.3713514962698445,2.6783967291256814,2.8106973178368664,1.671544148754121,1.6425001885712753,1.6425001885712753,2.213719286705179,-3.492368299129357,-3.5735600032655537,-2.4107274112806634,-2.3732503392796938,1.7893850996084397,2.2790030850733065,-3.467414527783094,2.574792582595112,2.3121730340040743,-3.3034626448901747,-3.3596445854798294,-2.2714013445916375,2.2914369931678893,-3.416181723585723,1.8140406028530742],"RefInputSum":[0.9065386792873442,0.9129327155158458,0.25728576958060406,0.26593549988152004,0.9429321396994096,0.2747635417538731,0.8730053493270822,0.8592921740060165,0.032556054538119224,0.9477154806303821,0.9074897079326859,0.2601751356410482,0.9231934864457664,0.03105696568937085,0.26308453358643463,0.8602833048698499,0.26016343504883743,0.9231153417776632,0.031096024770262336,0.9320167844860613,0.9143936256509372,0.03277726038838094,0.07288637628436603,0.9412397441155929,0.2789587960990726,0.9444520866401781,0.27419747406875755,0.9411638172074479,0.08538353762282641,0.9357397848943404,0.9432511570466531,0.8417815876964145,0.8378748514624182,0.8378748514624182,0.901474760110427,0.029530157485889663,0.027290150047428657,0.08235832700169672,0.08523536761405721,0.8568518713897058,0.9071230900954436,0.030253743188130903,0.9292215477514105,0.9098801990004095,0.035452591035856115,0.03358075566849569,0.09351934769289794,0.9081653670981588,0.03179355543991599,0.8598495089333283],"OutputSum":[1.1283124511458729,1.1362707113442878,0.3202276350179076,0.3309934176817532,1.1736091334181602,0.34198113369586036,1.0865755958003398,1.069507657263323,0.04052050125916435,1.1795626611095928,1.1294961374975452,0.32382384969291766,1.1490416563277785,0.03865467837475482,0.3274449968123085,1.0707412563583527,0.3238092866917145,1.148944394507598,0.038703292789458915,1.1600234679884371,1.1380890155524708,0.04079582245705611,0.09071715058556967,1.171502713633639,0.3472027064997187,1.1755009170756412,0.34127658436785013,1.1714082121216853,0.10627159196169345,1.164657255616324,1.1740061945179792,1.0477133168657127,1.0428508446547906,1.0428508446547906,1.1220097051191906,0.03675435492925797,0.033966356643887724,0.1025062999899899,0.10608717394445881,1.066470363996684,1.1290398310210275,0.037654957160540306,1.1565444102453233,1.1324714334200379,0.0441256405326085,0.0417958831822125,0.11639772999855706,1.130337088541943,0.03957146593817116,1.0702013374694879],"Weights":[0.6349259764447002,-2.867773358364716,-1.4364538852868094,-1.1465970349520398,-3.4588486885377048,0.18581696552201882,0.7584422915829948,0.4442355335713778,0.210474468039125,1.704343398172652,-1.0013372278944648,1.2446379585621998],"TrainRel":true,"LocalDeriv":-0.008417289443202271,"WeightsChange":[-0.016150252498570914,0.012774431823225553,0.005216942915954332,0.018904310111542706,0.006872281436806871,-0.005796329647222364,-0.007482562601253188,-0.012357575022018171,-0.016029684821846094,-0.01093069165514432,0.0063129578459614425,-0.021978357795880556]},{"Layer":2,"Node":8,"InputSum":[4.619651224223653,4.682378369860159,-1.7556915768643704,-1.7156797504390806,4.17410758506911,-1.8080549008741496,2.3265052964466966,2.357855145924394,2.064239253524285,-3.50719456137646,4.73318391738755,-1.6793997736626973,4.116776659158842,2.0104121986002976,-1.709756165371959,2.2744421647887325,-1.6808185099023465,4.119143686003695,2.01095633288786,4.314932549431502,4.7175516790466405,1.9952405933389137,2.4208366157772048,4.191727721042607,-1.8534751957357056,4.154396615047134,-1.820707128756381,4.206449959362699,-2.689515817501157,-3.392804106955746,-3.4900902103260028,-1.710705589212544,-1.6736000248731917,-1.6736000248731917,4.630733453679739,1.9528724758058058,1.8775117268383834,-2.8514234085267356,-2.9241771330084516,2.212418058610893,4.6794947772432955,1.9421210919220298,4.346968115748193,4.756989603168251,2.139256106387939,2.09822807553838,-2.6808741762914967,4.753949243546878,2.0611213608674346,2.4119515332261847],"RefInputSum":[0.9902399641114371,0.9908279343639393,0.14733076092847072,0.15242847640863455,0.9848443108404111,0.14087337291596394,0.9110485356393927,0.9135565744952477,0.8873785281644009,0.029108215480412505,0.9912783239317979,0.15717496510531845,0.9839643714759241,0.8818859648379342,0.15319534491075879,0.9067381147842241,0.1569871151010467,0.9840016768257502,0.8819426317808751,0.9868088805463272,0.9911421305584367,0.8802964644571306,0.918402461955983,0.9851050744327223,0.13546538530947655,0.9845472759435332,0.1393490447517082,0.9853195591306402,0.06359484557314492,0.032521112569002565,0.029595513263014708,0.1530722199991976,0.15794479208921228,0.15794479208921228,0.9903464915456283,0.8757595184144977,0.8673250567522901,0.054607786042028685,0.050971260250705475,0.9013591272199453,0.9908016913257325,0.8745849826759471,0.9872194530864242,0.9914817498523321,0.8946605242388156,0.8907308378023518,0.0641114048469751,0.9914560335111756,0.8870665560462868,0.9177341392599513],"OutputSum":[0.767963793658401,0.7684197840062305,0.11425987052212579,0.11821331722294709,0.763779286361727,0.109251952870914,0.7065482256761586,0.7084932926338565,0.6881913532056271,0.022574382369047827,0.7687690759896814,0.12189437595433543,0.7630968643256226,0.6839316889606202,0.11880804907125915,0.703205351956484,0.12174869207250107,0.7631257958563773,0.6839756360462288,0.7653028750462287,0.7686634535310165,0.6826989789239588,0.712251438389292,0.7639815171389699,0.10505787988976303,0.763548925989976,0.10806978604041992,0.7641478571053058,0.049319902885656984,0.0252211967680922,0.02295229789188205,