[[{"Layer":0,"Node":0,"InputSum":0,"RefInputSum":0.008695652173913044,"OutputSum":0.0026030865780982708,"Weights":[0.09046524978879478,0.29876307532617735,-0.055557834391039985,-0.5394230721896253,0.2538019607389626,-0.032715604952348355,-0.8163994330241298,0.24132016882229354,0.10466508150331973,-0.4300666476433197,-0.3443025405951055,-0.30821631593433557,0.35022423516869755,0.16366841456859035,0.15538603472412219,-0.10107409416677342,-0.3082463220576327,0.061325813720494476,-0.4546626823955643,0.29935495034627024],"TrainRel":false,"LocalDeriv":0},{"Layer":0,"Node":1,"InputSum":0,"RefInputSum":0.008620689655172414,"OutputSum":-0.0029978150011400746,"Weights":[-0.1756345734475732,-0.008073644767878365,0.12872133505294925,0.09810081573325542,0.38641481402246913,-0.10281653441761072,0.11645308711726178,0.5686012731511986,0.12986080177197376,0.5292812921858868,0.16184703090384525,-0.5428086582455877,0.26732414827099854,0.24413164124122325,-0.22098010141326818,0.22353698563346502,0.9307647366908284,-0.7425619070264236,-0.1591330224519164,-0.3477465462143913],"TrainRel":false,"LocalDeriv":0},{"Layer":0,"Node":2,"InputSum":0,"RefInputSum":0.009523809523809525,"OutputSum":0.005998250186534108,"Weights":[-0.15119292256972183,0.6609742371696583,-0.34110647773386804,0.18591753515679346,0.5831862941956588,-0.46157613174346573,-0.32511605095338103,-0.8301994441182258,0.3096821025233095,-0.18105671902980508,-0.5752011613691043,-0.26606620344101684,0.00010546916462061638,-0.11281433463385465,0.3018495747712888,-0.5689224878297788,-0.25547765000057576,-0.4150203820252375,0.26714734875255397,0.6298162628667617],"TrainRel":false,"LocalDeriv":0},{"Layer":0,"Node":3,"InputSum":0,"RefInputSum":0.009259259259259259,"OutputSum":-0.0006486295674371356,"Weights":[0.44473993580804366,0.8692119807833905,-0.361086475557843,0.6494653743329376,-0.0861462403445845,-0.48977702544239154,-0.40740311319883865,-0.41095800625130224,-0.4917230535341453,0.2953716968891931,-0.25086601879025383,-0.4971433469382148,0.4348575728623108,-0.9173424841043761,0.14344819572415246,0.5907627679637294,-0.3847346557332192,0.47574178006015355,-0.5634548759280511,-0.07005199981588241],"TrainRel":false,"LocalDeriv":0},{"Layer":0,"Node":4,"InputSum":0,"RefInputSum":0.008620689655172414,"OutputSum":-0.005227311377281632,"Weights":[-0.007630788315698815,-0.8604199253250343,0.12212078429895054,-0.09816296671029429,-0.05853699255571061,0.2023870009359056,0.08803471727812133,0.5544958450021396,-0.5291388928517726,0.03798580818345415,0.23800093810945958,0.18321734030559164,-0.32307198467775444,0.29726652824260974,0.3290718391219578,0.5415829846878861,-0.33493933721078073,0.8509601644425796,0.4006187116945007,-0.606368125846812],"TrainRel":false,"LocalDeriv":0},{"Layer":0,"Node":5,"InputSum":0,"RefInputSum":0.008695652173913044,"OutputSum":-0.006820674642685864,"Weights":[-0.11649604003666256,-0.4006325503942051,0.6631595491897506,0.28332637668484373,0.3872713833517875,-0.5319720337969701,0.08667482686749123,0.28051783188708607,-0.6343506224983869,0.008715671433127632,0.3142945867968313,0.32616536453082406,0.02741646659119963,-0.3314420434466778,0.8914745984844507,-0.6892359920175712,-0.012420466632030279,-0.5417196930766468,-0.018454179811033065,-0.7843775900439052],"TrainRel":false,"LocalDeriv":0},{"Layer":0,"Node":6,"InputSum":0,"RefInputSum":0.009009009009009009,"OutputSum":-0.00476801679365791,"Weights":[-0.34330005228136795,0.1592956708973786,0.09445365785137712,0.12182247216394988,-0.7575509404868169,-0.6280226227278992,-0.43177475047491465,-0.7244740095090839,-0.7002486769190649,0.20273791937160265,0.5126880988778756,-0.3094227123105228,0.13093734976191745,0.41753723048570335,0.12256620638893247,0.31359223967491445,-0.28569767165052,-0.5323130284107629,0.4837985028149885,-0.5292498704521411],"TrainRel":false,"LocalDeriv":0},{"Layer":0,"Node":7,"InputSum":0,"RefInputSum":0.009708737864077669,"OutputSum":-0.0010116523935781593,"Weights":[-0.22972752874864824,0.5624745408773212,-0.47745625628660704,-0.38163271137665,-0.23252206908814516,-0.11556236167280694,-0.03142303780941746,0.4533855938300376,-0.2857052859031596,0.8067579336702171,-0.10230710572738665,-0.23807655480369752,0.3860558052508196,-0.21004319821865844,-0.4487345565502445,0.5158391160769519,0.39768146788822617,0.9358933243105827,-0.18551008224627272,-0.10420020338834217],"TrainRel":false,"LocalDeriv":0},{"Layer":0,"Node":8,"InputSum":0,"RefInputSum":0.009523809523809525,"OutputSum":0.005725292190559063,"Weights":[0.09286057244197639,0.7637990907594853,-0.20517911110157586,-0.43685808459711145,-0.03027517015530793,0.7135408769335054,-0.046466028810242525,0.007911483644206845,-0.000626743119720953,-0.2972950309231348,0.09934450285567793,0.47275602955961576,0.838727581817268,0.8769847952648753,-0.21020724906668467,-0.28355800099880557,0.46822521860844096,-0.7200238922404654,0.365807265292366,0.601155673289382],"TrainRel":false,"LocalDeriv":0},{"Layer":0,"Node":9,"InputSum":0,"RefInputSum":0.010101010101010102,"OutputSum":0.00959926187929469,"Weights":[0.19593376257213702,0.19799072788576152,-0.6184927119863585,-0.03858135597116414,0.6980457581629959,0.41142697995018795,0.45191221540992826,-0.17753662512620583,0.006088573427924856,0.2238466218620238,-0.7624656601260885,0.18629876437856274,0.24152062683874073,-0.3615903103736592,-0.21888981830229262,-0.5735826052761444,0.28074163444062133,0.18492199553354238,-0.2974426000095879,0.9503269189236233],"TrainRel":false,"LocalDeriv":0},{"Layer":0,"Node":10,"InputSum":0,"RefInputSum":0.010309278350515464,"OutputSum":-0.00035223970335879223,"Weights":[-0.16780590654918787,-0.6992460907579687,-0.06990299317654312,-0.6179933824317368,-0.17425553168279542,-0.3522632898929076,-0.039232249704432696,0.004171668854349778,0.3454289208518064,0.02551477321592611,-0.054163063844996806,0.022756639637614182,-0.2861345701405646,-0.26326605949590676,-0.011571166461975497,0.21611940195789967,-0.004177097509536024,0.021992766293367556,0.34483711045222387,-0.03416725849929304],"TrainRel":false,"LocalDeriv":0},{"Layer":0,"Node":11,"InputSum":0,"RefInputSum":0.009259259259259259,"OutputSum":0.005335919979078231,"Weights":[-0.7451065336279228,-0.17184104621942192,0.06758730486840392,-0.5121694396471567,0.23323842496866787,-0.5489770701941408,0.3386441538365432,0.3684592437044275,-0.4378921528000026,0.09532841922796641,-0.13564934294962241,0.652812891139764,0.13568185536316163,-0.20903922801255803,-0.13623597733134082,-0.6517564443261824,-0.47811885357493406,-0.42369997164754325,-0.17455154885268082,0.5762793512077773],"TrainRel":false,"LocalDeriv":0},{"Layer":0,"Node":12,"InputSum":0,"RefInputSum":0.009259259259259259,"OutputSum":0.003682369533322268,"Weights":[-0.7634279490902576,0.09525548064263607,0.6735478801852799,0.25804768822627955,-0.24282766784722148,-0.25406923070957704,-0.5170637865582075,-0.12574846670710105,0.015466253497926944,-0.010696656722625859,-0.26626195185932033,0.15192589748682608,-0.3581550898627316,0.7785653989798715,-0.20555582545887713,-0.13079638436303792,0.12883977219754328,0.3386001608002949,0.31066814040004204,0.3976959030661332],"TrainRel":false,"LocalDeriv":0},{"Layer":0,"Node":13,"InputSum":0,"RefInputSum":0.008264462809917356,"OutputSum":-0.0038198187492072496,"Weights":[0.1532892261675574,-0.43359593246715084,0.5268098779863376,-0.24265828082505345,-0.059932905981368106,-0.3098081227205055,-0.19592763792709944,0.9769781397432291,0.1722178256084756,-0.2771095973460293,-0.4190642361788471,0.15532083441715366,-0.22266480218701026,-0.026815391079065016,-0.15316358686458129,0.7237402261728481,-0.611224090195134,-0.717975099465726,-0.4464282813707802,-0.46219807448489164],"TrainRel":false,"LocalDeriv":0},{"Layer":0,"Node":14,"InputSum":0,"RefInputSum":0,"OutputSum":0,"Weights":[0.05278864046627707,0.03797841064962665,-0.5125802106279476,-0.45235588381274516,0.19010242285192652,-0.4127682633819898,0.17153682785173563,0.021990336489597584,-0.20927473336234476,0.4649603125319684,-0.30270450938423493,-0.3651377435500804,-0.15764270417044704,0.36451323313973427,0.3834773440078504,0.21432921297414842,0.1530406077571171,-0.07427062862331743,0.8199380950593764,0.3446011234403934],"TrainRel":false,"LocalDeriv":0},{"Layer":0,"Node":15,"InputSum":0,"RefInputSum":0,"OutputSum":-0,"Weights":[-0.3945507638690029,-0.43580458600516375,0.17275043521151479,-0.13504467153959954,0.8031533395701591,0.5352937592292331,-0.039496243633858064,-0.15537243045935378,0.5646873434483655,-0.7036402700196498,-0.08958553797266589,0.11495229671179297,-0.419715611684458,-0.9016841330584464,0.3609999996754553,-0.00714423168020073,0.5536769439375924,0.16321635761747166,-0.4316006861170937,-0.8951614851220371],"TrainRel":false,"LocalDeriv":0},{"Layer":0,"Node":16,"InputSum":0,"RefInputSum":0,"OutputSum":0,"Weights":[0.09526754222463474,-0.21259481242999068,-0.4450829317598777,-0.11642321281789997,0.07354934563118032,-0.6083546514153352,-0.4339612012889582,0.2595955971280512,0.1755776522775837,-0.46909950858078764,0.05487859894388597,0.2057522394065054,0.212709738888126,0.3534889648903637,-0.5463491268200196,-0.2590901958872709,-0.39342165805547147,0.38705441574259203,0.249997070748065,0.21227831348984239],"TrainRel":false,"LocalDeriv":0},{"Layer":0,"Node":17,"InputSum":0,"RefInputSum":0,"OutputSum":0,"Weights":[-0.638379317490153,-0.07323738145839492,-0.7441129132160313,-0.4295181453685945,-0.6715036069943972,-0.006515272491405044,0.5132594302048936,-0.6360825104255294,-0.4537822794799135,-0.02456238966911925,0.5238427962616983,-0.6251770252622357,0.44357519197992273,0.2928566408234601,-0.3449046949898176,0.44724057612777096,0.5378503217126116,0.012815379715024333,-0.7145533031902054,0.3461900488612778],"TrainRel":false,"LocalDeriv":0},{"Layer":0,"Node":18,"InputSum":0,"RefInputSum":0,"OutputSum":-0,"Weights":[-0.40382968004479747,-0.0019307628784605013,-0.6701016330812222,0.38784430820297877,-0.27574204657423446,-0.8770310553208356,0.15972172950628516,-0.2512462576194611,-0.024881109815580796,0.47135534896000264,0.5557738279832156,-0.14495794821847263,0.20770848792532326,-0.5172383860031782,0.11209136356731661,0.34237258634823897,0.868239646135264,0.16171424051509953,-0.05125518406480578,-0.4484224816693007],"TrainRel":false,"LocalDeriv":0},{"Layer":0,"Node":19,"InputSum":0,"RefInputSum":0,"OutputSum":0,"Weights":[0.7369741027746631,-0.042070952793358485,-0.3159484994319304,0.504518953539663,0.5346241610144096,0.744062620681532,-0.26118566273040844,-0.1754401809862393,0.0833875256447637,0.008495098760865516,-0.498408071957293,0.5116751341545045,-0.007727997885745075,-0.4499683884429064,0.19044245284011696,-0.26090875534273206,0.5153565867524905,0.11765841974794455,-0.012592661378938774,0.07142055057275938],"TrainRel":false,"LocalDeriv":0}],[{"Layer":1,"Node":0,"InputSum":-0.016018866130690004,"RefInputSum":0.49599536910067765,"OutputSum":-0.09986682821641903,"Weights":[-0.543962355419386,-0.6028687473587152,-0.8951552110741788,0.605623573881859,0.9357618541153986,0.3648698650498261,-0.384303238405935,-0.39121032905505443,0.22561626473201304,-0.6368428027960373,0.1862021893903328,0.2168816503269124,0.8611902795479491,0.45563825573769395,0.20540425213922148,-0.4822784187300863,0.4017365067833434,-0.3712355191753132,0.0909890173982499,-0.20134890779431672],"TrainRel":false,"LocalDeriv":0},{"Layer":1,"Node":1,"InputSum":0.010639326096863265,"RefInputSum":0.5026598064344732,"OutputSum":0.10377446035160946,"Weights":[0.3149269926328654,-0.000761463436987173,0.43472618194207785,-0.5335999210027097,0.33544520915698645,0.42769686509928356,0.4007902702409529,-0.015172724758384472,-0.29821396657465277,-0.1555713714838755,-0.18462943598727832,0.4907420167799458,-0.05329874189729303,0.4907355140869781,-0.06602653394059768,-0.5262648274765662,0.34991807529696767,-0.3895053510952985,-0.5042023788245629,0.2064480316407062],"TrainRel":false,"LocalDeriv":0},{"Layer":1,"Node":2,"InputSum":-0.0006366422405187618,"RefInputSum":0.4998408394452462,"OutputSum":-0.011875849869552278,"Weights":[-0.5544742175085493,-0.031032078542573577,-0.16397541282841985,-0.38746407907742225,0.48475047412905864,-0.2711783794401641,-0.15026355706114117,-0.3628937048816258,-0.29370487275103896,0.5891095368410135,-0.03442344626617658,0.36760426661916945,0.40948901911609553,-0.275224119110113,-0.04163442853990786,0.3302771273951587,0.38614102081349466,-0.44181221922633834,0.26799476887859186,-0.02376189929741159],"TrainRel":false,"LocalDeriv":0},{"Layer":1,"Node":3,"InputSum":-0.01233068069052147,"RefInputSum":0.4969173688856676,"OutputSum":0.002099377957029897,"Weights":[-0.15331834789468407,-0.015845775483162385,-0.1359377688388775,-0.03859993254106811,0.5771129566555661,0.08165131591218583,-0.11353004147870588,-0.4628662310859829,-0.46985184551747416,-0.35153615826313617,-0.028653731704837947,0.6951716422452222,0.5693911881932744,0.38533332088030886,0.43130574460890686,0.05693739668907068,0.8427861270087953,0.1907796584511398,-0.8066008883432573,0.0042221818688648475],"TrainRel":false,"LocalDeriv":0},{"Layer":1,"Node":4,"InputSum":0.008457388722240488,"RefInputSum":0.5021143345778329,"OutputSum":0.09821373626585074,"Weights":[0.28196354493273273,-0.5082357630385674,0.118414262613682,-0.8294438595635262,0.14853805587162044,0.5101742872370851,-0.6174161275158258,-0.07187871836647414,-0.5150335573450677,-0.08474053119142172,-0.7068166194590122,0.6913620535488378,0.40008800840226655,0.10047013465091735,-0.5141298413899463,0.06040025112802704,0.7435496582154308,0.5533003453533303,-0.6336202724556775,0.1955976949174702],"TrainRel":false,"LocalDeriv":0},{"Layer":1,"Node":5,"InputSum":-0.022438856112104034,"RefInputSum":0.4943905213354327,"OutputSum":0.08223608679032052,"Weights":[0.22367088214948497,0.6684695672592176,0.5984090821221576,0.3082812975204804,-0.47796999770918475,-0.037327592300564434,-0.5955106577955498,0.16263890179756063,-0.037232582950388025,-0.004450199264911136,0.26763893986062093,-0.25922865329760586,-0.3846747943571359,-0.4335595143801249,0.42716555290177194,0.2764501406975202,0.06422311294178604,-0.5422776390282189,-0.6058971647338829,0.16633570831570374],"TrainRel":false,"LocalDeriv":0},{"Layer":1,"Node":6,"InputSum":-0.015199629907847846,"RefInputSum":0.49620016567867054,"OutputSum":-0.1544713327653298,"Weights":[-0.19523412301446863,-0.30736222472514363,0.3714067485214962,0.2858559532401757,-0.15916513790487627,0.1215281714832998,0.055389713996126445,-0.4319920116518229,0.14636063028536342,-0.18027233243115795,-0.25261646754835293,-0.004669411822068088,-0.6355009642138114,0.5007840586140669,-0.39391131630176673,0.2551988370373023,-0.5385119557114072,-0.3035860332613076,-0.4305552196720985,-0.31131112430986857],"TrainRel":false,"LocalDeriv":0},{"Layer":1,"Node":7,"InputSum":0.009029345723466607,"RefInputSum":0.5022573210944441,"OutputSum":-0.4125742727707841,"Weights":[0.31477962446995783,-0.1627464853642684,0.23335269126266228,0.6359098442991226,0.29259631722311363,0.3454512657024782,0.39802115783788145,-0.8463886913608437,-0.15679772693740898,0.2458433705291859,0.8854864053342532,-0.5333998265316101,-0.13302634721074227,0.28741134600501406,-0.4724660206072414,-0.02840577060995529,0.21694946568087814,0.27669805036977696,0.009156712630891586,-0.821442686921255],"TrainRel":false,"LocalDeriv":0},{"Layer":1,"Node":8,"InputSum":-0.017605450262146993,"RefInputSum":0.4955987511151561,"OutputSum":0.16786927905640212,"Weights":[-0.39440560323905804,0.6996425992910674,0.31637446331422636,-0.061901470637626445,0.5868907551898686,-0.5407010717695387,0.4357142778947389,0.13664676743826676,0.25026344355336544,0.20177084537278403,0.6685807968182877,0.33600938479712855,0.09010404653063019,-0.1532220762563429,-0.4149762333301647,0.4078137864494428,0.7063864017768733,0.4614587066438734,-0.7606002235677775,0.3387175272941506],"TrainRel":false,"LocalDeriv":0},{"Layer":1,"Node":9,"InputSum":0.01008215721147703,"RefInputSum":0.5025205179520401,"OutputSum":-0.07503878826934107,"Weights":[-0.817682850183914,-0.1519710628914678,-0.5679149849707114,0.08628778892807364,0.03436441324360202,-0.5775670320532665,-0.04055912010876829,-0.7281451073248468,0.07189019091207868,-0.1320153411117361,-0.6960325618239269,-0.5050264513493955,0.9318662266134536,-0.1532742584543329,0.6380346644161909,0.16329226752762127,0.19379142728029017,0.47236081902833493,0.09546668724916979,-0.1493274753535805],"TrainRel":false,"LocalDeriv":0},{"Layer":1,"Node":10,"InputSum":-0.015488038695398236,"RefInputSum":0.49612806772555507,"OutputSum":0.4256680654401318,"Weights":[-0.27028837580217513,0.011928853127921276,-0.11504323500103629,0.37202811103020555,0.48415243607540026,0.16404875302150201,0.12371223731224464,-0.2434255040973635,0.18213143565799744,0.6861743986121535,0.1175495277362501,0.45861602515173855,-0.053649047291592054,0.4043037071908354,-0.6097282877120793,0.11865237591689555,-0.2617107315676379,-0.3968138068959555,0.3481378078776224,0.8579775965389099],"TrainRel":false,"LocalDeriv":0},{"Layer":1,"Node":11,"InputSum":0.00017377413127047346,"RefInputSum":0.5000434435327084,"OutputSum":-0.02715229352171657,"Weights":[0.057145470146767054,-0.8427637029648334,0.17562926150097136,0.5112293984825776,-0.40510951156649744,0.13555690722987332,-0.8883287866799894,-0.16482144612057728,-0.4779767071289783,-0.2730567186715397,-0.33328507715740385,0.11487968800206061,-0.0932698475519031,0.12879566986119478,-0.2987799961790681,0.31879309218896157,0.1857305053137126,-0.06827084303739427,-0.0913496201148513,-0.05430250663922745],"TrainRel":false,"LocalDeriv":0},{"Layer":1,"Node":12,"InputSum":0.015335939797498576,"RefInputSum":0.5038339098078966,"OutputSum":-0.013336068086284961,"Weights":[0.10722661165661727,0.49314600467072733,0.24023077777452959,-0.27234752617268015,-0.28025770005734424,0.30317322572375854,-0.6470159827858502,0.009407634515377978,-0.5498641060333794,0.6970346305105027,0.11098030884762466,0.38685762085933734,0.2111947480622597,-0.28179387639882364,0.20900477662718678,0.15781224204910804,0.32874304595446596,0.2966662965574782,-0.2589691813335021,-0.026471832856346078],"TrainRel":false,"LocalDeriv":0},{"Layer":1,"Node":13,"InputSum":0.002399834587018951,"RefInputSum":0.5005999583588144,"OutputSum":0.134003823622403,"Weights":[0.2491316463582412,0.936051232181555,0.26620667791530195,-0.3928617746342604,-0.43709912734498757,-0.21187995180828553,-0.01490275035108173,-0.30824558404044866,0.5826253460739649,-0.7306708032610798,0.04336125262850566,0.6857418640071993,0.2776682774523578,-0.8186498554146138,-0.43226561709134786,-0.7242221499383554,0.08201896483493377,-0.13711157042847472,-0.7159342822339144,0.2676838053159134],"TrainRel":false,"LocalDeriv":0},{"Layer":1,"Node":14,"InputSum":0.0022226699350963663,"RefInputSum":0.5005556672550123,"OutputSum":-0.3620424492468358,"Weights":[-0.6936356672275635,-0.30180433682640273,-0.42817267245112617,-0.406741444840336,0.25747378781472874,-0.26202738732301056,0.09057879747353687,-0.06484293302337618,-0.3223075787510883,-0.034026468455139874,-0.16291082452426434,0.433015360802162,-0.07226598385754342,-0.5468003245239179,-0.4778739438812981,-0.017832796984482997,0.380032052850354,-0.05089841040524861,0.12214108103463603,-0.7232837315103805],"TrainRel":false,"LocalDeriv":0},{"Layer":1,"Node":15,"InputSum":0.00007780281513526145,"RefInputSum":0.500019450703774,"OutputSum":0.3176746249218242,"Weights":[-0.4447483027308434,-0.134490660315023,-0.03165201043263478,0.5026550588561479,0.5766863148418016,0.7265309430464574,0.3579249493459577,0.45796246892716624,0.07606850683950726,0.29146231875793466,-0.16263248310330153,-0.7258636143182414,-0.21416246258499771,0.4705467801997555,-0.30026208718517705,-0.6018327183789809,-0.04118316372915457,0.6277839405858676,-0.06768884587857084,0.6353218973994759],"TrainRel":false,"LocalDeriv":0},{"Layer":1,"Node":16,"InputSum":-0.0033938368000435244,"RefInputSum":0.49915154161437664,"OutputSum":0.02310230181414993,"Weights":[-0.3556474590224309,0.5963263460674524,0.1301932220710541,0.10992031346019435,0.6578172722217639,0.32824378027793555,0.08082379754752275,-0.0013673606626186598,0.28257083788609244,0.258453608379513,0.09865145019561383,-0.4398637872694332,0.4175369949918206,0.7663892173316752,-0.31223335708180494,-0.46552045401558156,-0.1935148191963443,-0.6988791192798178,-0.0683173962931003,0.04628050942103646],"TrainRel":false,"LocalDeriv":0},{"Layer":1,"Node":17,"InputSum":-0.009984084117080332,"RefInputSum":0.49750399970454046,"OutputSum":-0.05694437790365744,"Weights":[-0.501068733670134,-0.5162041396960372,0.4362021960206252,-0.3038183299296846,-0.07954569651542014,0.6201601518852214,-0.04310840222132377,0.02899688230012754,-0.2649927958083323,-0.04555177618675043,-0.24688407480946062,-0.07886566637215875,0.7203019862806265,0.10362913488593903,-0.13871122470627312,0.24206304323978547,0.37408064486246984,-0.45834344076494904,0.20201866053114023,-0.11446276505572092],"TrainRel":false,"LocalDeriv":0},{"Layer":1,"Node":18,"InputSum":-0.0005424387450291591,"RefInputSum":0.4998643903170678,"OutputSum":0.12783365425965565,"Weights":[-0.6030683199634447,-0.5474074499817759,-0.3046359585481077,-0.0464883299107396,-0.8255423536155906,-0.7294907489514244,0.4261377882305664,-0.140698817650973,0.028188439412577638,0.7093350295072305,0.13509695107592376,-0.6446273513764709,0.16308606656962865,-0.03323084369404352,-0.39472218827386596,-0.06696089585247275,0.4648001890714147,-0.041276995946443344,-0.5321785953430035,0.25573403264894584],"TrainRel":false,"LocalDeriv":0},{"Layer":1,"Node":19,"InputSum":0.007298022118539813,"RefInputSum":0.5018244974317431,"OutputSum":-0.23338333859906343,"Weights":[0.6972163830503163,-0.4436767469361814,-0.7270276916707832,0.13538278130772624,0.01015334633390557,-0.39096911954693964,0.3496480250817093,-0.08825811280174034,0.36427870684343133,-0.23329040926895614,0.7774321347994984,-0.46070538392051247,0.2075497841770564,0.1704504180230792,-0.2877366102371525,-0.6524227704679845,0.2532913715413146,0.15516362460040076,0.15187232423997407,-0.4650722874153929],"TrainRel":true,"LocalDeriv":0}],[{"Layer":2,"Node":0,"InputSum":-1.6325561169986518,"RefInputSum":0.16348049964493525,"OutputSum":-0.061816730483722195,"Weights":[0.19535428948593248,0.12875914876769692,-0.3864983679454404,0.02144332151765303,0.24616485071313213,0.1876205845601166,-0.4158788588143892,0.6070185998189165,0.04246150728717812,0.21311475532434748,0.060730954673524885,-0.42540974077719057,-0.20827731121268775,0.355207782877422,0.1656058419191406,-0.14805361665286082,-0.6554114320991293,-0.19906473737340172,-0.3826797494371587,-0.378125685769268],"TrainRel":true,"LocalDeriv":0},{"Layer":2,"Node":1,"InputSum":-0.5836033415210926,"RefInputSum":0.3581038869684079,"OutputSum":-0.09787906986460389,"Weights":[0.6697443690130946,0.1537475411418136,-0.16108620491369163,-0.47244317966338867,0.17990424926302975,0.5184105502384573,-0.27054961058467164,0.09945509343019576,0.3008251136275638,0.35430285061938305,0.6511681469258193,-0.3004895525463712,-0.15661358626084204,0.433490904555757,0.3225077771258777,-0.4677833366176832,0.15106233879256303,0.151517537549146,-0.6126422765046754,-0.2733184783459691],"TrainRel":true,"LocalDeriv":0},{"Layer":2,"Node":2,"InputSum":-0.02700611747862436,"RefInputSum":0.4932488809417095,"OutputSum":0.08925102866332656,"Weights":[-0.31801108654176474,-0.5970765658261987,0.08709435119138183,-0.13121797235785093,-0.01559492852907265,0.5353678213858907,-0.7560130166839787,-0.10466586195523592,0.36175047167011715,-0.1794379933629521,-0.7373648822824156,0.8368885945207333,0.062389173611427366,0.16724615727062614,-0.2010707220311901,-0.14890438719926952,0.20126295179122977,0.013670322949321502,0.2658716600207011,0.1809554555789307],"TrainRel":true,"LocalDeriv":0},{"Layer":2,"Node":3,"InputSum":0.1316220913024177,"RefInputSum":0.532858099347594,"OutputSum":0.052273809314066076,"Weights":[0.19216127443582326,0.3512347929611048,0.1845029830776955,0.1738372655203554,-0.06854575373489867,-0.2578499099690791,0.4987643557636431,-0.410223284892194,0.277217457589773,0.2168508020522362,-0.6272337201893114,-0.16263446024840747,-0.6143937898463824,-0.43081592165316007,0.5392238937849908,-0.04359486197685521,0.5215158241164284,0.7681969429083167,-0.35861729991605545,0.09811186102053882],"TrainRel":true,"LocalDeriv":0},{"Layer":2,"Node":4,"InputSum":1.3522342069162492,"RefInputSum":0.7944946536601963,"OutputSum":-0.047613278847858216,"Weights":[0.1074483706228952,-0.001257663884312016,0.12009572871430094,0.0072784411744122035,-0.23457359924863,0.7464263821489037,0.52326780369748,-0.1349446788162791,0.1863038130242256,-0.18867725531024196,0.2863794278549109,0.4679891182157203,0.6290947683945474,0.32811688925932914,0.030451661943840726,-0.5026718732922476,0.31958506068334397,-0.4285328440673138,-0.5134514207754514,-0.059912528704912156],"TrainRel":true,"LocalDeriv":0},{"Layer":2,"Node":5,"InputSum":0.5537458283278456,"RefInputSum":0.6350042143585697,"OutputSum":-0.10674044388360633,"Weights":[-0.469002077057149,-0.02024757792273853,0.024357504658466866,0.48909507394269797,0.348791725969645,0.16828474159538093,-0.010709664967516805,-0.2860019777102252,0.36399877625189037,0.19739272732445876,0.9165160524731512,-0.24622015544714312,0.3070438562991063,0.7450515537921282,0.835406434929518,-0.35232254475823016,0.48293426886001517,0.04560977150924158,-0.5006509191619539,-0.16808089803991907],"TrainRel":true,"LocalDeriv":0},{"Layer":2,"Node":6,"InputSum":-0.3867641254799542,"RefInputSum":0.4044965137080809,"OutputSum":-0.18647864134531575,"Weights":[-0.8809076713445032,-0.09804709030538585,0.47622311933208583,-0.3679865138482333,0.9048467184423912,-0.15257463102591015,0.3150606819082212,0.07301083570684459,0.04972777562014903,0.4371935705470926,0.5611957480088341,0.36427749960022066,0.2963425010513981,0.088042576445249,-0.09565823220098602,-0.027071006592570203,0.13673012892110445,0.5414769559039232,-0.017655142724835423,-0.46100582001613155],"TrainRel":true,"LocalDeriv":0},{"Layer":2,"Node":7,"InputSum":-1.7634853793285803,"RefInputSum":0.14635435782692832,"OutputSum":-0.0903936517009948,"Weights":[-0.3832018050702601,-0.29794333451018684,0.3850089405331302,0.48108544477945736,0.43383806978497486,0.29991045586063714,-0.07956713902224005,-0.7843417355289443,0.758688521245985,-0.24930851822853087,-0.023903986836742518,-0.005105774789649875,-0.46456853005439463,0.6054503782301458,0.13369072557998116,0.1267361158306995,-0.7416530536477564,0.04225487512834269,-0.7217061303968784,-0.6176324960848848],"TrainRel":true,"LocalDeriv":0},{"Layer":2,"Node":8,"InputSum":-0.5924925177016986,"RefInputSum":0.35606315959023005,"OutputSum":-0.11246720537693361,"Weights":[-0.5405541038918965,0.7137378708275077,0.2264142984617105,-0.5208966507411248,0.5075524696482491,-0.014902220555038667,0.08522515324492844,0.10919885973584655,0.5087283074809963,-0.36199347366299056,0.613663299660085,0.3791189628753286,-0.7164684776560667,-0.4733573664270798,-0.46959323858130275,-0.09502353170045982,-0.41729068397216723,0.4150106923221589,-0.4805598189232061,-0.31585569075123615],"TrainRel":true,"LocalDeriv":0},{"Layer":2,"Node":9,"InputSum":0.4104974086484812,"RefInputSum":0.6012071421120097,"OutputSum":0.009160535412528948,"Weights":[-0.14377710811865024,0.3576812818604316,-0.014983839958757792,-0.3244853865984569,-0.136746335719811,0.24452334268552636,-0.2930916367653646,-0.3490786029832509,-0.16286995637654633,-0.33055428343777243,0.46612812769708056,0.22754973285167654,0.08003917069855508,-0.49399543658807565,0.6494858580944719,0.35740269437705724,0.239412313552948,0.1711648180122358,0.060300658197708135,0.01524937627235591],"TrainRel":true,"LocalDeriv":0},{"Layer":2,"Node":10,"InputSum":0.2369402830612513,"RefInputSum":0.5589594929249285,"OutputSum":0.16450659444060448,"Weights":[-0.3663027664356316,-0.007081505782640168,0.8102579312001468,-0.8234658222765466,0.27173198923004493,-0.6252370098280647,0.23189948278891717,0.46292980716718446,0.30353492860695597,-0.2101598301366428,0.1866965620482405,0.28707420419897894,0.35023962534618436,0.22739178847994612,-0.037391727047887145,0.15354704367292948,0.09067749527280669,0.8750013024232324,-0.5122726178239938,0.2943202114006564],"TrainRel":true,"LocalDeriv":0},{"Layer":2,"Node":11,"InputSum":0.6096194517309219,"RefInputSum":0.6478539889894019,"OutputSum":0.49795321210091914,"Weights":[-0.3540172891255031,0.11392893719766087,0.43448141117766154,0.39311211176030686,0.21461118316785147,0.14798264196686864,0.38946436204304963,0.7483029888448964,0.6454985767039164,-0.20826175666778504,0.31804186105067433,0.4012253404024475,0.19145564146196295,-0.014320707298276824,0.19242420138236718,0.398105555273372,0.23524922325414846,0.49375878330469963,-0.3198539177561578,0.7686329447984923],"TrainRel":true,"LocalDeriv":0},{"Layer":2,"Node":12,"InputSum":1.8107561409872406,"RefInputSum":0.8594532359123093,"OutputSum":0.6413943347848392,"Weights":[0.03621762267956981,0.5138009499925147,0.55607107786941,-0.25993206457752066,0.8189838929839109,-0.864394126632145,0.1572486967317002,-0.7236708152235273,0.15517604673574914,0.18719456489958816,0.24020817921206716,0.7636083987692014,0.6526681457482124,0.5962132625359287,0.9471120470232499,0.054526252618696786,0.7518732372206675,0.06757908687074894,0.1415111444288856,0.746299661181418],"TrainRel":true,"LocalDeriv":0},{"Layer":2,"Node":13,"InputSum":0.7803273952959705,"RefInputSum":0.6857506708305052,"OutputSum":0.045367326645656576,"Weights":[-0.1986350459790086,0.22449144484735803,0.5245326455592083,0.13927508973337974,0.21726705688008074,0.3140709138529458,1.0608075915767254,-0.4004613826423082,-0.06545564860068206,-0.7355292384282873,0.895461482165415,0.2008228228425097,-0.6289360772977269,0.5458460782024287,0.5052950180447745,0.08950580709073412,0.050596642132121825,0.5225270018677953,-0.033844958766608535,0.06617140062648355],"TrainRel":true,"LocalDeriv":0},{"Layer":2,"Node":14,"InputSum":-1.6214420886008496,"RefInputSum":0.16500608455770838,"OutputSum":-0.004027686569127455,"Weights":[-0.2630709555399058,0.21898114089464235,-0.048868493149348165,0.573387890029901,0.2091356369083608,-0.6547758475415449,-0.4795135922108545,0.46348956225513355,0.06626601570421264,-0.4311170556607049,0.05786760959399981,-0.10483240641731632,-0.3135961828852792,-0.5573193917226997,-0.38559966229384013,-0.34256446397360646,-0.722362242879295,-0.7658729192190245,0.30038809909842973,-0.024405898352112886],"TrainRel":true,"LocalDeriv":0},{"Layer":2,"Node":15,"InputSum":-0.5942884819493732,"RefInputSum":0.3556514835127459,"OutputSum":0.11206474018693516,"Weights":[-0.5976947378149208,-0.1936079232147402,0.948424479086216,-0.2742875806377749,-0.4913476928451289,0.44735691051258636,-0.30628466233970053,-0.25524907528632534,0.743020995020438,0.12985691461660787,-0.236509049649918,0.2644324421437798,0.24869512217588563,0.018559858238526662,0.8437094477423809,-0.3735182632334852,0.671634980534612,-0.7719462069686366,-0.48033590654691666,0.31510444763271456],"TrainRel":true,"LocalDeriv":0},{"Layer":2,"Node":16,"InputSum":2.4695721084216307,"RefInputSum":0.9219809913122397,"OutputSum":0.425319918259353,"Weights":[-0.21931207448068343,0.16161839758304616,0.5442828383385081,0.5898662394744014,0.14562717918802204,-0.26478753567531,0.7094038082924837,-0.4598628405237641,-0.4181172119143932,-0.4003778785452737,0.6519369845419992,-0.15794030062556255,0.5676675456715825,0.2843117020765848,0.8161751344385376,0.2794514644247089,0.47506398509291026,0.11382589026511648,-0.1341952205208812,0.46133006763027157],"TrainRel":true,"LocalDeriv":0},{"Layer":2,"Node":17,"InputSum":-0.42322014356420895,"RefInputSum":0.3957464554145266,"OutputSum":0.13424861648914763,"Weights":[-0.2955667960823819,0.34579769765459817,0.07345411540065047,0.057234939503994234,-0.02254684885802102,0.05569286226274862,0.26324922976140486,-0.10590499504938444,-0.35267240369797714,-0.12983821040522328,-0.28487676022869224,-0.3215726543464033,0.09017809031043432,0.7330379858266567,0.1406982149379313,-0.04289348834219107,-0.17206945460323964,0.8304557998483524,0.7918016708288356,0.3392370638760856],"TrainRel":false,"LocalDeriv":0},{"Layer":2,"Node":18,"InputSum":-2.0888455986065955,"RefInputSum":0.11018570651311817,"OutputSum":-0.022116867299607254,"Weights":[0.1921298299049502,-0.600491829421673,-0.1807828947328609,0.3876398652270706,0.6675903495677976,0.011497606552992737,0.6775347629465044,0.2453928778022172,0.2735857218423734,-0.5641508684471696,0.6492018365240473,0.09233041748890433,0.19378395939633386,-0.37236144392861437,0.4953501863231735,0.3665812621230565,0.21230490185710466,-0.22437095924143163,0.2853416177827393,-0.20072127437274676],"TrainRel":true,"LocalDeriv":0},{"Layer":2,"Node":19,"InputSum":0.03578981123039279,"RefInputSum":0.5089464978559991,"OutputSum":0.17973102335122004,"Weights":[-0.4311865326825853,0.2911518367501753,0.510616838605156,0.21398012583136997,-0.1277554979359317,0.009345600606857622,-0.08867476942507942,-0.9980539172818815,-0.11713465628189555,-0.478987395811826,-0.23728186194238052,-0.7894336841554295,0.41218816843469025,-0.413012723327196,-0.1319475196685466,0.9103277470764756,-0.19026716292371867,0.6092376800806709,-0.19836992185993718,0.35315381436328086],"TrainRel":true,"LocalDeriv":0}],[{"Layer":3,"Node":0,"InputSum":-1.9991444740339954,"RefInputSum":0.11929277602801235,"OutputSum":-0.010681632100905579,"Weights":[-0.22130998651668451,0.8026849889849514,-0.39963161901009486,0.022831655814241476,-0.6689624967379059,0.19929919351102957,0.8120163446986869,-0.10315111403546584,-0.12405833912023426,-0.4180455142156759,-0.2849667329097531,-0.07996174787208582,0.8526541518740643,0.16011209643477026,0.8992167000822606,0.12169793534845873,-0.6801526125806877,0.45035749054077573,0.35864275219600905,-0.08954058100010326],"TrainRel":true,"LocalDeriv":0},{"Layer":3,"Node":1,"InputSum":1.3412636070291775,"RefInputSum":0.7926976643535917,"OutputSum":-0.020391132930575345,"Weights":[-0.3002216622780275,0.44158312859461046,0.35045269282511293,0.25750868139062266,-0.25356208270959785,0.2101104248247807,0.571782841364925,0.19354771525972414,0.2953022905127454,-0.4867181609339144,0.0416648040740295,1.0112543510004033,0.13744153120625074,0.3583243727844226,-0.021063602053648794,0.6760879015868566,0.05248332116207243,-0.11761575109091951,-0.33755740618564956,-0.025718839159580998],"TrainRel":true,"LocalDeriv":0},{"Layer":3,"Node":2,"InputSum":3.1239410778959016,"RefInputSum":0.9578695595020125,"OutputSum":1.2445821611907,"Weights":[0.9584849439989812,0.8623442162764821,0.16360771399725133,-0.0914625843976374,0.3119213246855342,0.6278051178374974,0.6637157330378026,-0.26382991496266783,0.6663489444710072,-0.3714702205568835,0.4938893316279371,0.6400176871400378,-0.3387038363394125,0.38449374322304836,0.7583763689839085,-0.11522859424513897,0.0495661543826548,-0.193056751836089,0.10879525137660809,1.2993291189355565],"TrainRel":true,"LocalDeriv":0},{"Layer":3,"Node":3,"InputSum":0.10120476655078176,"RefInputSum":0.5252796183131997,"OutputSum":0.34398988154361215,"Weights":[-0.15098819104102665,-0.057196043530718214,-0.01014099297839423,0.4826369661367558,-0.2701788443427261,0.13701107832255485,-0.16747195102044607,0.6822752602501525,-0.4975056415938996,0.2934477256698727,0.341437099454593,-0.3026127614739842,0.24735250416781737,0.19464638832019243,0.42242239384225583,0.5614073136336227,0.23720988848603183,0.060911026606233196,0.8273779051110156,0.654873268495142],"TrainRel":true,"LocalDeriv":0},{"Layer":3,"Node":4,"InputSum":1.7609212344718557,"RefInputSum":0.8533250007698636,"OutputSum":0.22336551225064114,"Weights":[-0.5165799192005902,0.5283270126735764,0.06316614775457878,0.2545246315682512,0.5163564289265851,-0.359962661462159,0.22401212529350242,-0.1216424727750006,0.21477094188328552,-0.03847242323850913,0.8761984930216556,0.9484290728402094,1.0012515767962509,-0.2659831583250623,1.2122160535517132,0.4633116833010463,0.24688890211391196,0.49434092126493323,0.12111652356880585,0.2617642700395127],"TrainRel":true,"LocalDeriv":0},{"Layer":3,"Node":5,"InputSum":0.22063439444558836,"RefInputSum":0.5549359245997455,"OutputSum":0.10303895185931478,"Weights":[0.19353053270807777,-0.1801712129136923,0.4533470446157983,0.0351550169053131,-0.0665762798376164,0.32001404107977804,0.7332596363205264,-0.3466741112312391,0.7699591254585983,0.1535024763427807,-0.1458124396222717,0.722400269097432,0.5219500902175946,-0.5694181487872407,-0.19134890081937925,-0.3904939063126962,-0.6650802156706564,0.1119872508687845,-0.006116630495818909,0.1856806227964087],"TrainRel":true,"LocalDeriv":0},{"Layer":3,"Node":6,"InputSum":1.9510347394701488,"RefInputSum":0.8755594257918277,"OutputSum":0.697651175056038,"Weights":[0.3465844575142312,0.07746718981192979,0.4014900588817087,0.16920177585293,0.4993480230553096,0.25889834538564094,-0.059066946734659204,0.3438664741516759,0.13257282905860054,-0.7128193087686546,0.5659706547595258,0.18102522096332377,0.579336777921663,0.8773175831572031,0.019584222637476858,0.6298661527781261,0.4377767319569607,-0.5303377295218866,0.05043549812060877,0.7968115868402417],"TrainRel":true,"LocalDeriv":0},{"Layer":3,"Node":7,"InputSum":-1.7946154014609892,"RefInputSum":0.14250779343484354,"OutputSum":-0.056762450640389664,"Weights":[-0.36516550697685474,0.6423882922765578,-0.6902586515570438,-0.12298785380920593,-0.038521235665555945,-0.2457408499939592,-0.4572458326142055,-0.4078057239104906,-0.3431843904208846,-0.17497658875853178,-0.6151591602270203,-0.09120711075633298,0.2752187247820427,0.902662301836184,0.1341261124897912,0.30455844691120026,0.4717403037140988,0.29779075773589736,0.26719937365292223,-0.39831032550865764],"TrainRel":true,"LocalDeriv":0},{"Layer":3,"Node":8,"InputSum":1.4311897536173082,"RefInputSum":0.8070866254752586,"OutputSum":0.07558855833025468,"Weights":[0.3451108501405092,0.1775330458011509,0.06209436161721415,0.9243531195374113,0.5967570762468922,-0.15658266924844047,-0.3879077790541167,0.5607813575228123,0.12580794240416993,-0.32951621914500645,0.8495155258392361,-0.3138557421870642,0.2462898517720247,1.0527122128356305,1.0432825014912692,0.2341875516577462,0.5711025743592275,0.11501293881735214,0.6735237961432101,0.0936610357358435],"TrainRel":true,"LocalDeriv":0},{"Layer":3,"Node":9,"InputSum":-1.370311492480807,"RefInputSum":0.20256952479646567,"OutputSum":-0.09602067241221696,"Weights":[0.597523769891956,0.5385661200822801,-0.5591936730192609,-0.21966204131549566,-0.16630954427004999,-0.01852270882636456,0.16854042936564048,0.04583586244790153,0.11039014309103916,-0.6377479854432913,-0.060590107305098145,0.07408206190123565,0.14101570381889755,-0.3191973698230638,-0.055554932212088855,-0.14623046629535796,0.20087571959600706,-0.7372747370771983,0.06896506126175589,-0.4740121686045385],"TrainRel":true,"LocalDeriv":0},{"Layer":3,"Node":10,"InputSum":2.572356106320916,"RefInputSum":0.9290611357997052,"OutputSum":-0.18120524594933246,"Weights":[0.03418684748262331,0.32188655668671856,0.7874382249594144,1.0334236149488358,-0.10901086716689466,0.17137718655012782,0.6595901758342686,-0.12075463577424547,0.1637401743491476,-0.2845479652732174,0.03983541688382577,0.4771099031255199,0.09172210950752006,0.8626330538208314,0.6896039590770192,0.5120959504872998,1.0665132159134847,-0.3160888087027971,0.2479324068838471,-0.19503553003632546],"TrainRel":true,"LocalDeriv":0},{"Layer":3,"Node":11,"InputSum":1.409419394208841,"RefInputSum":0.8036743507076766,"OutputSum":0.24457474390541553,"Weights":[0.07232677099931989,0.01771800742240437,0.43827615215400223,-0.11031356810863553,0.45171449697018223,0.17097407154350264,0.7392249116498308,0.05888466990153564,0.4950427713951366,0.1861245863354191,0.12949836570328532,0.2237438350962729,0.30321070349661633,0.268449580172967,0.22511368735863516,0.20349394260276904,0.6847330963866484,0.11247224547616376,0.589036421969503,0.304325652282433],"TrainRel":true,"LocalDeriv":0},{"Layer":3,"Node":12,"InputSum":1.4291637740321763,"RefInputSum":0.8067709886360988,"OutputSum":-0.21146894637051936,"Weights":[0.2368055889037573,0.16409739587901567,0.19210529138891458,0.5704023923694373,0.19724849139137493,0.24142383375504448,0.7567650517994541,0.4186789655990927,-0.028417744668255328,-0.40402162369975664,0.42804688997769014,0.3061718789703136,0.7999660810797193,0.40231709165864926,-0.09087460035014248,-0.06908183910426335,0.10103579662525368,0.23892987868881174,0.5032602271124214,-0.2621127203945545],"TrainRel":true,"LocalDeriv":0},{"Layer":3,"Node":13,"InputSum":1.6788713739413297,"RefInputSum":0.842755024576951,"OutputSum":0.8350705701386156,"Weights":[0.07642469085962893,0.6261338030524077,0.24928289469552656,0.18143691810485663,-0.10208671530569707,0.5562568640726473,0.36959768384837266,0.480336918895942,0.44381438842413884,-0.4521388799267654,0.8914009957606762,0.23743353712030146,0.2864555780445317,0.12762741610234843,0.02867671903656409,-0.37227717332550575,0.6991637616182936,-0.3856175060558766,0.30247408533444864,0.9908869352052153],"TrainRel":true,"LocalDeriv":0},{"Layer":3,"Node":14,"InputSum":3.3858130042628662,"RefInputSum":0.9672582026009282,"OutputSum":0.2735767928824497,"Weights":[0.939749473860725,0.4488262476948126,0.6208487405216928,0.6360736145438239,1.0391548863041904,0.703824114371521,0.3201286839347753,0.5253961294011446,0.3681400658109729,-0.5073371926081334,0.8004399972961919,0.26040056252562593,0.31662605104686137,0.5625094721869979,0.49290855898741104,0.7363307588822495,0.2180067825504662,0.03823431973631484,0.6360349313148204,0.2828433535659305],"TrainRel":true,"LocalDeriv":0},{"Layer":3,"Node":15,"InputSum":0.2842605356552778,"RefInputSum":0.5705904400319672,"OutputSum":0.20525725536930006,"Weights":[0.44399671305561084,0.022908896151812026,-0.34324477169824313,0.2741113168707416,0.12631318170361994,0.24866421455780482,0.691724042037031,0.13677201249489523,0.6651474122570504,0.45642207036000354,0.3016749474307142,-0.29833069478660806,0.7259555441268178,0.03215209574468574,-0.5240189270385437,-0.5575476931073956,0.13983444625177543,-0.6694531126862558,0.39629875790051505,0.3597313338848397],"TrainRel":true,"LocalDeriv":0},{"Layer":3,"Node":16,"InputSum":2.126808762407092,"RefInputSum":0.8934816724614583,"OutputSum":0.27503417487165355,"Weights":[1.282300690664291,0.1877876453672083,0.8310329668361374,-0.06137299096642049,0.8113714069940093,0.1210615490528885,0.24218699376084957,0.34102498285495836,0.26306306345851516,0.015398795655324787,0.3774525911961042,-0.03291910303451122,-0.18143470898849742,0.0196234608418585,0.5335190752504907,0.34056502019064844,0.5395041166436728,0.7901186934491428,-0.22247846529244836,0.30782846358941274],"TrainRel":true,"LocalDeriv":0},{"Layer":3,"Node":17,"InputSum":2.14553717564025,"RefInputSum":0.8952510058116394,"OutputSum":0.3385528029209898,"Weights":[0.7667967306889484,0.45935424217887594,0.14864940258291007,-0.18278090056737473,0.0184086238729276,0.3434141793170864,-0.110309173285774,1.0787396752115026,0.5814265431602349,0.05896999534159627,-0.057815382177111255,-0.007145788670449331,0.274089656027379,0.32637626829291977,-0.12017169238451329,0.4095134413417746,0.20690873277707544,-0.04597816996355555,0.4379143209659047,0.37817074297417436],"TrainRel":true,"LocalDeriv":0},{"Layer":3,"Node":18,"InputSum":-1.7116189290895507,"RefInputSum":0.15295385111369075,"OutputSum":-0.08154352312232435,"Weights":[-0.7362874306083664,0.6470303309439176,0.4592245317331964,0.2190635233930757,-0.06448369431902083,0.5124424418888355,-0.12877876727836488,-0.6666806364289827,-0.06254077902380445,-0.2222456065533519,0.16097763447759092,-0.4046855477076627,0.23741362385905823,0.12317012031850141,-0.07612881757718623,-0.5404872608961372,-0.2287378752868174,-0.4948390075927158,0.838986694306545,-0.5331240663384545],"TrainRel":true,"LocalDeriv":0},{"Layer":3,"Node":19,"InputSum":1.621737564276827,"RefInputSum":0.8350346217785772,"OutputSum":-0.0749570435964457,"Weights":[0.34209751072051414,-0.08356017740513941,0.49555275690986494,-0.06448806836116426,0.45607813033731964,0.902184175822658,0.2582196699437725,0.32619597819869733,0.5914799067400707,-0.4370800324731839,0.342852979386908,0.3745125107971366,0.34616979991690294,-0.21870271631435007,0.6096455359860753,0.7166503216437118,-0.1041201689098272,0.1453214613805671,1.027258727032356,-0.0897600507907548],"TrainRel":true,"LocalDeriv":0}],[{"Layer":4,"Node":0,"InputSum":4.404757279784346,"RefInputSum":0.9879284314924851,"OutputSum":-0.5257757795425843,"Weights":[-0.8063776897582817,-0.20369715419539622,-0.06677978171053442,-1.003733741683979,-0.14430849656392716,-0.38757283642194584,-0.49582540716680645,-0.8822387810259357,-1.1099843838807073,-0.6844308220762477,-0.6994693598568742,-0.7272827854780844,-0.16570208610043355,-0.34652929121507786,-0.45398662818118707,-0.9947230138988095,-0.47337544744626653,-0.3748622262830433,0.2453483373644477,-0.532207438649374],"TrainRel":true,"LocalDeriv":0},{"Layer":4,"Node":1,"InputSum":4.03310252332129,"RefInputSum":0.982589235895647,"OutputSum":-0.44783819174359957,"Weights":[-0.7290660797784102,0.39975335651545846,0.3542685845724575,-0.6587157304413811,0.07050021602557886,0.18387421157314982,0.33886860998179746,-1.363561021028826,0.24230361678080592,-0.1030394314334827,-0.4368016906769132,-0.035073537742321206,-0.026312716516405234,-0.6075122337906755,-0.767314441629886,0.04386238686974297,-0.27060666911267256,0.07751004289960217,-0.44114726988146546,-0.45578068597540744],"TrainRel":true,"LocalDeriv":0},{"Layer":4,"Node":2,"InputSum":4.0899397212028825,"RefInputSum":0.9835353791378554,"OutputSum":0.558836025910073,"Weights":[-0.42122826796054974,0.3915415924861631,-0.3726358883046255,0.04560224675775254,-0.35700117112759,0.3333933793259698,-0.06885063719925642,-0.25375420410274685,-0.742995489577864,-0.9753861949330449,-0.9925595375688887,-0.6200491592655023,0.44611882069402153,-0.36166831119839954,-1.1512609460313317,-0.825047955456539,-0.21539703822149892,-0.40593957707187334,-0.6459023925194619,0.5681839413642792],"TrainRel":true,"LocalDeriv":0},{"Layer":4,"Node":3,"InputSum":3.4588769354942106,"RefInputSum":0.9694947699906039,"OutputSum":-0.37590114946415804,"Weights":[-0.2660379654832531,0.08342891752732334,0.2691901490837391,-0.12689685611351523,0.13542208441680767,-0.7146040441323244,-0.24027829282671523,-0.017921729510095786,0.3430298326275767,-0.08583935389818599,-0.06946331716646058,-0.8602976723327957,-0.3183083533806619,-0.05084804156880106,-0.29792561711331594,0.35985324468603974,0.029904707840563302,0.12456990617816595,0.26831881244172456,-0.38773594235399206],"TrainRel":true,"LocalDeriv":0},{"Layer":4,"Node":4,"InputSum":3.6836538023325116,"RefInputSum":0.9754851003004545,"OutputSum":-0.4575436484314762,"Weights":[0.188109108909724,-0.040736729734675216,-0.071513649613691,0.018747482870911294,-0.7499523364072194,0.3519364096797314,-0.15973253217740485,0.1441417607287513,-0.18912774394960044,-0.7077846817710017,-0.25632615600800596,-0.4248923022049899,-0.5191679831635776,0.5945550689444027,-0.4651763245524595,0.10928827868213539,-0.8584623888940647,-0.37045147414817686,-0.47492580991660677,-0.4690492469852568],"TrainRel":true,"LocalDeriv":0},{"Layer":4,"Node":5,"InputSum":3.825554065189996,"RefInputSum":0.978659018861193,"OutputSum":-0.4437604789323329,"Weights":[0.2685674735119512,0.8764284594839761,-0.04908728502597524,0.1625931719927115,-0.505085085763014,0.17576188871692125,0.5944858696103119,0.3068468452794557,-0.6806770897749622,-0.6247752908483265,-0.18939980556538555,-0.7837840300048008,-0.011105068577902426,-0.8595977196915554,0.20995105929027988,-0.36800123779928795,-1.026436552437677,-0.06594191302462411,-0.903598012091501,-0.45344437509393504],"TrainRel":true,"LocalDeriv":0},{"Layer":4,"Node":6,"InputSum":4.446679356334835,"RefInputSum":0.9884182958082038,"OutputSum":-0.6131434239202356,"Weights":[-1.2140377115298744,0.3730644216682089,-0.14678843672857303,-0.681892695602668,-0.18187239733310673,0.1403832034549392,-0.6486269324940167,-0.9434700723459617,-0.3642108591134399,-0.18510812895722334,-1.0588473350612384,0.43266458379526357,-0.8200138792312603,-0.6388967350290038,-0.24992685137493043,-0.20077718306972736,0.027827592355389515,-1.1772350260935132,-1.1429966353281735,-0.6203350485265213],"TrainRel":true,"LocalDeriv":0},{"Layer":4,"Node":7,"InputSum":3.3599859854445606,"RefInputSum":0.9664303220507057,"OutputSum":-0.38687332405352653,"Weights":[-0.38885043100895317,0.3357931300474839,0.1504604224644644,0.3545551084729476,-0.12210415104266309,-0.12265393780074797,-0.12670223544417084,-0.5167788229015206,-0.46878713593121135,-0.18653735588747097,0.6120550268096847,-0.30571160972372907,0.22311946796369753,0.7506270972708579,-0.24368635160231303,-0.46311448437339375,0.007873134589848573,0.5652221423548339,0.045832264136314915,-0.4003186685818496],"TrainRel":true,"LocalDeriv":0},{"Layer":4,"Node":8,"InputSum":4.274204961285906,"RefInputSum":0.9862680773861066,"OutputSum":-0.45862616816366986,"Weights":[-0.3053491835289119,0.4588038224260609,0.4592352764614401,-1.0404840385887653,-0.3404794632840731,-0.2908991289351632,-0.1860906968799329,-0.6625467056680221,-0.7848331351087956,0.11772863305132593,-0.7706637383583084,-0.5217710723051305,-0.09223338711067701,-1.0136175397143077,-0.09280557152275357,0.2010128999332672,-0.14079443501970054,-0.7237848324183453,-0.6078686634262618,-0.46501882748791773],"TrainRel":true,"LocalDeriv":0},{"Layer":4,"Node":9,"InputSum":-3.01289262634969,"RefInputSum":0.04684681413853193,"OutputSum":-0.008398233670002388,"Weights":[0.09726449582277658,-0.615472400496336,0.16551929305500074,-0.03400857827903919,0.13565724614706157,-0.28275454330241767,0.1627228450427441,-0.07199979084718841,0.1841088243628953,0.11418529442000026,-0.8029366201386392,0.07187438770077581,0.054545734071754434,-0.12634472757388973,0.25152219001971304,0.7818365339844738,-0.3167353541657598,-0.07981138743440572,0.5438357285472701,-0.17927045297856659],"TrainRel":true,"LocalDeriv":0},{"Layer":4,"Node":10,"InputSum":5.1797314489346755,"RefInputSum":0.9944019960397101,"OutputSum":-0.9605649870871505,"Weights":[-0.465155583654478,0.31016292396598183,-0.48812246218110483,-0.8200081431143179,-0.1220987672420358,-0.8573155126294523,-0.759270619685898,-0.30049068086726216,-0.37250889014746336,0.165731982773731,-0.7687791196907439,-0.5173937553483738,-0.9285506675259324,-0.5775320233627687,-0.7781623279569964,-0.7510803183863958,-0.988834305543046,-0.6074380362435715,-0.4874534270936786,-0.9659797190277365],"TrainRel":true,"LocalDeriv":0},{"Layer":4,"Node":11,"InputSum":3.7306648831064404,"RefInputSum":0.9765845411434778,"OutputSum":-0.2372053835266009,"Weights":[-0.3526862160991437,-0.14307849324627853,-0.21519772223430164,0.4047478654723059,-0.02799235133450894,-0.8162631095389636,0.39624723282964286,-0.21196815300427257,-0.2217245860793145,-0.4157063934051267,-0.363550679237986,0.019124936505197896,-0.5234452882270489,0.4432599330024405,-0.06729230573042587,-0.43255119301378947,-0.19610264381489895,-0.3365059919618202,0.10788086087890106,-0.2428999153810564],"TrainRel":true,"LocalDeriv":0},{"Layer":4,"Node":12,"InputSum":4.278675470116161,"RefInputSum":0.9863284916496727,"OutputSum":-0.27231172924455577,"Weights":[0.27806258412105306,-0.2241794681477876,-0.29122149299820943,0.05332981240462873,-0.07413419052012375,0.47131704208978,-0.7794648382207204,-1.0906453115599033,-0.5220002371524154,-0.27952275446714775,-0.27298768873272017,-0.8064466863900189,-0.5370617829972,-0.7860847082096034,-0.34127267651649323,-0.3628537709196707,-0.39148900496242317,-0.47697324763501,-1.008457902002381,-0.2760934001053035],"TrainRel":true,"LocalDeriv":0},{"Layer":4,"Node":13,"InputSum":4.069762152616415,"RefInputSum":0.9832054249054862,"OutputSum":-0.20479782994148332,"Weights":[-0.42420303663600506,0.148754894315949,-0.9483994090567979,0.28896982891016787,-0.5015783312932702,-0.2557651777265941,-0.7015272802525243,0.13338552994087954,-0.9294842003475289,-0.6987131645951296,0.3370255018016058,-0.17221579902401316,-0.3309813397692387,0.07653902103958332,-0.09218215746639678,-0.7531258753604486,-0.07847057421913324,0.22358339218885118,0.051823949214019775,-0.20830320680309328],"TrainRel":true,"LocalDeriv":0},{"Layer":4,"Node":14,"InputSum":4.65074542376935,"RefInputSum":0.9905359469376308,"OutputSum":-0.9906254251464471,"Weights":[-0.1333228125833634,-0.04473056812311199,-0.8052449254542324,-0.4979467757944657,-0.9227529544588188,-0.6478599366912712,-0.20239484236569963,-0.14039174521607328,-0.6913544828105568,-0.18525092596200157,0.30456047875518094,0.18130079377964048,-0.5960190057522045,-0.6394740724828577,-0.757380148493108,-0.09336527438924874,-0.19259541441667224,-0.6870683488915869,-0.9229190613735582,-1.0000975191115977],"TrainRel":true,"LocalDeriv":0},{"Layer":4,"Node":15,"InputSum":3.51798338290245,"RefInputSum":0.9711951425075116,"OutputSum":-0.22636339582368606,"Weights":[0.0727742579421323,0.4430223353864428,-0.3137906154860854,0.16659866289215275,0.12778733014560173,-0.3803238482557097,-0.47932909177930355,-0.33893424160282953,0.5179076181212793,0.25808332345896173,-0.14140140394976514,-0.11487022725228777,-0.020114938856755686,0.44641086630759497,0.05424862531263793,-0.14841155192425542,-0.12827277170893636,-0.5891759948221348,-0.1366699160814497,-0.23308419558628374],"TrainRel":true,"LocalDeriv":0},{"Layer":4,"Node":16,"InputSum":3.973978795249139,"RefInputSum":0.9815483738848977,"OutputSum":0.3259966201537792,"Weights":[-0.24945359481761784,0.33000693813535265,-0.4760857851959146,-0.3731902468597238,-0.09364383826453022,-0.6217910903742979,0.025697781300896907,-0.16258690168644188,-0.6988249764033446,-0.17621646492068352,0.2652227668505733,-0.5929564440915321,-0.32099164681800935,-0.5840591115787124,0.21763259690744663,-0.06747463853160249,-0.07427660888281488,-0.31536651278810623,0.39895432783548596,0.33211774318359055],"TrainRel":true,"LocalDeriv":0},{"Layer":4,"Node":17,"InputSum":-0.15840817919678454,"RefInputSum":0.4604805596014739,"OutputSum":0.060236341247015796,"Weights":[0.022488601997518412,0.5247207274838754,0.10758418807066056,0.2690470985905958,-0.08527845511279591,0.39027093735746077,0.24059755329404708,0.15658678771110218,0.27620635773459,-0.5425071043010481,-0.0341335990341129,-0.13781664189511528,0.13963310703398768,-0.06205596095611526,-0.3266968979980672,0.4643710099351922,-0.34724898032843404,-0.07768733882184116,-0.8839155934412654,0.1308085687862633],"TrainRel":true,"LocalDeriv":0},{"Layer":4,"Node":18,"InputSum":4.439251045042384,"RefInputSum":0.9883329504561805,"OutputSum":0.126879730440115,"Weights":[-0.7889316176865966,-0.05584075519364216,-0.590984778575862,-0.6189629831426534,-0.12003716657907068,-1.2530394645731622,0.7448924156633042,-0.20053390063424245,0.47740657361091227,-0.6399633478618083,-0.4712829464041557,-0.3693690125288102,-0.8301313925670566,-0.6100070003583244,-0.30446314167277355,-0.9481217644535912,-0.5282288547882481,-0.4052613154420575,0.03212300345618423,0.12837034729137853],"TrainRel":true,"LocalDeriv":0},{"Layer":4,"Node":19,"InputSum":4.127251933196276,"RefInputSum":0.9841288202495949,"OutputSum":-0.4666174935435621,"Weights":[-0.18649059168577467,-0.41131252526574513,-0.39021114259503165,0.024842268110785926,0.24723363471574672,-0.9017579427464778,-0.6710466324896023,0.5294376437893638,0.23564671583913965,-0.7111943145793778,-0.6761088962532544,-0.268740719808792,-0.5486592523768904,-0.7644861692896191,-0.2933311814979004,-0.42542579363619243,-0.49140049303860456,-0.1961910736676533,-0.029271199382471243,-0.47414983702715624],"TrainRel":true,"LocalDeriv":0}],[{"Layer":5,"Node":0,"InputSum":-5.820020490605222,"RefInputSum":0.002958764073805602,"OutputSum":0,"Weights":null,"TrainRel":true,"LocalDeriv":0},{"Layer":5,"Node":1,"InputSum":3.1432422412620205,"RefInputSum":0.9586416199662882,"OutputSum":0,"Weights":null,"TrainRel":true,"LocalDeriv":0},{"Layer":5,"Node":2,"InputSum":-3.875158997599887,"RefInputSum":0.02032918651914285,"OutputSum":0,"Weights":null,"TrainRel":true,"LocalDeriv":0},{"Layer":5,"Node":3,"InputSum":-4.138213829183757,"RefInputSum":0.01570086831149538,"OutputSum":0,"Weights":null,"TrainRel":true,"LocalDeriv":0},{"Layer":5,"Node":4,"InputSum":-3.64433919512938,"RefInputSum":0.025472850118939426,"OutputSum":0,"Weights":null,"TrainRel":true,"LocalDeriv":0},{"Layer":5,"Node":5,"InputSum":-5.335081228422324,"RefInputSum":0.004796402264481011,"OutputSum":0,"Weights":null,"TrainRel":true,"LocalDeriv":0},{"Layer":5,"Node":6,"InputSum":-3.222001971188377,"RefInputSum":0.038346093204093705,"OutputSum":0,"Weights":null,"TrainRel":true,"LocalDeriv":0},{"Layer":5,"Node":7,"InputSum":-5.809339315750219,"RefInputSum":0.0029904415180752554,"OutputSum":0,"Weights":null,"TrainRel":true,"LocalDeriv":0},{"Layer":5,"Node":8,"InputSum":-5.738111689308896,"RefInputSum":0.003210503957709474,"OutputSum":0,"Weights":null,"TrainRel":true,"LocalDeriv":0},{"Layer":5,"Node":9,"InputSum":-6.255417377898467,"RefInputSum":0.0019163449838867795,"OutputSum":0,"Weights":null,"TrainRel":true,"LocalDeriv":0},{"Layer":5,"Node":10,"InputSum":-5.631293440313895,"RefInputSum":0.0035711379872974056,"OutputSum":0,"Weights":null,"TrainRel":true,"LocalDeriv":0},{"Layer":5,"Node":11,"InputSum":-6.424927295175585,"RefInputSum":0.001618028842571828,"OutputSum":0,"Weights":null,"TrainRel":true,"LocalDeriv":0},{"Layer":5,"Node":12,"InputSum":-5.770550575404343,"RefInputSum":0.0031083483696134257,"OutputSum":0,"Weights":null,"TrainRel":true,"LocalDeriv":0},{"Layer":5,"Node":13,"InputSum":-5.515386642664313,"RefInputSum":0.004008240397478267,"OutputSum":0,"Weights":null,"TrainRel":true,"LocalDeriv":0},{"Layer":5,"Node":14,"InputSum":-5.92474069107048,"RefInputSum":0.002665377375992716,"OutputSum":0,"Weights":null,"TrainRel":true,"LocalDeriv":0},{"Layer":5,"Node":15,"InputSum":-5.779100834578841,"RefInputSum":0.0030819660440158632,"OutputSum":0,"Weights":null,"TrainRel":true,"LocalDeriv":0},{"Layer":5,"Node":16,"InputSum":-6.068760411040005,"RefInputSum":0.0023086974737324484,"OutputSum":0,"Weights":null,"TrainRel":false,"LocalDeriv":0},{"Layer":5,"Node":17,"InputSum":-5.7082650373669015,"RefInputSum":0.0033074493742479474,"OutputSum":0,"Weights":null,"TrainRel":false,"LocalDeriv":0},{"Layer":5,"Node":18,"InputSum":-5.955676742413693,"RefInputSum":0.0025843933457248836,"OutputSum":0,"Weights":null,"TrainRel":false,"LocalDeriv":0},{"Layer":5,"Node":19,"InputSum":-6.004397924484088,"RefInputSum":0.0024617993359483665,"OutputSum":0,"Weights":null,"TrainRel":false,"LocalDeriv":0}]]end